, 436648891.896 0.0154494727305 0.149854475717 8494058.80666 0.0215896900989 -0.020212648683 -0.00167192639682 -0.00215067061143 2.17789734115 -0.0266747921631 0.589590509067 0.0106324493738 -7.49690378057 -0.00975244534093 -0.0096883101238 -0.0131600213874 -0.029958331488 -7.05808777525 0.0604009646261 -62781.8020742 0.0150199376249 0.0071104494772 45237507.8335 1.0325244014 0.0788804007634 -0.00571981970932 -0.00355666152387 -0.0240833219736 -0.0142184815504 0.00449063090816 0.00837075658074 0.0144778158774 0.0181229061537 -0.0202265157936 -0.0922124914226 -0.00896724790082 0.00542564594278 -0.0254959712927 0.0174579690571 -2.07293712501 -0.0148012348623 0.0157488120564 -0.0261300790684 0.013665286466 0.0267969669548 4.7223208786 -1.17003685053 0.0138329342194 -2.4141809183 0.0123736770604 -0.961924248585 -0.0148423756525 0.0203030688909 -0.0127080854771 -0.0203799669271 0.0260864817791 -0.0812239880307 0.00374708521699 0.0106642873602 -0.026243905918 2.23635520223 -0.0156517233204 2.13245096511 0.0104902180576 0.0245183822887 -0.0177156115295 0.0144584079773 0.00212753835693 0.0313004836554 -0.0271811572241 1.18905982342 0.0149180134068 -0.00779781932816 0.0268685693385 0.00370530413292 0.00977992270568 -0.0239345908185 -0.00179708324416 0.0258617430457 0.0129264655514 -0.0174176011444 -0.0237457215612 -0.00561988966879 -0.0169735373559 -0.00959458662655 0.0238760301811 -0.0228975904446 -0.0159844916181 -0.0241942919307 -0.0140026486306 1.21411102918 0.00209454108087 0.014016387455 0.00800340792015 0.0246169113081 -0.0286876288384 -0.0198316972006 -0.0241406337614 2.56412889097 -1.97268958913e-05 0.0121533029753 -0.0230419361369 0.017651596997 -0.0257643909359 -0.0230953743938 -0.0280694606415 -1.6693244703 -3.61561342036 -0.00568912334383 -0.019830866887 0.0230936205786 -1.00199093617 0.000142849130221 -0.0031866829296 0.0236200613941 0.0161550942222 0.0135238931398 0.0117380403305 -10.4368563822 -0.0407968773233 -0.0150705743544 0.0144936376277 1.64914802944 0.00362238314261 -0.00905977787483 -0.00631767055948 -0.00326295098 -0.00930549639694 0.0202672395029 0.0255098322064 0.0239245726161 0.00728824978778 0.00301688640848 0.0129241193422 -0.0134363087466 -0.0121153138519 -0.0241971098685 -0.0146441614981 -0.0138531329362 0.0178990337473 0.0248520047994 0.0141821802391 -0.00932082778434 0.0192066673262 -0.00493833300594 9.21836829226e-05 0.00205308805989 0.0108215725793 0.0284203191621 -0.00723850315594 -0.0147656125389 -0.0132286494847 -0.00841746663842 -0.021432267744 7.69543860555e-05 -0.0238142856278 -0.0186832278543 -0.0142351574442 0.000983163827043 -0.00262055559724 0.0277061086112 -0.0240326126307 0.0206369798308 0.0250695574232 0.0136382621667 0.00035413920247 -0.00469634242837 -0.00837825776655 0.0221588012351 -0.0185208248522 -2.10473326867 -0.0193541901437 -0.464723360029 0.000558428354255 0.00493645563099 0.0224120083703 -0.0147134040242 0.0233759928394 -0.625733776894 -0.000856366070105 -0.00623020759403 0.0233950304854 -0.0263286228278 -0.0266611747456 -0.0143548401759 -0.00906667780916 -0.0052858595409 -0.0179972425479 -0.0214547550227 0.0169349423756 -0.0116274313578 -0.609993946624 -0.0122413593446 0.00328353762405 0.0107861231969 0.0228360039958 -0.0241546580404 -0.00411142446782 -0.00643936190114 -0.0119752454794 -0.00358577977882 0.00915131680982 0.0255908944873 3.56961605341 -0.00591705788959 -0.00412689984736 -0.0209517203318 -0.0113820898421 0.00111181250566 0.00136531287679 0.00946203296358 0.00462041053373 0.0198359352759 0.0194706945022 -1.28593518225 0.0266777056472 -0.00105416281571 0.0185598794994 0.0229400490286 -0.0236247354743 0.0850755554586 -0.0029871618874 0.00236712086363 -1.18348655843 0.0142961701432 0.0129933238217 -0.0141086819062 0.000178622787392 0.0158440353855 0.00901958778505 -0.0143882425729 -0.00493924647561 -0.00948111455507 -0.025821403094 -0.00683701881998 -0.0262793097118 0.0186925673316 0.00985744853627 -0.0240178122453 0.000167519061482 0.0265083582175 0.00880192627437 -0.0266780403844 -0.00361900468954 -0.0290131801663 -0.02029666823 -0.00372199681237 0.025173715924 0.727105827409 0.0166263999695 0.00458721514585 0.0240335003726 0.0729385366362 0.0140332253228 -0.00824170896609 -0.0254658152065 0.0131456343978 0.0117430531848 -0.024421121296 -0.0231886146928 -0.0280119176382 -0.0317434263349 0.0159348438923 -0.000243547733681 -0.014768075543 -0.0203812210206 -0.0125883152016 -0.00610242784861 -0.00669311660132 -0.00610597637976 -0.0159252488344 0.0276600253408 0.0243334519213 -0.00495889535819 -0.0158739504885 0.0244774248097 -0.0239428790661 0.0168483400172 1.89924218668 -0.0190729968867 -0.00801570690233 -0.00213245411213 -0.0252550561634 -0.00217790653217 -0.92963474075 -0.0033523573567 0.0275977894447 -0.023355525182 0.00252884750454 -0.349160055855 0.0205668262967 -0.0282113235592 -0.0191087442307 -0.02838528451 -0.00789205789454 -0.0185817231076 0.128146472968 0.026919204533 -0.0286090275284 -0.0127265447141 -0.00414927397955 0.0288266102695 0.0234104879028 -3.56339418899 -1108673554.71 -0.0120894751906 -0.0182509943575 0.00868753785317 -0.00409057277231 0.0189895085368 -0.0206407717842 -0.0254729508003 0.0257842684483 0.00817882844608 0.022143481422 -0.0581990564074 0.0113157907153 -0.00468507852623 -0.00606773658019 0.0108646058711 0.0133690862967 0.0276361380346 0.00626964144003 -0.0101562942722 -0.0254221105561 0.00711269002271 0.0209676543897 -0.0272457581649 -0.0133994826573 -0.0222079787695 -0.183569287933 -0.0228908519938 -0.0232432151918 0.0164530567262 0.0130406841611 0.0258355414486 -0.0105976375868 0.0200545028966 0.0166155659437 -0.00995440754472 0.0145904837913 -0.0119345602533 -0.00119178130069 0.000562329708938 0.021940490057 0.0206465306736 0.0201360685501 -0.0165905952194 -0.00208024794481 0.0100121337261 0.0181472787013 0.0263512119327 -0.0110155878692 0.0227079982393 0.0252769738798 0.0192518323144 -0.000784705867757 0.000712746550961 0.0164222795818 0.00816829133103 0.0120065984231 -0.0152396294677 -0.0101373297111 -0.00700619048166 -0.00787593195352 -0.0290658600759 -0.0169130102935 -0.0208400803765 -0.0266906049742 -0.0195878913397 0.00634567790494 0.00434135926629 0.00592994813737 0.0228571085396 0.0231031736543 0.00292141710357 -0.00911357471611 -0.0236527057162 -0.00249627278688 0.0193041719668 -0.0109946782287 -0.0194324108172 0.0159445163988 0.00479151514006 -0.020764221756 7.10477145094e-05 -0.00109184077119 -0.00627806838081 -0.00644024705137 0.00537376280825 -0.00418213537164 -0.00443429991212 0.0134998469237 -0.0017999331433 0.0258635415879 0.0260192512327 -0.755010992317 -0.0231277520823 -0.0111279543615 0.0219237945778 -0.0188739407631 0.00129137490164 -0.0246130445231 0.000779884756213 -0.0273892634708 1.76380811301 -0.0169232377612 -0.0207649043925 -0.0065005255261 0.00567398537856 0.010685579626 0.00987994010798 -0.0196668858003 -0.00562452360528 -0.267900701019 -0.00838903581136 0.00662697421513 0.0232383402675 -0.00566101142287 -0.0262679277346 -0.0232845674907 0.0182593569546 -0.265637426303 0.915148308648 -0.235089167194 -0.0113648873468 -0.684047507624 -0.00961153890564 0.00846415263717 -0.0112821631646 -0.00141078834099 0.00262495162165 0.0227029529337 0.025385541495 0.00423282312929 -0.0286275225546 -0.0148665959947 0.0111427118743 0.0243715813809 -0.0179942431574 -0.0205195998904 0.00368583721658 0.00162992695844 -0.0169119674142 0.0125044237796 -0.0118184068453 -0.017131952752 0.022025782323 0.0050002739374 -0.00747780033661 -0.0151885383988 -0.00618160571438 -0.0240302630698 -0.00330146470728 -0.023578914666 -0.0251271209315 0.013996915806 0.0128983891787 -0.0154677745491 0.00323391040239 0.0187561653931 -0.0182220319956 0.00786258349043 -0.0156521670211 -0.0064364376715 -0.0227818701884 -0.00723058250205 0.00228670341915 -0.0277400312658 -0.0135402447545 -0.0111783181204 0.0205429401244 -0.00842916965489 -0.0225704580316 -0.00849911045535 -0.0284826025334 0.00530112872861 -0.00754751405497 -0.0195469991978 0.0286331683845 -0.000992202668373 0.0167163179867 0.00967422541123 -0.0198995031837 -0.0275637571202 0.000476268416905 0.0271558302746 0.0228346123708 -0.00750681508949 0.000896872799007 -0.0194696558857 -0.0187284154854 -0.0159348658669 -0.0159847224318 0.0159247516937 -0.0290382814018 0.00554721065956 0.0045672379416 0.00840645086075 0.0197430952114 -0.00528243115222 0.00806547306036 0.000176412845353 -0.103530855706 0.0160893828506 -0.0255792099976 -0.00979570752693 0.0249168647971 0.00286404389188 0.0203274664207 -0.0290078392347 0.0254720214038 -0.00559374913518 0.0190578865879 -0.00801064083468 -0.0222159093839 0.00402370817653 -0.0238411766942 0.021413153479 -0.00378947143301 0.00994450503255 0.0209664359678 0.0173065313676 0.0201605395035 -0.0246563713301 0.0165177690758 0.00219931339213 -0.0152911175813 0.0967632389649 -0.0271292044709 0.0113324296829 -0.00154595484745 0.0124370623801 0.0171872506573 0.0228198908049 0.018645605231 0.0204133790128 0.0127482006114 -0.0221881047126 -0.458606074256 -0.00321178525257 0.00663136543662 -1.65164605997 -0.020289747529 0.00713090448413 0.0257136207333 0.00661576032035 0.00704604267492 -0.00896492738797 -0.251665172394 -0.00807998175964 0.020600866641 0.0166426767947 0.000327540242191 0.00394065421008 -0.0245614313501 0.0276241233646 -0.013731032454 0.0108629192866 -0.00391690435521 0.00979215069976 -0.00307150922622 -0.00147446885424 -0.0265260097466 -0.0219930473765 0.0234053142228 -0.00624008142633 0.0196793144356 0.0132666190509 0.00367313632499 0.021948224357 -0.0128036117853 0.021303414758 -0.0100194584223 0.00907310032053 -0.000989158301186 -0.0124754793751 -0.000541241724431 -0.0229757371428 -0.0281006081214 -0.00865378554554 0.00539628199968 0.0205032768476 0.01564769324 0.00759213254682 -0.000264143859074 -0.00804749178021 0.00133322501064 -0.018590287869 0.0223983575759 -0.0117503876248 0.0111280413092 0.0083593949725 -0.0290180925305 -0.00659464804807 -0.0153542466009 -0.0244431122516 0.00182972315896 0.00693997650053 0.00443775899137 0.0289162598091 0.0226967463101 -0.0149424752354 0.0150428317603 -0.666079604221 0.0168249055518 0.0272054408434 -0.00129155382571 -0.0060291160688 -0.0235547455994 0.00781975422781 -0.00326967467388 0.0155116438143 0.0086094703954 0.004674140771 0.0159720021777 0.0247812065048 -0.00723176763734 0.0232102943685 -0.523588786096 0.00949176291183 0.0226919643641 -0.0108793831232 -0.976265706173 -0.0154084254582 0.0177698854085 0.00448657580949 0.0102259145912 0.0105159007283 -0.055966164968 0.00272074737191 0.00944766284211 0.028668095029 0.00513956670776 0.00101697612223 0.0255541217659 0.0141134087901 0.00305372678257 -0.010763277953 -0.00765221148565 0.0040699218793 -0.0203208702419 -0.106376929078 -0.423184115344 -0.0109006657894 -0.0015330200676 -0.0239479340576 0.0066499942608 -0.00249283113929 0.0188430352299 355790309.612 -0.0241810001324 -0.010659924835 -0.00507447917099 0.0112921647569 -0.0193347027398 -0.0277510761517 0.0161680258591 0.018667166282 0.0190813729265 -0.00834340308195 -0.0150804611011 -0.0177098233138 -0.00491605569598 0.00641283150014 0.00671142306961 -0.00344849717775 0.0287575852305 -0.0192645496798 -0.00906827975825 -0.00591770705693 -0.00440213915886 -0.0107723784324 -0.0233240498693 0.0138930997556 -0.0125390482263 -0.289628025725 -0.0158542040377 0.0247620665909 0.0245685621521 0.0179448342094 -0.00830071647291 0.0143359703327 -0.0101262541275 0.00136356515414 0.000453004459588 0.00559056383548 -0.0106458821512 -0.0022638341378 -0.0268545112846 -0.017546478282 -0.00804193566923 0.00908409117173 0.0052008409061 12405847.5608 0.0157429116982 0.0052254762794 0.00986861216504 0.0272246296279 -0.0217981465181 0.00935984007005 0.024074083927 -0.0932644764358 -0.00253003036386 -0.0128057744572 -196387693.029 0.0128877567879 0.0268691411236 0.0139978259155 0.0248528989381 -0.245448964889 -0.0247107410458 -0.825820902627 -0.0288016544493 0.0261265680484 -0.00147006407397 -0.0241728391886 -0.0226541626542 -0.00713089273974 -0.0167906245601 0.0266606747408 0.00140316882145 0.0280296535455 0.00579636482587 -0.0108648744384 0.0206135325184 0.0144989894466 0.0244833990655 0.0141870056368 0.0141409335496 0.0252423745413 -0.0144219295834 0.00685019265007 -0.915610673925 -0.00032660669805 0.00030969171838 0.00106189252424 0.011054236824 -0.000295961059038 0.0189003068178 -0.0800540296068 -0.0248526041168 0.00925016188199 0.025396777235 0.0003173738886 0.158296739971 -0.0190301447012 0.00519188098922 -0.00263590248429 -0.0140038719837 -0.00461458450845 -0.00455867993447 -0.00895358827238 0.0133261839311 0.0136775558981 -0.0193491634627 -0.0163855940491 0.00563846551833 0.0286749549382 -0.00878363450898 -0.00405761211481 0.00596602712799 0.02219679653 0.0127387125733 0.0197050721961 -0.0181668010967 -0.015843238523 -0.0140832590465 0.00294686000408 0.000490917366529 0.0207304286888 -0.0245557676744 -0.015798246018 0.00549273786266 -0.0255070962191 0.00139881835568 0.0052211639748 0.0095813111932 0.0184677141944 0.00710519030661 0.00203911801275 2.35205026575 0.0184042979979 0.00223387378191 0.0175544970802 0.026411099477 -0.0277445466357 0.0181957036247 -0.0139263822108 0.0132045579294 0.0101736006973 -0.00683815714131 0.0140212372016 0.0188734004067 0.000208044718706 -0.00719282201499 -0.000224052211529 0.0106971545493 0.0182137351734 -0.013151226915 0.0258655840811 -0.00965507625695 -0.577335510884 -0.0278066989758 0.0124263893686 -0.0265130708233 -0.664275366725 -0.0187064546899 0.0288714095066 0.0149016749582 -0.00147354409757 -0.0172749701033 -0.00765705582175 -0.0135841818835 0.0204898651854 -0.0191494862655 0.0248665215672 -0.0186696741598 -0.00126682291654 -0.00852068133997 -0.0159748236069 -0.0287805622723 -0.0225490357753 -0.014781442057 0.00152326070389 -0.0225271802038 0.0189555069426 0.0201654351127 -0.00921875810732 -0.0171687499321 0.022878741756 0.00097178720494 -0.00721671332637 -0.252958209637 -0.0147927221759 0.0276013289744 0.0186768172975 -0.0136478196987 0.0216966039829 0.0203406898026 0.011100570832 -0.00851695406438 -0.022788718543 0.0265754797879 -0.018293237773 -0.00293520906334 -0.0204326260874 -0.000425788452289 -0.0155403133091 -0.020948903772 0.00373780886637 0.00755151542867 -0.0262131728133 -0.00584767757838 0.0291284859074 0.00676775195593 0.0244551740484 -0.0151296816697 -0.000280157289132 -0.0138869072731 0.000531308334531 0.00659792052913 0.0194324776369 -0.00577609193024 -0.0220626822942 -0.0229329628192 -0.00728489677119 -0.0109368911424 0.0227278605837 -0.0222143535209 -0.0067293698118 -0.0181522322567 -0.0130706247186 0.0177136771246 0.0128174980337 0.013667361233 0.00883579917245 -0.0184993909086 -0.0176436657842 -0.00945849507152 -0.117445984042 0.0196802313926 -0.0217290005916 -0.0159118630634 -0.00821134339891 0.000155893087735 0.00847766405209 -0.00998827753676 -0.00382107009942 -0.0184744347107 0.0284660269095 0.0161472708613 0.00106117502509 -0.0284931865535 -0.0256822001142 -0.0178101678109 -0.00273880984491 -0.0208471045872 0.00654595885227 -0.0259004526594 0.00302050238562 -0.0291618375508 0.00574293219275 -0.00870882445645 -0.230141964698 -0.0016842642659 0.0244657282929 -0.0156029682347 -0.00126014743311 -0.0271424280292 -0.0148148529634 0.0150036098465 -0.0169506817826 0.00824632720886 -0.0199106424663 0.0165452301626 -0.00494679828447 0.00508425192341 -0.00494366371251 0.0264675242894 -0.00481217972522 0.00119538214635 0.0226530378731 0.00129290067648 -0.0112884087866 -0.00255732311677 0.0267284783149 -0.0272145669719 0.0219245087366 -0.0157941955825 -0.00170882969097 0.0289091493393 -0.0245365190017 -0.0427511520364 0.0122948500181 0.0131168062746 -0.00560473477566 0.017345881699 -0.010567613015 -0.0263493984087 -0.0157004541454 -0.00857510351968 0.0150479416298 0.0104070285094 0.0149577259847 496670268.613 -0.0219781525035 -0.00279063629253 -0.313277763715 0.0262501047882 -0.0176100370041 -0.0071018006923 0.00275344088697 -0.00931093140317 -0.0956121310183 0.0271337687069 0.0132026900764 -0.016196204166 0.0136620372384 0.0155698731593 0.0234392141521 0.0151083448289 -0.0201590097375 0.0142250523701 -0.490184012625 -0.0764950127948 -2.00804246792 -0.0132717943012 0.0224621463282 0.0248686487989 -0.0217892432503 0.00130046674966 -0.0239092701223 0.00118765846358 -0.0142055617784 -0.00343613560785 0.0147504917839 0.0161321058349 0.0199734386222 0.0123349298267 -0.00567165959252 0.0263115609564 -0.00316971857556 0.0172437233251 -0.0199735608558 0.002966449163 -0.0247577541062 0.0110831362691 -0.00997146385088 0.0220170844468 -0.00291761781353 -0.0186102036389 0.029085042465 0.0276767993337 0.0185458899618 -0.027072654382 0.0116016772844 -0.027207603861 -0.0249224063446 0.0119724499669 -7.82023801911 0.0076953806683 -0.0240826716067 -0.0211680047675 -0.0180731565637 -0.0106703544603 0.00216692414726 -0.00779619018951 -0.00570135499238 -0.0230038833956 0.0101792328001 0.0122251112283 -0.0275872422633 -0.0197504484138 -0.0181514363295 0.00758912884109 -0.0107142194862 -0.0091049716095 0.00913263008142 0.0177533690205 0.0239101366559 -0.0174229147822 -0.00132161221712 -0.00710397912423 0.00476754364377 -0.00962415698259 0.012764448456 0.028756531258 -0.0100033611303 0.0168701029425 -0.00489324629454 -0.0282619619822 0.0118818628175 -0.020003777145 0.000190152855987 0.0111530186868 0.0173326018583 -0.0122198360759 -0.0200039049844 -0.0138856939157 -0.0108078509873 0.001194749271 0.0236954946516 476.151728453 0.0348024212111 0.0266032996825 -0.00359479739482 -0.0163514021695 0.011018049504 0.0244256816716 -0.0194198122121 -0.000530829591052 0.011762743351 0.0277728255627 -0.0102438518863 -0.00828441029044 0.0224172522006 0.0226781054869 -0.0112199702481 0.0154267314013 0.0049513035383 -0.0267850547519 -1.90372010209 -0.0201282407541 -0.00186445750776 -0.0264466942686 0.0031122916267 -0.00810928689754 0.00517233550872 0.00151766655503 -0.0109312460855 -0.0177743417501 0.100482733336 0.00741122644988 0.00253360788045 -0.0167317144941 -0.0232133307031 -0.0120093105939 0.0154833813643 -0.0205121541304 -0.0192555397785 0.0287770412741 -0.0104826274652 0.0117325390184 0.00283900429748 -0.0213942103663 -0.0129893061271 -0.0168651989638 -0.0113438435798 -0.000238032814708 -0.0136146075344 -0.000602112926485 1.87834422527 -0.223391265787 0.0451137418966 0.00304811217974 -0.0158794176638 0.00422692187962 -0.00435390271352 -0.019279203591 -0.00144311196509 0.0163578701706 -0.00904413495729 -0.0110284831358 -0.00624664059599 -0.0074285425136 0.0150461257989 -0.00584758149006 -0.0286814943284 -0.0165168245362 -0.00890518802821 0.00623531922214 -0.0153879211517 0.0255872375956 0.00537314039468 -0.00477507395737 -1.12257312448 -0.0248005308155 -0.0259059228057 -0.0289149935322 -0.0199680359228 -0.0119903517205 0.0247205680672 0.00634873186921 0.0109126581911 0.0151700217018 -0.0218583543893 0.00169966866461 -0.013693375079 0.0170122192951 0.0281971624312 0.0243134117221 0.0281895507742 0.0210996150688 0.00227099468572 -0.0143037117348 0.00500376547559 -0.0865039046751 0.0113805405609 -0.0168876570607 -0.0105331213902 0.0251787611846 -0.00559995449072 0.0202093007591 0.00163322416372 0.00910770836021 0.0206218610201 0.018800382958 -0.0278363090126 -0.0284832174472 0.0159651770167 0.0177259237741 0.000695100352013 0.00595667282596 0.000726086134956 -0.0198333541663 -0.000375743841284 0.0149615647857 -0.0181072112067 0.0283020268823 0.00423464653403 0.0258265242086 0.00925431280591 0.00192900676697 0.00740434552583 0.0266836549725 -0.00651366506463 0.0094234915489 -0.0125804705855 10.6556179328 -0.0170361710298
the 510838142.253 0.00142717593408 0.16057332649 9936987.22674 0.00706140206081 0.00499592541401 0.000825739897459 -0.00424281047318 1.89228453322 0.0206470293869 0.530810092443 0.0272888167969 -6.60618993059 0.00783338167105 -0.0047003338638 -0.00625981284433 0.0351799803591 -6.17214833296 0.311543426919 -72572.7623881 -0.0280879029013 -0.0210131052427 52234288.2327 0.862951909517 0.0889396636782 -0.0011893405178 -0.00285428845418 -0.0140291333554 0.0140946716473 -0.0247871411354 0.023375463113 0.0144826781889 0.00544176081953 0.00364575348818 -0.113618450255 -0.0276721521255 0.00127634655464 -0.0227254970639 -0.0102297681629 -1.01661998767 0.0284135847107 -0.0122390963722 -0.012108345257 0.00131764002716 0.0101454855067 4.1486386562 0.857436605497 0.014396406164 -3.21917054019 -0.0207658447201 -1.63410914309 -0.0122894169064 -0.0191314893623 -0.00677269906761 0.0066471061638 0.0239521967834 -0.114443438313 -0.019480837619 -0.0148099898704 -0.0244345726073 1.94831546317 -0.0204593143037 1.89215968323 0.00206868486341 0.0216754432387 -0.0140188124357 0.00681888487137 -0.0171432782835 0.0520954939772 -0.0323051471591 1.05242533852 -0.0196014316026 0.00921489594432 0.0169657362786 -0.0239534634727 0.0235869278589 -0.0282338442992 -0.015024411055 0.0157864977482 0.0228400240115 0.0125473214054 -0.0135854170129 -0.00190922390633 0.000941531078848 0.00138956181763 0.0268498000368 -0.0024987382427 -0.0194573263047 -0.0189686635432 -0.0167927920795 1.06256091466 -0.0415137201536 0.0142128879993 0.00102732658986 0.0152571941759 -0.0216435355652 -0.0236587345205 -0.0229244410227 2.24129997152 0.000928079054042 0.00194421676071 -0.00117910380305 0.00107231445845 0.0123525491366 0.017169418049 0.0112327910635 -0.896967129341 -1.51395247778 -0.0140289076839 0.00861035908515 -0.0206876864525 -1.62879229807 0.0136242159092 0.00779648186516 -0.0280545746914 -0.0156425344121 0.0219472786841 0.0081229588593 -9.15088516667 -0.218734976553 0.00607184183803 0.000275827693134 1.58172328944 -0.0278245416603 -0.0266048458349 0.0112796097575 0.0289663823883 -0.00865947897131 0.000237610108994 -0.00330039051348 -0.0250000243827 0.0286781774978 -0.0219266582447 -0.00614132899519 0.0149666518935 -0.0242747461128 -5.38581169538e-05 0.0244605813996 0.0217810747335 -0.00733787178074 -0.00718686841478 0.0205691605007 -0.0251119968519 -0.000376788443267 -0.00502385697321 0.0256843985992 0.0202983981415 0.0204028483087 0.0165553354543 -0.0251131832008 0.0154480888806 0.0265370664175 0.0078083182135 0.00372603818028 0.0267067763817 0.00934957749726 -0.0102534497753 0.00585537080946 -0.0163609157033 0.0104005343619 0.00733388307429 0.0277722045846 0.0284915494457 -0.0226088668733 0.0290805218448 -0.00972409919669 0.0156088792967 0.00797544243341 0.0191610544604 -0.0128496992721 -1.7687399558 -0.0223628113959 -0.432690954539 0.0239848544791 -0.00740322775499 0.0162651480502 -0.0170265062503 -0.00712725756662 0.0307101931957 -0.020802606271 0.0273743668717 -0.0208040817713 -0.0161509596769 -0.0125279694029 0.017770462966 -0.0195666081043 -0.0170656577639 0.0183246791485 0.00941400449855 -0.000148137044679 -0.0151810559196 -0.537444842173 0.0146808331399 -0.00345065406546 0.00813566396972 0.00643399051942 0.0175631557213 -0.00446160662137 0.0152769889347 0.00803447039259 0.0097337054416 0.00644416013565 0.025095775517 3.11135250402 -0.0282641781599 -0.00729773531611 0.0195067499767 -0.0026411314846 0.00127961110236 -0.0277944396959 0.0194495227048 -0.00257112808597 -0.0194885374355 -0.400316797964 -0.985899239511 -0.00922779067093 -0.00733696709481 0.0251681534811 -0.00566959598636 0.0128296106668 -0.081705950377 -0.00307342573614 0.0122409556853 -1.26977670167 -0.00720884398034 0.0203174939968 0.0129220009989 -0.0138648436325 0.0281170819671 0.0133714952804 -0.0170830149204 0.000718269387333 -0.0201321242965 0.0193351590872 -0.00884954507185 0.00397528516992 0.00909561853837 -0.0148127461118 0.00940955550365 -0.0012455225774 -0.0175708003193 -0.00502314103191 0.0125937230896 -0.00857645911679 0.0196055329152 -0.0212264330112 -0.00504507835655 0.0247116656674 0.651358378498 0.025557970787 -0.0198507033915 -0.00275733647066 -0.265134724229 -0.0134544737712 0.0187354465077 0.0135168211802 -0.0128793702504 -0.0120541514017 -0.0163143421496 0.0268025973429 0.0235320277294 -0.0599463897141 0.0243242851368 0.0158982655863 -0.0101284874507 -0.00973987556854 0.0204965544015 0.0192808151009 -0.00553046363298 -0.0239458347466 -0.008365061132 -0.00392006868693 0.0101575301078 -0.0203148713217 -0.0110699862682 -0.0205924546274 -0.0141832077162 -0.028685304259 1.65171900177 -0.00630466412961 -0.0172793890012 0.00763663234953 -0.0205172167942 -0.0207161538239 -0.687770906398 0.0195293678958 -0.0115391978441 -0.0273377809129 -0.00870880332981 -0.314043373144 0.0189112147594 0.0173497702843 0.00570446424211 -0.0162521880007 -0.0173193571448 -0.0249916221524 -0.215587222595 0.00362697639123 -0.00216087806112 0.0206432856996 -0.00364851795144 -0.00615794223682 0.000421110115958 -4.02041912981 -1272754620.28 -0.0162271679457 -0.002619679675 0.0113736686808 0.00969156709795 0.0155176855479 0.0218249032671 -0.00747510075244 -0.000827382298826 0.00851154510804 0.0104129674127 -0.239982285661 0.00398339913396 -0.0282306389631 -0.0119645158048 0.012875442455 0.0273443010278 -0.0171274908611 0.0158102503948 -0.0111522968143 -0.0264311001741 0.0157137527785 -0.0169132727272 0.0246732290223 0.00156809551706 -0.00230034492667 -0.286272841126 0.00842122710596 0.0186563687076 -0.0162985199059 -0.0124094245027 0.00804564830783 -0.0273046544283 -0.0231868542433 0.0185165764136 0.0123280929723 0.0148573164137 0.0239636648812 0.0208657789247 -0.024300490218 -0.0178730119191 0.0223163009438 -0.00924374993873 0.0193485413203 0.00184352794436 -0.0247821476466 -0.00743608414302 -0.0216466409902 -0.00593336499418 -0.0152472690026 -0.0107016915763 -0.0160131023456 -0.010250571586 -0.000486153137529 -0.0212965916806 0.000443844380989 0.026740444005 -0.00986689711411 0.00651365525986 -0.0211317142319 0.0140004272942 0.0290790852638 0.0288574773994 -0.000726012026254 -0.000703679827253 0.00327700904462 -0.0271008009619 0.0203032079697 0.012038981973 0.00907317577631 -0.0106751936051 -0.0168857892745 -0.0172566038811 -0.0102198473218 -0.004912124226 -0.0103888735105 0.000240388180163 -0.0262269127981 0.0250134200058 -0.0235212988246 -0.0241102348824 0.0119592205024 -0.0266013920715 0.0260680638661 -0.0221566652843 0.00928729782554 -0.00393977306678 -0.014298456592 0.00445023804124 -0.0170390927351 -0.0105872162115 0.005806488798 -0.807379808854 -0.026055332007 -0.0243176409341 0.00541539003069 -0.0208147665506 -0.00792793061992 -0.00873750802178 0.0180603451993 0.0132665090438 1.54419838373 -0.0289263755697 0.000424933272235 -0.025937958388 0.00658121729969 0.0207087498486 -0.0045979236816 -0.00627772406766 -0.0262970298172 -0.136816191389 0.0256416663003 0.0224316559037 0.00679366589699 0.00711661666515 -0.00445192819301 -0.0275156670821 0.00467041026733 -0.0904233378329 0.824303917454 -0.0596199697363 -0.00177822451657 -0.75763866633 -0.0229774866538 0.00310266937231 0.00357550497384 -0.00592632747518 -0.0124176166572 -0.00892728846161 0.0213933748262 0.00864661778083 -0.02121250541 -0.0183085376402 -0.0212683204629 -0.00682250882969 0.0165972225486 0.0270950832318 0.0207961028794 -0.00304295167213 -0.0087542182478 -0.00680147992024 -0.0125744144261 -0.0218541977762 -0.0252998719 0.00939395974505 -0.00286543607941 0.0264331069967 -0.000491466231807 0.00829318251983 -0.0179233898809 -0.0255608443877 0.0272617653374 -0.0151789184736 0.0075647337261 0.0108116240702 0.00919437415655 0.0112166868659 -0.00132561041953 0.0187706293416 -0.00697822813983 0.0201472017536 0.0229957704575 0.0265774285557 0.00254660662012 -0.000491057908603 -0.0252712212225 0.00653736197421 0.0217342679332 -0.0110873770211 0.00701783246849 0.00940587373432 -0.00830249230042 0.00803003823585 -0.00153068366295 -0.00976124141856 -0.0179347533598 -0.0131282315961 0.00182098307078 -0.0104241184272 -0.0173042339835 -0.00255281108943 0.0194728845509 -0.00572957285454 -0.0124768724947 0.0257351543209 0.00886154193728 0.0129405839207 -0.0206311146988 0.00260676415827 -0.0186036755914 0.00111606278155 0.0155975028858 -0.00537368581563 -0.0233056463403 0.0227073651489 0.010588373118 -0.00246656621848 0.00591132255378 0.0230057343868 0.0174504257389 0.00619843046972 0.0154497926813 0.0103570667151 -0.0221951438662 -0.0153089072566 0.0154645040999 0.00986063929208 -0.0277849835978 -0.01213386189 0.0207716558537 -0.0236772678062 -0.00996189018688 0.00607613498928 -0.0137565285065 -0.000291335967938 -0.0265158452891 -0.0278411434132 -0.00797568645729 -0.0116483118 -0.018347806414 -0.0131856170296 -0.0150615538675 -0.02331479084 -0.0257913156045 -0.299900336986 -0.0291713573152 0.0154245562727 -0.0167304006114 0.0174298201978 0.0154306653469 -0.0118138964016 0.000673012575392 -0.000646110931639 -0.0147787739728 0.0247773813899 -0.596443484052 -0.0289368299182 0.0233321371006 -1.73241873919 -0.00486437475806 0.0196333239773 0.0228434401335 -0.0197449252179 -0.00615514312974 -0.00615951712127 -0.243753450923 0.0204562947723 0.0063461113574 0.0159619395778 0.0130336971108 0.0165944063185 -0.00706236876732 -0.00280861761199 0.0120196943544 -0.0122717583386 0.000544859159783 -0.025504543608 0.0252832038461 0.024286096978 0.0273085751359 0.0275983969594 -0.00624442070987 0.0103610376268 0.0021355706629 0.0237789792194 0.00719295345153 -0.0274187518146 0.0241735977965 0.0277531240185 -0.00123504435114 -0.0119025426562 0.00681392782824 0.00428636501135 0.0158283786284 -0.0136505279125 0.00827853812235 -0.0038602019534 -0.0118213544198 -0.00617753285237 0.00497510820294 0.0236212210692 0.0274921785045 0.0277687097023 0.00612986708551 0.0292059806096 -0.0138887985206 -0.0086314238632 -0.0157687595609 -0.0251300682029 0.0136109934891 0.019000614727 -0.006316266299 0.0074573430028 0.0210557331584 0.021413389851 -0.0129918791075 0.0136134752931 0.00401990573024 0.0102039108608 0.0169484096301 -0.536891406372 -0.0274678203102 -0.00631955875658 0.0142773074612 0.0179797517781 -0.0143383349949 0.0158040054991 -0.0161447390432 -0.0172264131035 0.00752684203469 -0.00849279434434 -0.000832258244277 0.0151854773613 -0.0164791431068 -0.00876787390731 -0.555438582135 -0.000451920170751 0.0143110600161 0.0172541882282 -0.841190672023 0.00236922153056 0.0140598938477 -0.0173194876101 -0.0264139723614 -0.0248442974057 -0.0288114146613 -0.00243109710712 -0.00322735248409 0.0107256191537 0.0284315288079 0.0117372385696 0.00997392978543 0.0231905989388 0.0226531320826 0.0287797840398 -0.0117165444321 0.00601300609871 0.013290064973 -0.243516108262 -0.178907115932 0.00519941129051 0.0220336390629 0.00531103584247 -0.0358442935196 -0.0222413590835 -0.000425931923107 416154707.502 -0.00464349109698 0.0125567712456 -0.0247701935337 -0.00389741052055 -0.00718345572463 0.00931366031161 0.0140286525461 0.0272834467843 -0.0158945636284 -0.0176350177348 0.0133352882895 0.00307573601089 -0.015041324774 0.0254410910464 -0.0080687285979 -0.0114623117265 -0.0137926243149 -0.00818943421451 0.0249512938025 -0.0256669165547 0.0147973204603 0.00717825638051 -0.0272067046406 -0.0179728614788 0.0267415175481 -0.0706512370771 0.00160864505546 0.0281553332595 -0.0239667199931 -0.0222088890583 0.0244974180659 -0.0146223496777 0.0179713405772 -0.0255474993891 -0.0110725461076 0.0249154881199 -0.0273434629476 -0.0199501793324 -0.0139894230003 0.0240576203415 0.023931105174 0.00224243833628 0.00268021269921 14509319.9636 -0.0195168018536 0.0111362249685 -0.017709085918 -0.0196506256609 0.0278321104491 0.0212622977384 0.017256076596 -0.144041039447 -0.00820718907503 -0.027464793325 -229640818.136 -0.016403916123 -0.0150668561932 0.017195537152 0.00327357789532 -0.162245898339 -0.00388695970308 -0.406871385589 -0.0016013949414 0.00397784922351 -0.0139497299797 -0.0210950575005 -0.0144240551237 -0.011462408578 -0.00309525745459 -0.00331964523727 0.00963289769821 -0.0142210511338 0.0261560734463 -0.0132399716424 -0.00810311028886 0.00295451958365 -0.0107640050236 0.0288338846737 0.0132425534204 0.0220391551395 -0.0228150963743 0.009279184199 -0.897006715027 0.00931704293453 -0.011208197993 0.000979669168898 -0.0100975659096 -0.0238640767287 -0.017963083516 -0.125258878778 -0.0239040877105 -0.00899785675562 -0.0291575546249 -0.0150288926438 -0.01490147267 -0.0104720843358 -0.000517741257207 -0.0141030878155 0.0026848277978 -0.00405069711337 -0.0137954801016 0.0228136043643 -0.0273580550473 0.0266086201187 0.016103880075 0.00808511240513 0.0151884478606 -0.000256010799594 -0.0216994299107 0.0254436545302 -0.00562956327021 -0.0031215604711 -0.0245409818517 0.0196544308187 0.00767232293926 -0.0236459585947 -0.00996214650673 -0.0187248415895 0.0134343866462 -0.0226394753669 -0.0239829762399 -0.0108672585019 -0.0290276990167 0.0179044846035 -0.0089844480695 0.0177764717289 0.00923161982031 0.00412104357663 -0.0182955232875 0.00106240477248 2.06485939817 -0.0115352159114 -0.00644285991901 0.00568390846955 -0.0194582484298 0.01555824286 0.0122425201642 0.00115345596274 -0.00997295343938 -0.00816895983309 -0.0137970613778 0.00730970840455 -0.0255104340726 0.013725559334 -0.0124381755925 -0.0261154957911 0.0154246265776 0.0252023385436 0.0203828650825 0.0064260718841 0.0265301696741 -0.741174137026 0.0156617458783 -0.0151285293194 -0.0036508261488 -0.609152583057 -0.00429279684692 0.00559547287608 -0.0231960008817 0.0209685084309 0.00825474922959 -0.0159087953628 -0.0242274049692 -0.0156030150614 0.00464879619513 0.0152258860849 -0.0290593192244 -0.00489574941858 0.00338842315759 -0.0283779537173 0.00732277749785 -0.014062064458 -0.0132433167179 -0.0233243790112 0.00824979978448 -0.00199268859074 0.0209039209291 0.00483087898901 0.00759733682042 0.000846396745169 -0.0229311603293 0.0221579520439 -0.0842424598057 0.00018152840808 -0.0224975188639 0.0189615607113 0.00525469072505 0.0215806093523 0.00630052408886 -0.0209984571016 -0.0106900267571 0.0291756286214 -0.025656188363 -0.0249623583491 -0.0222472402275 -0.0177480182288 0.0077623560635 -0.0179607541844 -0.0108814229147 -0.00635510352282 0.00429044323836 0.0173615025087 0.00384912111014 0.0279701900526 -0.0101429299802 -0.00768007253111 0.0160825695653 0.0185362674584 -0.0220499703896 -0.00330912063367 -0.014224489871 0.0112503643301 0.0171180183309 -0.00609308092559 -0.0158724031722 -0.0220204359271 -0.0213326275065 0.00413404493567 -0.0195433125016 0.00542010045553 0.0279678865865 0.0179807541286 0.0204691534435 0.0154349915394 0.00219932096783 0.0273924519402 0.0142726956881 0.0163862213111 0.0230417637746 -0.386448634388 -0.0247066222549 0.0189653807306 0.0288476911757 0.0221997731645 -0.00538517983132 -0.00957057142029 -0.0220054195255 -0.0253488988049 -0.0236093444046 0.0202799475067 -0.0172889463167 0.0117175523551 -0.00727799376665 -0.013266521842 -0.00715486568061 0.0160997910909 -0.0292149600727 0.0188462558734 0.0162425219933 0.0127590758955 -0.00620921294874 -0.0147127661377 0.0257644844965 -0.0263551297405 -0.0264804312871 0.00311770113972 -0.0228209230105 -0.00351927338095 0.0264915517487 -0.0285534650788 0.0121437364926 -0.00828649252506 0.0202526151525 0.00425221388028 0.0192200626832 -0.00166323566655 0.00213061312354 -0.00675304108721 -0.0175217740832 0.0240190049223 0.0228798535513 -0.0187927496944 -0.00694829147536 0.0160910112127 0.0149452396685 -0.00230219423262 0.00687032770328 -0.00732364245791 -0.00155741952204 -0.0017518089523 -0.0159312094297 -0.00698040013313 -0.0629195076148 -0.00973742685976 -0.0135693368167 0.0128437661749 -0.00710332340891 0.00977922583181 -0.021603258353 -0.0119917243512 -0.0239702779787 0.0214174684771 -0.0183214812892 -0.0120194585283 581035474.901 0.0276341662035 0.0206347233767 -0.515866975453 -0.00465211656119 0.0178245908818 -0.0244142803923 -0.00709169170707 0.0287778705866 -0.135624903128 0.0105360967546 -0.0288420109725 0.00143556883734 -0.0056826741832 -0.00288906397632 0.00260823329091 0.00834901708083 0.00514289518909 0.00253329883658 -0.394857203284 -0.050449197961 -2.10172929367 -0.0123612989578 -0.00804735137719 0.0250756804081 -0.0147991446625 0.00673782445983 -0.0230551634281 0.00224323663663 0.0134198180324 -0.027738140346 -0.0186190676424 0.0183082592726 0.0249367346693 -0.0200728079412 -0.0250744656565 -0.0154259207404 -0.0290091870455 0.0245178456845 -0.0270378833655 0.00565825377907 0.0240002172845 0.0131943806158 -0.00944420456935 -0.00896808738957 0.00130340668499 -0.0189830085942 0.00286662249991 0.0099914261155 0.0191147890176 -0.00376486561239 -0.00990331176875 -0.00380061775713 -0.00966692632182 -0.00138928512339 -6.94688955769 -0.0199966344551 0.0205005245945 -0.0219144254418 -0.00688189919812 -0.025461423356 -0.00644071467176 -0.0181429034183 -0.0244180393855 0.0222938390051 0.00102580446082 -0.0116356005 0.00630069014421 -0.0255970996472 0.023729990928 -0.0195329897122 0.00740505131273 -0.0015741829045 -0.0226752345576 0.012881266527 -0.0130591141345 -0.0292211993652 0.00954028730126 -0.0301188760837 -0.00632136042224 0.00450143220583 -0.0201240340519 0.0125053886475 -0.003709016445 0.0142419098701 0.0229320116411 -0.0249050048866 -0.0160675240487 0.0199030403214 0.0100175463107 -0.0140381760458 0.0209886385197 -0.0172729559416 -0.00153902015062 0.0219002597288 -0.00339105151275 0.0103658054237 0.00627783118323 557.102295709 0.0138772259269 0.0150413632176 -0.00908276818815 0.027794657626 0.00834664211103 0.029157821334 0.0315007202148 -0.00195516568067 -0.00341754002318 0.00317153083438 0.012882410732 -0.0253916153033 -0.00227000973282 0.0215150832568 -0.0111019912776 0.0124294297764 -0.0169792667384 -0.0210042528448 -1.06257907249 -0.00268698295908 -0.0117031131486 -0.00771064551085 0.0153101878116 -0.0216713844084 0.00924372372022 -0.0277301197353 0.0254246705864 0.0236546302262 -0.00833068549024 0.00421760806884 0.0111351321424 0.0115682775425 -0.00169627348627 0.0109940334061 -0.0229116668967 0.0153906124858 0.0253903019932 -0.00595027628114 0.0248997459815 -0.0271857724303 0.00157360496589 0.0110344889237 0.0177142601774 -0.0157244535398 -0.0194699883373 -0.0174150485615 0.00295635269989 0.00376617914385 1.65712952155 0.0962475692232 0.0566833461091 0.0100285530567 0.0112151313576 0.0209688810854 0.00319878422075 0.00196355767018 0.0154130762501 0.00299863369937 0.0219172270852 -0.0158053224431 -0.00418441065937 0.0252472827516 0.0216371119786 -0.0170143007171 0.0132660846433 0.0143138692507 0.00480765743259 -0.0123869901208 0.0147378338642 0.00847859758186 0.00308297162966 0.0164800994237 -1.19294785355 -0.026267089998 -0.0014059591326 -0.0250851594385 -0.00456569736212 -0.00319690909945 -0.0180677549678 -0.000988322058539 -0.0260441633013 -0.0250326629414 0.0187188175094 0.00263106997512 0.0202250066246 -0.0137716143223 0.0265335223753 -0.00721400825847 0.00956364022135 0.0268621730438 -0.0271307879318 -0.0243723517074 0.0203146704225 0.0101790573056 0.0107145103564 0.00721484225611 -0.0211946237406 -0.00122690939078 -0.0257528469309 -0.0253965143407 -0.00655275202499 0.00553521969458 0.000398607394897 0.0290174695198 -0.00063366325645 0.0186803622049 0.0103128457635 -0.0145898736067 -0.0180658071703 -0.0143423171639 0.0286033676845 0.00186166115249 0.0179283987194 0.0119109494625 0.00198995324709 0.00337315105395 0.0195280076494 -0.0034801919894 -0.023424027098 0.0012706458612 -0.0238676658388 -0.009918208139 0.00543581843617 0.0217596093972 0.0137093219663 9.42548068533 -0.00376545734334
. 493990486.21 -0.0116976430378 0.190014689753 9609366.99523 -0.0209981498734 0.015834100564 0.0169438014872 -0.00406990868212 2.17698370251 -0.00221364044588 0.662095620616 0.0132223531367 -7.69563845816 0.0168678544032 -0.0187320564342 0.00626533881371 0.00120392344764 -7.2489948817 -2.84108598049 -71757.1126353 0.00703708907614 -0.000132215524792 51785917.0331 1.03529852949 0.0949160355784 0.032626983059 0.00600398412652 0.0270780917643 0.0196899529529 0.0274777774415 0.0192007273291 0.00194796141267 -0.0159756339921 0.0204439396486 -0.0733368518343 0.0253695102917 -0.00948841623564 0.0107864636314 0.0157736964156 -1.08396476269 0.00913168155135 0.0194295494952 0.0258274686021 0.0191656193487 -0.00896259912334 4.85988049578 0.175202467003 -0.00582945842897 -2.40051739 0.0266147440322 -1.15616784712 -0.0118915121574 0.0102139876969 0.0280806359067 0.0273981512173 -0.00295159425679 -0.122878004946 -0.00990351366833 0.00522683811029 -0.0267585133047 2.27095511125 -0.0112410916805 2.18954461618 -0.0248908867597 -0.00167789025186 -0.00113402383975 0.0158862151313 0.00555872280004 0.000451741956915 -0.0406365475378 1.23454692149 -0.00499833894031 -0.0125764691673 -0.000762167186802 0.0239484699456 -0.00634411747392 0.0247303328622 0.0269342602492 0.0112485122915 -0.0175959680961 -0.00954911075733 -0.0286309133513 0.00335702768899 -0.0209213920474 -0.00272853795378 -0.000175952177652 0.0117014709142 0.0160047399383 -0.00496164084545 0.0252317429478 1.27261955143 -0.032251191333 -0.0220229145627 -0.00517819054339 -0.010935592555 0.0116181048619 -0.0182706661514 0.00727690742302 2.65705803938 0.0277148893693 0.0170751526117 0.00927498636546 -0.0204676096064 -0.0272223382278 -0.0235949267237 0.0140278049115 -0.972170488652 -1.87521003543 0.00728348158928 -0.00111426027414 0.00920687299763 -0.243693536893 0.021663850451 0.0190518203218 -0.0146017527204 0.00542240826741 -0.0235426961339 -0.00314577390825 -10.7355506869 -0.260889345945 -0.0195559245059 -0.0259273998853 1.82409798389 -0.00269475828965 -0.015844895452 -0.0278959815665 -0.00681389128041 0.0268571689402 0.0283076887245 0.00979286796459 0.00812759574991 -0.00143612240862 0.0088823132612 -0.0139597638705 0.00676245169872 0.00213250102281 0.00233148255936 -0.0123934330997 0.00358094095246 -0.00402295674605 -0.0081816663495 -0.00623547178926 0.020246159595 0.0102763906271 0.00490923505494 -0.0252068103243 0.00771971636848 0.00975261655952 -0.00585477975065 0.0207011961035 0.0190014318813 -0.0144349021423 0.0163232642537 0.0157827684341 -0.00862001626335 -0.0198452589175 -0.0233483923306 0.0147947337313 0.0112784224123 -0.00879104533437 0.0180128930132 -0.0237981933606 0.0156268492106 0.00528568109728 -0.0231859413237 0.0143304181939 0.0201389954772 -0.00678824828919 -0.00286040304363 0.0172586528227 -2.19422467666 -0.00221632337946 -0.67420874548 -0.0139064948075 -0.0262974128592 0.0261830287942 0.0225804612265 0.0270476978513 -0.185029086394 0.0104181051756 0.0174640001088 0.00737287095383 -0.00115385620749 -0.00144837182375 -0.00951342458659 0.00990548847838 0.027708478224 -0.0290749423315 0.0120908656135 0.0167158734119 -0.0114103148115 -0.601225239796 -0.0157943089204 0.0102127745866 0.0194912911869 0.0180546713315 -0.0268813713797 -0.0176010734141 -0.0276167315645 0.0214683497683 -0.0118000657406 0.0115320769548 -0.0216210652474 3.66102161847 0.0127776882737 -0.00317721715954 -0.0208019095633 0.0268291609198 0.0276978071478 -0.00526481949587 0.00946105448961 0.00572566561088 -0.019219044729 -0.491441058448 -1.33498119194 0.00611017981108 -0.0286520116299 0.000391715711619 0.013680414377 0.0152580034993 -0.0559475191641 0.0229347554137 0.0150213793446 -1.31219329597 0.00671411712361 0.00633217457795 0.0163233728756 0.00576553841029 -0.0172316356784 -0.015156880174 0.0172941620571 0.00617061142898 -0.0203208511664 -0.0110844980279 0.0214443038878 -0.0159605254768 -0.00454255201975 -0.0143568936142 -0.014478765063 -0.0241535069954 -0.00694268238349 -0.0244436048281 0.00178224565799 0.0256402507477 0.0177596605517 -0.0275686734322 0.0186917717891 0.020566110183 0.711789981746 0.00150471785194 -0.0276980499016 0.016892289093 -0.108369677723 0.00938331212315 0.0174289175461 -0.0270731614668 0.0240385510464 0.00537629662095 -0.0136462807823 0.00520408570042 -0.00404652764426 -0.03303435827 -0.00281999445242 -0.00179843705329 -0.0172184084642 0.0219365681807 0.0176338424254 0.02633441164 -0.0246405615209 0.0272307749435 0.0182112675483 0.00428736586096 -0.0275130360082 -0.00907836009508 0.0227993536311 -0.0225508447828 0.0121145368792 0.0286124150778 1.91910235129 -0.0120716783688 -0.006009376893 0.000411196650655 -0.0116870836537 -0.000443871233974 -0.955882090763 0.0203988075698 0.016762395498 -0.00904613946714 -0.0164981263865 -0.228037242778 -0.00124731382331 0.0121447183039 0.0125887978091 0.0250051463627 0.00869961141827 -0.00520342323251 -0.302934782022 0.0157477016601 -7.72088304943e-05 -0.0170011056592 -0.00386372560552 -0.0113774944894 -0.00811653357439 -4.01401139066 -1265945607.8 0.0263707516171 -0.024246136639 -0.0194741785046 -0.0137361486958 0.0201381345009 0.0147334753118 0.0146135520727 0.0266443137915 0.0263148012539 0.0234428495074 -0.105405748952 0.0278238951632 0.0253476608376 -0.0123876187368 0.00698574127845 0.0137983310147 -0.00647675789795 0.0135777736662 0.0125435208714 0.0242167391797 0.0228981214475 0.0152673889325 -0.0259103088489 -0.00400761468517 0.0186173407226 -0.34397363629 -0.0159022351408 -0.00289373976224 -0.0187307959702 -0.0215771242542 -0.0195284120946 -0.00860642377724 -0.0168477884543 -0.029177806008 -0.00200900622298 -0.0157701730377 0.00721669513579 -0.0235501715236 0.0255096285729 -0.0104445358475 0.00576551883755 0.00501595088942 -0.00510336763139 0.0220024473444 -0.0169129218374 0.0261958554746 0.0245424636933 -0.000931057807205 -0.0271460929395 0.0212385776499 0.0267267535541 -0.0199479818567 -0.0150020394403 0.0255032011969 -0.0119627588861 0.00193136264491 -0.00173261705818 0.0100895832265 0.0288831526752 -0.00323964056673 -0.0162317265042 -0.0030640636209 -0.01741862428 0.0137791136367 -0.0101349694953 -0.0192462809561 0.0182367468863 0.0181461924014 -0.00460486441826 -0.0105907132826 0.0082467100524 0.0290025493061 -0.00467329373504 0.0130698684262 0.00809397969812 0.00077613464327 -0.00418650007707 0.0145546801277 0.0105417943238 -0.0114543159977 -0.00173957500453 0.0104636656801 -0.0250631258222 0.0271291817243 -0.0185271396779 0.00412782754225 0.0232482828474 -0.0103092505803 -0.0163040475506 -0.0276215071247 0.00362288416669 -0.921205018394 0.00694631985953 0.0268500046758 0.0203911212381 -0.0260543406344 -0.00229405941716 0.00851090825009 -0.0083824219767 -0.00454531203358 1.80680333521 0.000336459803146 -0.013824291107 -0.0263241651636 0.0288214003811 -0.0247061633562 0.0123047775606 -0.00656002372328 -0.0190566135912 -0.300553028502 0.00248687280287 -0.0148794715613 0.0198889573682 -0.00252135610283 -0.0280217004192 0.0250262036306 -0.00618613364112 -0.348123307203 0.962635004769 0.140486673331 0.0180627980946 -0.533002830974 -0.015366901366 0.0272118142917 0.00193726173034 -0.0066238616249 -0.0109010359658 -0.0264258674132 0.0125515217502 -0.00707859845636 0.0050104470642 -0.0280228138166 0.00670120019169 0.0270755204535 0.00450265940676 -0.00569240666859 0.00239931791663 -0.0247778409674 0.0155697727663 -0.016285457934 -0.00960854271466 -0.0242003251516 -0.0139106929749 -0.0170716273533 -0.00340179758003 0.00731492442698 -0.0234496073621 -0.00256538332038 0.0253574128959 0.0156845366884 0.0173043618627 0.0202076318916 -0.000655723040441 -0.0245862755312 0.014197692102 -0.0101753440034 -0.0115947016172 -0.00842135834309 -0.0138097618032 -0.00654515017796 0.0256461272869 0.00228060118289 0.0120190871069 0.0151447204275 -0.00923074082395 0.00216319939366 0.0258941186094 -0.0277149686542 0.0082956597693 0.00286137420516 0.0256068363329 0.0117369808796 -0.00440529125671 0.0124618968566 -0.0211716090123 0.0117537329944 -0.015938798488 -0.0051467219217 -0.0222223044038 0.0154840931435 -0.0145545368863 0.0131578320617 0.00150180957946 0.0110128952538 -0.00883507041384 -0.0281494989079 0.0280913088491 -0.0200152236998 -0.0133402828616 0.00523733368469 -0.00750783139188 0.0121312140049 -0.0171310063158 -0.0267769654394 -0.0240794787091 -0.0207601669115 -0.0291628592922 -0.0070040027638 0.0261353326253 0.0111595266056 0.0128289979701 0.016932901121 0.0256315207539 -0.00519005448008 -0.0209206836147 -0.0279681440728 -0.00637260542429 0.0207497071066 0.0054024562608 0.00445281182756 -0.000628685206091 0.0225494674928 0.0154020080143 -0.0108287573209 0.0115775884368 -0.0209333287693 -0.011919183316 0.00373614393746 0.0264756196138 0.013599114524 -0.00568291591114 -0.0120610145566 -0.0155126317211 0.0553928423227 0.0225153292367 0.00997824028657 -0.0203761356878 0.0118582404605 0.022503581999 -0.018292630148 -0.00789305252715 -0.0219597267107 -0.00615215718422 0.0058165068669 -0.447464435397 -0.0289127171557 0.00331985772099 -1.36132148621 0.0215118757831 -0.0238548361173 0.0278132050644 -0.0265837585984 -0.000134976442311 0.0114921665945 -0.275642139798 0.00827306775886 -0.000437965550928 -0.00845423566057 0.0159491280041 -0.0227251800524 -4.4652205476e-05 0.0195156865112 -0.00868559809284 0.021420027821 -0.0237657124553 -0.0264704036753 -0.0207984010623 0.0121098299114 -0.0229973755114 -0.027630035741 -0.0208567420336 -0.0258754858541 0.0187472438284 0.0217921815265 0.0181119429797 0.0231361291365 0.00479841747735 0.0181950434402 -0.0117107296371 -0.00681830902278 -0.0284104455241 -0.00273357540325 -0.015027446976 0.0039220493997 -0.00323615288542 0.0081981562148 -0.0152344294635 -0.0251913347651 -0.0204709919886 0.0190489390195 -0.0240602334876 0.0281948847766 -0.00899612202123 -0.000435966891881 -0.0072419752524 0.0276516069601 0.0290751454998 0.00177844508371 0.0211943240654 0.00898805367435 0.00326782460487 0.0187886897558 0.00859346993926 -0.00588959850842 -0.00568264170064 0.014052914566 0.00702515948544 -0.0167165965357 0.0010417343186 -0.422130601448 0.0171078045171 0.00503557464495 0.000143251467161 -0.0216343218065 0.00893489846839 -0.0218938977657 -0.0063618627095 0.0114069900466 -0.023337649196 -0.0159164604668 -0.0235689812049 0.018816429838 0.0170492917443 -0.00104890457203 -0.369094060449 -0.0243774024764 0.00340128044375 -0.00850119493983 -0.982128029318 -0.0104860832694 -0.00742550316078 -0.021009732915 0.0100793180578 0.017196418121 -0.357406909377 -0.00268119993414 -0.000332005250759 -0.0262701331117 0.0216515220117 0.0210571513657 -0.00468614098532 0.00216883157473 0.00260891189492 0.0179459383611 0.0162834648729 -0.0240988745697 -0.013744190315 -0.146822337778 -0.195420452948 0.0279866390058 -0.0125101743659 -0.0142620372561 0.0166986720438 0.0271617356435 -0.000852669027213 399552185.279 0.00177303417608 -0.00849894906216 -0.00644394572264 -0.0184138113919 0.0194704742174 0.00808144621983 0.0281236533968 -0.0161674600518 -0.0253992064193 0.0166306512937 0.00171073081603 -0.000462362156636 -7.84887986687e-05 0.0205065309197 0.0113879632956 -0.0275829524118 0.00719800220807 0.0269687040385 -0.0238427056364 0.00995166029582 -0.017046594854 0.0134454008291 -0.018812868324 0.0162342125249 0.0285594670128 -0.0803279194715 -0.00288243442409 -0.0165077149846 -0.00128323218685 0.00092451473874 0.00611191158935 0.0207023919631 0.00361746388728 0.0110660410033 0.0155818587767 -0.00157809604497 0.0170090001574 -0.00758579586434 -0.020222208053 0.00601198893237 0.00396102890075 0.0117964058127 0.0232066889528 14029124.0078 0.018185940107 -0.00530874658792 -0.0156837977191 0.000565935670019 0.0142327239905 -0.0289257262397 -0.00972634584749 -0.158991865802 0.0015200415018 -0.0139262635318 -222072603.802 0.00866262681166 0.0086783535612 0.0271473905487 -0.00446843589244 -0.197370608934 0.0060119859506 -0.649154195761 0.0121733458481 0.0167368332885 0.0105981485007 0.00503297724236 -0.0286577713912 0.00324903662826 0.0227070928194 -0.00469633782981 -0.0128150589315 0.0229675526287 0.0186607896175 -0.0141730839288 -0.0236002854818 0.0181658781907 -0.029204954077 -0.0284377471534 -0.0173850423942 0.00423193200051 0.0107034744214 -0.014300127029 -1.05320006817 0.00412002513814 -0.0272765811379 -0.0144124269594 -0.0117163630156 0.0176158901698 -0.0251745398472 -0.153758535397 0.00701600576204 -0.0169753345973 0.0134742844436 0.0233897896318 -0.186715899096 0.00567189528552 0.021094872194 0.0275452923019 0.0172305969091 0.0194084550288 -0.0172025066948 -0.0145176531865 -0.00315994348532 0.00207963202618 0.0054417025263 0.0107905575007 0.0228919619844 -0.0127161091706 0.0102487388215 0.0256432382849 -0.0190912247436 0.0140913302817 0.0273506203062 -0.0244335753115 -0.0127616773713 0.023952190686 0.02330850732 -0.0164463469433 -0.0125586413568 -0.0157766381471 -0.00979293534124 -0.0275359313816 0.0117722632811 -0.0203592391987 0.0121548614142 0.0234130761701 0.0182490663372 -0.0222803053176 0.00756693186586 0.00062458236151 2.45172036501 0.0282884667206 0.0199357107795 0.0282188205095 0.0046863211003 0.0146749651917 -0.0115796353704 0.00429619727856 -0.0216533032791 0.0180841029404 -0.0209394045465 -0.0287305561186 0.0142383947743 -0.00785928539293 -0.0137240208319 0.00686424613822 -0.00993936431614 -0.00847419062078 -0.0150416398359 -0.00470670247651 0.0272270194984 -0.819058682812 0.0181976258001 0.00984230641636 -0.0250596862459 -0.69554237278 0.0285271270801 0.00597830356701 -0.010399153106 0.00156924548381 0.0181316503845 0.0205502209128 -0.00445344849656 -0.0245504315047 0.00611132223392 0.0288258995293 0.0138295146841 0.0102144446438 -0.0189058780184 -0.0267071745759 0.0105624378139 0.029162294384 0.0238837996988 0.0161803974772 -0.00698190177551 -0.00265402214212 -0.0121349546992 -0.00166713457773 0.0151210737319 0.00956226014876 -0.00050927676464 0.0273393190084 -0.365554384222 0.00408505828566 0.000546663742373 0.0236992750107 0.00924294230045 -0.000146379158017 0.00246593919393 0.0141382689598 0.00307961755035 0.0103443357164 -0.00929538779881 -0.0152423037629 0.000759922732364 0.00635943381554 0.0121439057439 -0.0193173638406 -0.00594945302761 0.0247401573712 -0.0180797048616 -0.0286866595551 0.00195396798917 -0.0129293217886 0.0233646014692 -0.00950242916976 0.0206195498685 0.00361898389643 0.0217101123477 0.0235576967191 0.0220642839639 0.0222960244763 -0.0189939260243 0.0222865238398 -0.0193306423418 0.0253029369607 0.0162912504682 -0.0171957524107 -0.00888440168222 -0.00508231984229 -0.0110621503331 0.0228682266556 -0.00381329425508 -0.0218459300879 -0.0191855024585 -0.00310921868783 -0.0141981230651 -0.00967227685931 0.00704593988807 -0.191178699211 -0.0194097179789 0.0191516390892 -0.01266537107 -0.0128813480147 0.00420277506269 -0.00408382697877 -0.0133342015193 -0.00210392163893 -0.00140006402804 0.00940417799714 0.00555488035919 -0.00642727188302 -0.0156802811081 0.00780800592574 -0.00454844507725 0.00713662669016 -0.0170443975139 -0.0110641305348 0.0280117806787 0.0146887788839 0.0113169739254 0.00592439521129 -0.00945238271846 -0.22489548381 0.00176434875704 -0.0155321655612 0.0157924053889 -0.00176031045952 -0.00637088549647 -0.00845440743186 0.00137054286219 0.00733884123894 0.01519629702 -0.0259422255188 0.0112225667162 -0.0113241437139 -0.00269533806913 0.0271690274791 0.0134983682267 -0.0133200896142 0.0122721041063 -0.0101799018003 -0.00354555972771 -0.0156330647862 0.0112367607095 -0.0247001071845 -0.014974684244 0.0217805622277 0.0108702210054 -0.00291677616182 -0.000261548570136 0.0248358802877 -0.0643231689248 0.0100709101554 0.0273108018648 0.0219126717267 0.00636119875519 0.00260567817081 0.00680033196667 -0.0186352944784 0.022045716522 0.0255874549002 -0.0278433211171 0.0168933502526 561886294.68 0.0049617117681 -0.0166058270332 -0.56989318063 0.0158657512965 -0.0101364933131 0.00320699882498 -0.0208139243022 0.0123050908946 0.00100939593252 -0.0115067680863 -0.00215671341648 -0.0153237686564 0.00837111891833 0.0143573369967 -2.54691002105e-05 0.0160780593797 -0.0112467521943 -0.0146469015368 -0.341543194892 0.0136373780336 -2.20627738101 -0.00852632973849 -0.010993548939 0.0083708574026 -0.0265608547084 0.0153258508545 -0.00451224793461 -0.00605521615417 -0.0133161673451 0.0115658159622 -0.0159660658488 -0.0204820404073 -0.0156706907614 0.015095047383 0.0209210852253 0.0278921804204 0.00182150104881 -0.000794701017944 0.00384603925384 -0.0054529027527 -0.0255015425381 -0.0122284679735 0.0265777418067 -0.00268455831486 -0.00881080621333 0.00587141151829 -0.00494056770567 0.0182533945212 -0.0194290660566 0.0283703995081 0.0191774281568 -0.0153151279246 -0.0227589417718 0.0237830021362 -8.08203275424 0.00401780687214 0.0201964210669 -0.0244253330136 0.0119602787701 -0.00137494822105 0.0272989452597 -0.0103361262131 -0.0125163936291 0.0140293717306 -0.026682548105 -0.0180187629517 0.0204054894886 0.0223573091212 -0.0292217092852 -0.0254053719403 -0.0146384578805 -0.00534985720113 -0.0126250130395 -0.0146482448515 -0.00106711636035 0.0197093999401 -0.00245559146418 -0.00258301258602 0.0251684565017 0.0140585605619 -0.0209372140533 -0.0010662850005 -0.00673541562508 -0.0124067731239 -0.0142399056585 -0.0160419504046 0.0111364232447 -0.00599233763212 0.0189159493722 0.00877434425241 0.0251021353316 -0.00440235668487 -0.02058091619 -0.00402385713873 0.0151291580667 0.022899786618 -0.0220504950173 538.709177936 0.0215544690694 0.00621842164611 -0.0154751673082 -0.0014972566315 0.00186219026959 0.00137818429649 0.0257118160148 -0.0110479486946 -0.015674584179 0.0280818117471 -0.0244720080057 0.000582963635975 0.0111963092214 0.0154997675066 0.0219996624296 -0.0178880631837 -0.00717217916872 -0.012499346947 -1.18539124843 0.0217189978577 -0.0274777468769 -0.00115355034432 -0.0283384856379 0.00808249625053 0.018164860172 0.0193129983424 -0.0128004972224 0.00753149555315 -0.11860831174 -0.0275109179053 0.0104745554087 0.023231522904 -0.0121118886485 0.00707274100413 0.00253597200259 -0.0239843832532 0.0125662302531 0.0244631653986 0.00771575710623 -0.0186385278008 -0.003745515148 -0.0244279194655 -0.0271424493779 -0.00489880106137 -0.00248306937549 -0.0242845701093 0.0175489394144 -0.0237491570544 1.91133277465 -0.145839364418 0.0541045149109 0.0256585173815 0.0180412481391 -0.0150758774143 -0.00896262025047 0.00574182890462 -0.0165833225463 -0.00433066974863 0.00634916542812 -0.0144245812887 -0.0091399090173 -0.00590783409767 -0.0188106990318 -0.00799941449382 -0.0115599459792 0.0120296909618 -0.0124701341889 0.0203732750331 -0.0246479284519 -0.00658406332471 0.00627034354632 -0.0264763346927 -0.916141759576 0.0074041412378 -0.0145733318387 -0.0129966091822 -0.0271875994309 0.00874941288285 -0.00158222100861 0.0203752995582 0.00096864019454 0.0238730336957 0.0236295498307 0.0141385357651 -0.0241030722186 -0.0128113112601 -0.0266912611717 0.0114840679907 0.00494525266378 -0.020448525967 -0.0121564769237 -0.0206087721728 -0.02345297001 -0.0780519835919 0.0292002998709 0.00355184842276 0.022187418068 -0.0290426755536 0.0174162346801 0.0271147540652 -0.0051033386046 -0.025134733972 -0.0151406804651 -0.0260438781525 -0.0203489481835 -0.0207379367922 0.0147894926337 -0.00843216813022 0.0279954686314 -0.0163473817195 0.0155956301147 0.0163236861704 -0.0228457596771 -0.0136087639707 -0.00148710178989 0.00401016061226 -0.0245224839957 -0.016332096018 0.00220632039724 0.0159300476519 -0.0100609652786 -0.0195214879931 0.0171362556697 0.0144172512768 -0.0114255388835 11.1137396657 0.011684450596
to 176152971.71 0.0180929819754 0.076447540297 3426686.32458 -0.0239602845648 -0.00634134451261 -0.00954393176109 0.00463350913678 1.22687949516 -0.0278501640635 0.344594856069 -0.00845360863822 -4.32699335501 -0.0266395173521 0.0233993719097 -0.00645875015882 -0.0257689047263 -4.00851224653 -0.827741114017 -23928.8322669 -0.0140545811294 0.0252379951985 17113860.0534 0.587522748929 0.0552367759127 0.0275450750245 0.00445267797801 0.00871082959104 0.0248340540399 0.00299137538973 -0.00477364202379 -0.0209601494962 -0.0274905991794 0.0196310319289 -0.060155661723 0.00460117462169 0.01606170139 4.86698659791e-05 -0.0176621724451 -0.0292126222417 -0.02366073991 0.0199064336168 -0.0236523771496 -0.0236914146721 -0.00856363385854 2.71066941947 0.447949127956 -0.00952292380584 -3.01451972315 0.0267940437586 -1.37311235421 0.0146225910392 0.00558634727048 -0.00605344806836 -0.00942439389128 0.028921434588 -0.0778737080587 -0.0153963911695 0.0055609108753 0.0291007244291 1.30088295507 -0.00906363144379 1.24437539055 0.0162764101537 0.0102662374433 -0.0165665561979 0.0184180542155 0.0211205653874 0.0306342279626 -0.00502049979141 0.657192922626 -0.0154707978927 0.00116703637787 -0.000689910486041 -0.0208586625719 -0.0245531774826 0.00666950406133 -0.013937257422 0.0161194532786 0.0148227897687 0.0078538480921 0.0162940042113 -0.0256764832848 0.0221037792214 -0.0244336650072 0.0229945045245 0.0167698710322 0.00704513882163 -0.0217615563444 0.0173147477675 0.685903207776 0.0168379329711 -0.0111709029531 -0.0248729588002 -0.0238523097659 0.00788459446148 0.026164262564 -0.00730135067032 1.47459658917 -0.000749393919642 0.0225292892809 -0.0236161600498 -0.015546704341 0.0211991022765 -0.00613601774668 0.0209755382977 -0.524012971192 -1.32800354212 0.0194840966547 -0.0271153603334 0.00249676877541 -1.1984152934 -0.0116241624031 0.00692680584785 -0.00675939933476 -0.0129074480742 0.0102592430197 -0.0175194473644 -6.03124645868 -0.303883724884 0.0109303345041 -0.017882561033 0.711324369929 -0.0288848511249 0.014470209802 0.0106676050006 0.00442687400733 -0.00134500733343 0.0116104032797 0.0155908420565 0.00542454614894 0.0169645871392 -0.0204510872911 -0.0108085416338 -0.0142309101773 0.0232156233899 -0.00844521441998 0.000427966176262 -0.0201246616415 0.0247993792537 -0.00643574877698 -0.0144463785038 0.017366863738 0.0271927796811 -0.0192994000123 0.0120063400489 -0.0274736682967 -0.00378128444799 0.0217461078077 0.024553664721 0.0100067160384 0.0143923162827 0.0013088918653 -0.00496682232438 0.00987518392284 -0.00880410388138 -0.0152316069363 -0.0302003262637 0.0077331532239 -0.0133191854198 0.00698983925995 0.0226122711657 0.0114241793445 0.0249861788679 0.0033269725712 0.00713141439982 0.0138786978802 -0.0124340538641 -0.0202882494106 0.026805713844 -2.14795447432 -0.0270904212279 -0.702889529797 -0.0266845954614 0.0125780626535 -0.00651525702822 -0.00711415503123 -0.000595868953258 -0.149594861849 0.0117906560907 -0.0288660537741 0.0134539237768 0.00607251286085 -0.0265435479504 -0.0241703757207 -0.0271440420794 -0.0145756774621 -0.0127297514645 0.0234705558913 0.0181093011248 0.00358098378258 -0.37098802816 0.0109068901692 -0.0104435366491 -0.000686090685411 0.0155874811543 0.00392636138925 -0.0106900059104 0.0221422525239 -0.0157577803113 -0.0170002146804 -0.00189945509548 0.00713607343763 2.04552227811 -0.0206929245945 -0.0235314403748 0.00773757143983 0.0260791696271 -0.0225388414054 -0.00941132300216 -0.00690144777218 0.016208052351 0.0069510761424 -0.4028379185 -0.870919799614 -0.00494763754981 -0.0154104064739 -0.00180917045224 0.0107010565241 -0.0176135627882 0.0228623445882 -0.0188178270822 -0.0157823184226 -1.09178842791 0.0284111597443 -0.0155006793701 -0.021103544271 0.000267371366368 0.0107466775105 0.0261568456895 0.00912362584037 -0.00903631790184 -0.000565462900138 0.00322665768692 0.00260848781507 0.0130171519844 -0.0228539316353 -0.00900277722556 0.0030969978758 0.00517553313539 -0.00171762755235 0.00926492305858 0.00642508872043 -0.0187624964028 0.00130281244894 -0.0111246489722 -5.72481674134e-05 -0.0150615055672 0.374651127647 -0.0207211658628 0.0215884533988 -0.00114015850488 -0.11289912986 -0.0142118890277 0.0151621903058 -0.0183701568876 -0.0093643159395 -0.00135231470328 0.000200848198063 -0.0116196879353 0.0286033394033 -0.0184030558929 0.0269525079813 0.0201239890517 0.0153982956779 0.00367306281093 -0.0280938555635 -0.0249687071842 0.00432083611856 -0.00672567384475 0.0173116232972 -4.82958455352e-05 0.01775723551 -0.0033499089031 0.016930043602 -0.0198779405894 -0.0114102938094 -0.00971404634168 1.09506184466 -0.00023401638375 0.0124165691013 0.000878694184496 -0.000634391063572 -0.0247967846453 -0.847576457324 -0.0101774641866 0.0138405217654 -0.0186904753287 -0.00630572030184 -0.173357704687 0.00123645594216 -0.0173172988679 0.000621894536377 0.0123886991658 -0.0149592179254 0.0258712964364 0.0168123500702 -0.0274290356814 0.00471483585445 -0.00542316756423 0.0144709686748 0.0191378705469 -0.0196461228785 -1.3391789117 -420753933.604 -0.00499063634963 0.00906794033799 0.0122926169443 0.0108279326744 0.00311284856151 0.0186343059131 0.0150390300642 -0.0139609303059 0.00711070801929 0.0176271655852 -0.18008406229 0.00647854524796 0.0182645067577 0.0213479503705 -0.00599132200429 -0.0167626157364 0.00643916726544 0.0117499332331 -0.0193732155645 -0.0149755531926 -0.00096750145771 0.0108244478114 -0.0202744329739 0.0287522026487 0.0079842219977 -0.15286070248 -0.0282908840022 -0.0146268616929 -0.00194952048128 0.0187905401686 -0.021731446671 0.0030694908164 0.00317516539705 -0.0262498222194 -0.0070103372548 -0.0263384604571 0.0229956313075 -0.0268599660528 0.00255300333221 0.0186291146847 -0.00573736957504 -0.0103230402872 -0.000836704449596 -0.00114888629631 0.00381375740192 0.0109062834729 -0.00162842678958 -0.019103200485 0.0145611166682 -0.0217602404739 -0.0155631799515 -0.0233951146916 -0.0192079540269 0.0104954738375 0.0251667749885 -0.0160048905583 -0.00419042240283 -0.0245724044136 -0.0237552653715 -0.0143500245359 0.00894772063545 -0.000658430766117 -0.00318004079045 0.00042293061039 0.0106824650503 0.0225167952003 0.0260499635679 -0.0150298834281 -0.0151722059636 0.0177565910064 -0.00707602804825 0.0270623590867 0.0196299096759 0.00560396117957 -0.0112247817209 0.0209100402805 -0.0260628859245 0.0278420185196 -0.0275344644811 0.026259702991 -0.00799408093086 -0.00741535533353 0.00551368434657 -0.0149880525169 0.0139181116565 0.00525367674145 -0.0065284912835 -0.0172700206987 -0.0238743699865 -0.0159658056013 0.00661940182041 -0.682632134012 -0.00971863627935 -0.00685782192972 0.0290998831409 -0.0071647451862 0.0132262231972 -0.009303451928 0.00928451709576 0.018091467725 0.990719260484 -0.0260247094129 0.00965445045819 0.0159345843547 -0.019250127946 -0.00643441173851 -0.0160576505546 0.0103244101387 0.0168072760272 -0.063866110809 0.0251505578909 0.00855805143778 -0.0153115480186 0.00942076991032 -0.00617562390346 -0.0285010782564 -0.0266218548363 -0.142597189312 0.541632538872 -0.0542543768229 0.0254722449706 -0.690894469421 -0.00373674936857 0.0171803017063 0.0139457403504 -0.000593608021727 -0.0106003508353 -0.0207539038081 0.0190527382856 0.0157054346344 -0.0286436053672 0.0260953816013 -0.00665312047384 -0.0143580082006 0.0208817659596 -0.000927296498834 0.0270036894008 -0.0228918426134 0.0267018724909 0.0198482982528 0.0145781530028 0.00636332439736 0.025656539623 -0.0283287655662 -0.00167777993569 -0.00140842129322 0.0064220916223 0.0187883266774 -0.0244681432044 -0.00859447130298 0.0283652622299 -0.0198987017291 0.00202481582785 0.0195842457278 -0.0263969903379 0.00622648379823 -0.0171463066633 -0.00941961300205 0.0167172609191 -0.00517706227003 0.00436237262625 -0.00480006736292 0.0199496949158 0.0165810032192 0.0232310097674 0.0100896013712 0.0123042627563 -0.0217697732162 -0.0219774425325 -0.0057819626682 -0.0175632914604 -0.0147664189625 -0.00940472413881 0.0242797542095 0.00949226863135 -0.0042018045743 0.0193611764158 -0.0193916097269 0.00586466330876 0.0101147187817 -0.0261403352017 -0.00834254286551 0.0267193031117 0.0153196227408 0.013592404007 0.00391711036115 0.00324344164857 -0.0233320392604 -0.00837490293853 0.0207080626806 -0.0253565952686 -0.0028299635699 0.0239070815474 0.0105208512154 -0.0133782209257 -0.0161163436824 0.0230629637658 -0.000195932133542 -0.170370579535 -0.0338484004529 -0.0128370509124 -0.00581521610269 0.0233183678761 0.0222026131155 -0.00379714692461 -0.018627193296 -0.0286295331452 -0.0156856492957 -0.0123309164572 -0.0190070906872 0.0268042691758 -0.0229664961425 0.00839847154704 0.0278387288171 -0.00324979063185 -0.00502825956846 -0.0218173775008 -0.0261079719751 -0.0262679855647 -0.01401172452 0.021485649065 0.0247228260394 -0.00696291379411 0.063775833498 0.0121054054232 0.00352125640149 -0.0250084880938 0.0259177300786 -0.0206016562385 0.0155625532787 -0.0181136018596 -0.00505274909792 -0.0158248086165 0.0254862710797 -0.533183894222 -0.0171476857771 0.00100482559791 -1.57323083783 0.0237109225505 -0.0090724722881 0.00543344578816 -0.0112209079716 0.0242212909714 0.0247935137812 -0.19681429996 -0.0187993837223 -0.00331091258613 0.020199023658 -0.00344199609628 -0.0185457799756 0.0128117510879 0.019106368018 -0.0118601181605 -0.00865174595022 0.00461052126157 -0.0143295022979 -0.018544397464 0.0263366741075 -0.00346972202635 0.0238680673425 0.0149637643099 -0.0127703246591 -0.000418862310941 -0.00691746418314 0.00226392010595 -0.0206110830315 0.023399293928 -0.000385924554394 -0.0103610734364 0.0216159871474 0.013486674732 0.0271878381319 -0.0170526437093 -0.00833252214667 0.00797679036362 -0.0105698247598 -0.0247667521743 -0.00962326697499 0.0165094024828 -0.0253649680947 0.00286305905006 0.025837339819 -0.00687481194515 -0.0286640976209 0.00417114514359 -0.00143518312771 0.0251388522159 0.0263147340524 -0.000839136839778 0.00778327129261 0.0281915875109 0.0245903626301 -0.000406917052319 0.0222373400055 -0.0263085408729 -0.000516596293496 0.028100943846 -0.00414402089311 0.00814566720076 -0.225317592262 0.0221468220274 -0.0146084653875 -0.01230126569 -0.00949277072359 0.00606495260233 0.0150052329596 -0.00124015229756 0.0116510357437 -0.014376054231 0.0206974838072 0.0119871764471 0.0234632785828 -0.0150891933304 -0.00552994040687 -0.572412643634 -0.0263185122092 -0.00825554233985 -0.0278860624198 -0.522495853413 0.0210563777685 0.0253219143499 -5.51805984086e-05 0.0095346542947 0.00118660616091 -0.161707872272 0.000718461080298 0.00114004102545 -0.00509954515754 -0.00404696846749 -0.00469901891237 -0.0150305813838 0.00593887463926 -0.0280712643965 0.0188138280249 0.00779126035213 0.0262446044022 0.0124194527885 -0.306974637081 -0.43778281803 -0.0177090778478 -0.0212266060866 -0.0217940251387 0.00670582271177 -0.013039799095 0.00740202865312 145330430.275 -0.024471749504 -0.000784693289264 0.0261351026209 0.0125339890917 0.0113785913123 -0.0251875162744 -0.0238398093821 -0.00826829073113 -0.028711440908 0.0112896477979 -0.0141675955868 -0.0105272502363 -0.0247098909949 0.0266185568254 -0.0184539126646 0.00557413606683 0.0270546419148 0.0230760862012 0.0196063705776 0.0191738023848 -0.0263678076114 0.00795984366607 -0.0111796226781 0.000412392818884 -0.00575710278223 -0.187950789508 -0.0201663003361 0.0119668945344 -0.0130832273481 -0.017230403878 0.0241879322556 0.0128203315381 -0.0188036098254 0.0150188332527 0.00899781290684 -0.0096754489811 0.0214267183121 0.0290815229385 -0.0108218746627 -0.0228645594447 0.00799077003087 -0.00774113931142 0.00475796884903 5006661.01786 0.0170464596028 -0.0193094909234 -0.0101693814673 -0.00012168907386 0.0197825318148 -0.0136560680726 -0.0275853690506 0.0811420426975 -0.0237506306701 -0.0143234020097 -79041075.8929 0.0272689201471 -0.0140092847221 -0.0204985401078 -0.0132217096453 -0.408206868021 0.0125922112441 -0.83177198198 -0.00414438311845 0.0133918896258 -0.00315193231286 0.0231899426163 0.016243462859 -0.0193395187358 -0.000320200365077 0.00159573106727 0.01207154341 -0.0176080177698 -0.00474537980437 0.00157480381638 -0.026303633492 0.0110727427715 0.00552266334807 -0.0244015889271 -0.000891078349134 -0.0109647745107 -0.0104391022368 0.0204000878867 -1.08300543945 0.00206991701182 -0.00759197759059 -0.0242430329621 -0.022405898801 0.022818465915 -0.0222659693181 0.0637313638684 -0.0200757570306 0.00223377539272 0.0059267111839 0.0237127275689 0.0726563732969 0.0143781792016 0.0121829033928 0.00464441312989 -0.00700417121324 -0.0091716306904 0.0229648321527 -0.00434210804505 0.0034617011524 0.0142067877801 0.0214286406575 0.0161869837081 -0.0153486954999 0.0188734642866 0.0225785082094 0.0153081566803 -0.0141678438796 0.0145447765329 -0.00636808374397 0.0134793972653 0.0146662826153 0.0263467373999 -0.00854728895168 0.000874682121729 -0.00769592942171 0.0263812783353 0.0193654386702 0.0128423768431 -0.0177898271946 0.0028331664413 0.00923715246832 -0.0101220371639 0.0162380870206 -0.0122572057162 0.0187969830033 -0.0289627557457 1.32215237451 -0.0180253985712 -0.0216940230721 0.0169727599351 0.0215020485429 0.0154767499568 0.00532886877749 -0.0190316628656 -0.0218246451457 -0.0166868365925 0.0095849271736 0.00826518619248 0.0252088075926 0.0286296447953 0.0165965856366 -0.0231429663314 0.0268940458561 0.0111121601804 -0.00692726694367 0.0130087878693 -0.0127122568775 -0.398125873246 0.0111827408972 0.0233354502651 0.00886737160091 -0.542607379491 0.020408197041 -0.0258914425914 -0.0249555601979 0.00201321249643 0.0258430524694 -0.00303811068882 -0.0114850094488 0.00262063966789 0.0134307208267 0.00796606154484 -0.0246134590299 0.0181370559402 -0.0010601517339 0.0266585484419 -0.0234893456236 0.00710956757689 0.0238911845672 -0.0091979816654 -0.0194462931841 -0.0151165616668 -0.00107680098371 -0.00333661191566 -0.0198894029042 -0.0258727609018 -0.00508985301731 -0.00425390904011 -0.146535774968 0.00281237989047 0.00664542673399 -0.0168870817742 0.0256668356884 0.00217476559183 -0.00486795499965 0.0178157662171 0.0221020911546 0.0120574895721 0.023711583497 0.0253336632442 -0.017419805979 -0.00427935476884 -0.023510122625 -0.00156703745316 -0.013831588012 0.000251899724341 0.0124572347297 -0.0139991010711 -0.0189557179984 0.0125759475208 -0.0164944248256 -0.00020825520934 -0.0279635124814 0.00359155385262 -0.0200934556142 0.0161194263269 -0.0194242422657 0.0105955784513 -0.019843160515 0.0118675180797 -0.0174230243401 -0.0208689605079 0.0286597998238 -0.000946929377269 -0.00482390903249 -0.0109516669975 -0.00325043858255 -0.0248074428215 -0.00564914628571 -0.0277048967433 0.0134274914709 0.0266637249462 0.0259518055758 0.0139088728696 -0.0145416576478 -0.137629437502 -0.0128577298361 0.0088428529947 0.0279169244357 0.0243978193896 0.02781017071 -0.0204426993354 -0.0110040531362 -0.0082944614681 -0.00983917868753 0.0170360170782 -0.00200974112788 0.00840095891364 -0.0203844948978 -0.0132232690105 0.0112932574406 -0.0133009128511 -0.000223848620965 0.0216546834201 0.00266251661468 -0.0236444383051 0.00177976465022 0.00524423212121 0.00937105153083 -0.413406917816 0.0184290941387 -0.0114379804586 0.013282907891 -0.0168084783285 0.0102694695268 -0.00884854010371 -0.000791710204651 0.00158103716119 0.00406008244455 -0.0021490773253 -0.0112869611605 0.00486029953315 0.0024603470115 -0.0143026197202 -0.016291509433 0.0265619873776 0.0157730468197 0.0116791366024 -0.0161325084513 -0.0207233432853 -0.0119495478754 0.00149098607416 0.0271389506813 -0.000957601928818 -0.00307237916641 0.00485391942528 -0.0147736988667 0.00658414739239 -0.0374003262201 -0.00497889541319 0.00901642461196 -0.0269629069968 -0.0151411925461 0.0129041070311 0.00441752664805 -0.00543643229327 0.0260460770041 -0.00311015495383 -0.02341770887 -0.0221741727152 200377954.335 -0.0127457752849 0.0157570902123 -0.595525249321 0.0112178908829 -0.000590788302095 -4.98020939704e-05 -0.00707006048006 0.0177751218614 0.0635127215867 -0.0081944085886 0.0152366482918 -0.0271498992353 -0.00241128543507 0.0150216964574 -0.0214277218687 0.00706949195817 0.0274534695025 0.0231165860283 -0.508635366803 0.0734165577243 -2.25214142982 0.0278855244897 0.0246613296584 -0.0158309243387 0.0022408338256 -0.00888402586729 -0.0116083365446 0.00906760063446 0.025569154275 0.0162474483598 0.0149282272333 -0.0286753703409 -0.021479794939 -0.00700740987457 0.00606439936201 -0.0233022538604 -0.0250109682276 -0.0165646183748 0.0270548100752 -0.0147679349585 0.0199783110375 0.0152704998621 0.0275541974535 0.023147441909 0.0156708182343 0.00990388183178 0.0176888667287 -0.00614151753151 -0.0180811041284 0.00416691470872 -0.0118784754458 -0.0151571417227 0.0291364442103 -0.0236020319806 -4.51565524836 0.021238857875 -0.00642090772507 -0.00291812656577 0.0162510861816 0.00831845026076 0.00533290751291 -0.0148598984497 -0.0191168571908 0.00621091450115 -0.00521309813558 -0.0245521430964 0.0219809937088 0.0181142068992 0.0125018554672 0.0143480288524 -0.0124258604091 -0.0243768884335 -0.0260634591177 -0.0273028419006 0.000875400842375 -0.0185606693758 0.00976013058776 -0.301829078282 -0.0105091739179 -0.00198757607624 0.00153861578919 0.000862376180939 0.00439328299943 0.00795434566597 0.000668270433222 0.011894325782 0.00321396238017 -0.00356141626952 0.0171948329739 0.0288080186293 -0.00823964376748 -0.0289929505977 -0.0175081444739 -0.00649414523874 -0.0240912884752 -0.00453168708154 -0.016091165414 192.077584206 -0.0095180914242 -0.00373607583494 -0.0207830550558 0.00228042078025 -0.0243801077746 0.00420067129381 -0.00890774387482 0.0256432824263 -0.000654370118726 0.0188456656806 0.0119188434542 -0.0168725671578 8.5433583026e-05 0.0269838636187 -0.0212300226868 -0.0270139715108 -0.00598501756693 -0.0171974919964 -0.894661633069 0.024698037625 0.0171635553095 0.0112973779488 0.0199500890731 0.00623108192419 0.00232361664333 -0.0160261085816 0.0143177044965 -0.0233232530823 -0.324253692343 0.0266262385018 -0.00523284918032 0.0104493817708 0.00108916086245 0.0204679599529 0.0125299770197 0.0256831915325 0.0198683944444 -0.00608826435081 0.0135223187064 -0.0155648702571 -0.00386800012896 0.00932642443374 -0.0214420887228 0.00517815108888 0.00326588110078 0.00511045069271 0.0285923782605 0.0268457529149 1.0730169752 0.0673490198975 0.0505928556333 -0.0262190030392 -0.0201476495176 0.0244609296053 -0.0142449724672 -0.00491974277706 0.0222076816398 0.00513383471419 -0.00645183744848 0.012352109289 0.00989394213371 -0.0255030072861 0.0231775317036 0.00272112584282 -0.00701216916141 0.00248880349475 0.00989308677396 0.00760466312189 -0.0233701566462 0.000757752478657 0.0126881730876 0.0204129630771 -1.06088212868 -0.00434489917805 0.00254544934591 -0.0113059670071 0.0180031148798 -0.022406819417 0.0101047499307 -0.00465726828631 -0.00859966207163 0.00903314743047 0.000448461748699 -0.0240608546183 -0.00327280269274 -0.0196184143691 -0.0192177081275 0.0236521716819 -0.00734181662774 -0.0283664621165 -0.0207218833686 0.005577329285 -0.00162367924515 0.0155027229479 0.01086874551 -0.0183011254688 0.00732460079353 -0.00330109039368 0.000323929183629 0.0145835278031 -0.0145806147509 0.0239434452178 0.0217259653723 -0.0212918474263 -0.0207490800056 0.0118369887078 0.0277719469118 -0.00644784486945 0.0118481930612 -0.00298646780406 -0.00268632644044 0.0247001818515 -0.00376218329592 -0.0235215726872 -0.0214242312924 -0.00657701362627 -0.0129612544866 0.0214697740102 -0.00550712672708 0.00307977991488 -0.0257605290688 0.0162673832191 -0.0121372783085 0.0265376929462 -0.002231178464 6.19490310286 -0.0266528423963
in 524919401.799 -0.00379258667578 0.0895126661286 10210455.8409 -0.00857340502095 0.0217437765218 0.0116155427006 -0.0218525752737 1.63714707672 -0.0194470354671 0.432316965311 0.0252733259746 -5.80923113341 -0.0270164691127 -0.00771592438973 -0.000729097285151 -0.00926869989011 -5.34511421095 -0.437247381764 -73261.377609 0.00859840847326 -0.0285450176233 52944493.552 0.793701867873 0.0483534108502 -0.00972964280916 -0.0140322744537 0.00206073183292 0.0140333540093 -0.0108018585008 -0.0173167540393 -0.0146904802894 0.023789574724 -0.0291312549616 -0.070928854731 0.0205724771486 -0.0220953834151 -0.0278359119129 -0.00924277161602 -1.17449135841 -0.011188199497 0.0115017265515 -0.0180657266667 -0.00793906920943 -0.00691038512078 3.64372807656 -0.3823098016 0.00819447504622 -1.81186266261 -0.0240190132878 -1.37471942523 -0.00327584875548 0.00299726008705 0.0118123905277 0.00841508806104 -0.027866682914 -0.122008827809 0.00756951656255 -0.0186376939727 -0.010278686745 1.71782228734 0.017167054273 1.65890126431 0.00960534833107 0.0171434166145 0.00368411342067 0.0213560205449 -0.0109249940161 0.0445362882053 0.0147286382545 0.923190069988 -0.00802519908189 0.00528701320314 -0.00554548987319 -0.0292143482533 -0.00647141908446 0.0172477448305 0.0158617604082 -0.0267799351493 0.0282434872285 0.0120901506995 -0.0252148530921 -0.0026648615271 -0.0136845177456 -0.00802535840348 0.0228955083613 0.023371982215 -0.0264587280962 0.0215741897551 0.0173400250184 0.930942162316 0.00907260114161 -0.00454432685753 0.0251762134986 0.011224652483 0.0163226276829 0.0153030292026 0.0155059976707 1.96349119911 0.00515004776852 -0.00144404150904 -0.0074596068194 0.0291095433393 0.0210808126857 -0.0117045559548 0.0231985571588 -0.779257557558 -1.74449593427 0.0135904431649 0.0183848177094 -0.0285135207083 -0.981829503869 0.00609776998105 -0.00119595162425 0.00181070595392 -0.0188063751903 -0.0285481045706 -0.0195968425788 -8.11689896969 -0.308733286186 -0.0279278445817 0.00323468396045 1.35363636043 0.0192500048035 -0.02785285675 -0.00470124178512 0.0047601082452 0.0126374700963 -0.0228741266014 0.027076603692 0.00512821332761 0.0224754893429 -0.00467176755902 0.0244527872679 -0.00400973043044 -0.0130099054698 0.0135155720946 -0.00819283291905 -0.00310080156537 0.0225259249448 0.00581788296937 -0.00281800852349 0.0166414446105 0.0180473500228 0.0222273923074 -0.0171142410042 0.028028590092 0.0276072959014 -0.0281002540224 0.0161970054339 -0.0258251188407 0.0283211875678 -0.0162178958081 0.0280638002605 0.00808472036075 -0.00969114763683 -0.0274146022759 0.0172022604403 0.0218696362111 -0.0200502814683 -0.0113818115761 0.00893585093998 0.0211396753877 0.0109296189455 -0.029006716702 -0.00117969086602 0.0226488132748 -0.00913795612372 -0.0122472629955 0.0123532551189 -2.42013759489 0.0225777174659 -0.600760037135 0.0206710816424 0.0101792322366 0.000758906128715 0.0174214322752 -0.0271406198413 -0.420714889364 -0.0236986337012 0.0109578473847 -0.00882233369971 0.0150655760317 0.0177523676236 -0.00362111195274 -0.0297815947659 0.00284156644332 0.0236477985128 -0.0140889234091 -0.0191031706608 0.0251631669194 -0.490061471265 -0.0136625699668 -0.00417589068126 0.0181170705783 -0.0169133162532 0.00556486807963 0.0247143588865 0.00101882876054 -0.0199563903416 -0.00296531475816 0.0123668440489 0.000100379073741 2.72157461311 0.0138326584544 -0.0201305003039 -0.0256318402024 -0.0136743816298 -0.0224657310285 0.0135894163123 0.0193711496533 0.00197234566911 -0.0265643237016 -0.02155866435 -1.27093992917 0.0101830569961 0.0217113048228 0.0190916714009 -0.0125773601023 -0.0180600268651 0.0525967455929 0.0117044615531 0.00849606957301 -1.42728830527 0.0054536837803 0.0260158045932 -0.0103711847929 -0.0243931789565 0.019203183742 0.0173099524014 -0.00747497073437 -0.00843758337288 -0.00619397200074 0.0124191353387 -0.0184595011155 -0.0253142087147 -0.00216767025999 0.00151615353409 0.00210778532788 -0.00766688150677 0.024129925758 -0.0173548605536 0.0013485528435 0.0181483841099 -0.0116430845953 0.0272846754921 -0.000925633050703 -0.0149628320396 0.536797095705 0.0190638688816 0.0145940670504 -0.0223103143726 -0.23088750259 0.0176578598249 -0.0142004654594 0.0100868556726 0.0195079276055 0.00699388837204 0.00638937874741 0.0228444825057 -0.0209397037679 -0.0223036392905 0.00212633444548 0.0115472771316 0.0247023701671 0.0191566083044 0.00196178878971 -0.00281041157268 0.0276541891691 0.0206433618879 -0.00334512164572 0.0291337360733 0.0181487272826 0.0286849112952 0.00680994322492 -0.0202481180846 0.0194636927442 -0.0121680825297 1.4421485119 -0.0185842292544 -0.0251941114623 0.00386092553452 0.00749786232058 0.0215754491757 -1.0892621104 -0.00722327301604 0.00818169343478 0.0287349849856 0.0116358684649 -0.101949022462 0.0150902962414 0.00102548615762 -0.00949979879873 -0.017251881894 0.00418274757055 0.015795084159 -0.0616210891427 -0.00876815596855 0.00278118185661 -0.0211069678987 0.0291315003453 -0.00958142290136 0.0203921146013 -4.0805741726 -1296674250.49 0.01628948337 0.00494257065604 -0.0195828393548 -0.0154927405088 0.0111270440884 0.0101047758862 -0.0225072977978 -0.0197143500067 -0.0108329360951 -0.0270128294882 -0.019458326556 0.0250071106598 0.0145839971328 0.00725662194625 0.0285504111998 -0.0237692128703 -0.017534092256 0.0282259090826 -0.00164250314964 0.00666452135924 -0.00748268682664 -0.000459295649656 0.00352507368502 0.0162643825323 0.0147895499955 -0.414583485864 -0.000348293211229 0.0280991984371 -0.0160089588159 -0.0190605045195 -0.0191887051225 0.0270138083681 -0.00119879406902 0.00977910281199 0.0153847579051 -0.00288707620202 0.0278446267259 -0.0186570926372 0.0171111047418 0.015563218336 0.000165912970498 0.00292602806504 -0.0199037213321 0.0139680338998 0.00936608630227 -0.0206454993551 0.0054062419942 -0.025876379259 -0.0273196697912 -0.0193081853916 -0.00744183045115 -0.0233563375597 -0.0126981833954 0.00669212742042 0.00653254277589 0.0272994680484 -0.000668309339812 0.0164623783282 0.0127898343 -0.025137789906 0.0153603522277 0.00470138708256 0.0163638462624 -0.00583916632584 -0.0265045396345 -0.0203509201351 -0.00658329524579 0.0263648839756 0.016953825699 -0.00607015010218 -0.0117178830301 0.0247963703262 -0.00829522454052 0.039162153847 -0.0246705075788 -0.0239347507554 0.0114030248195 0.000550904324223 0.0141327030914 -0.0264273820179 -0.0151798360902 0.0119662726485 -0.0216469794347 -0.00431344701269 0.0119274480409 -0.0148947121689 0.00410162781972 -0.00956830270632 0.00839535161433 0.0212754215068 0.0173876261254 -0.993758533235 -0.0290106603016 -0.00132623682668 -0.0231833480649 0.012885616532 0.0167297640377 -0.0110808303903 0.025701969753 0.000595723922668 1.3792738294 0.0227906479367 0.00562030268077 -0.0282718462508 -0.0285793628187 -0.0142857456042 -0.00929611845959 0.0215411711401 -0.00406053899282 0.00259030161888 -0.017131845171 0.0245450360157 0.00326185635443 -0.00431927614011 0.0122007554512 0.0183676835599 0.0116992549507 -0.0760989390971 0.728917754326 0.00381154123294 0.0163936858834 -0.687811591511 0.0123677906824 -0.00352766164226 0.00245552811153 -0.0101097958845 -0.0144515701944 -0.0182193671611 -0.0210195027006 0.0161008503264 -0.00947816909982 0.0109518633456 0.00607294413551 0.0287472800597 0.0167901519648 -0.00328413141083 0.0145932902902 0.02475798851 -0.00938994074391 0.0146298714816 -0.0077054189814 0.005939946041 0.00778639685788 -0.0134101210402 -0.00534872080957 0.00223613924735 0.00150896137552 -0.020425479612 0.00311082339446 0.00343323338932 -0.00639177296769 -0.00287767606646 -0.0177685071512 -0.00198026149841 -0.0170350546413 0.0165869228529 -0.0250285488237 -0.0140569802108 0.0117069324519 0.0104269638155 0.00168894568397 -0.00329740130888 0.0178441448276 -0.00550933610697 0.00646928415981 0.0180060333542 -0.0166727128361 -0.0108723983902 0.0218384833747 0.0169363671117 -0.0245319252512 -0.0282516828646 -0.00286942787544 0.0214321382935 -0.00890560471339 -0.00419533628789 0.00589051463717 0.00725355465889 -0.00754296009758 -0.015861646286 -0.00719930568972 -0.00879506570118 0.0226300359302 -0.0143983652675 -0.0243097211397 0.0172048622013 0.0090440139482 -0.0154814811043 -0.0150099376194 0.0203973548312 -0.0291708141738 -0.0127425930835 -0.0142935664881 0.0265029939567 0.00581764942097 -0.0246104699656 -0.00345202035489 0.023528019816 0.10312100393 0.0225672326214 -0.0203511801695 -0.0169618939388 0.00809998710057 -0.0106637513667 0.00476932074744 -0.00635987319223 -0.00738818666151 0.00777471686876 -0.00100249835644 -0.0209376911692 -0.0207057034495 0.0179171172256 -0.0172673629946 0.0114135430064 0.00157986660849 -0.00659064902967 0.00717755658217 -0.0133614608273 -0.00298826796931 0.0161995423922 -0.00503658572775 0.00268994197941 0.0218151616528 -0.0253419153347 -0.000828347040371 0.0159462543865 0.0172343020291 0.0086620205193 0.0197423537102 -0.0289137057144 0.0285359985625 0.0178319538044 0.0187086037541 0.00842573597456 -0.663165437394 -0.0284176142217 0.00504916367153 -1.54223143414 -0.00975954239282 0.0100541576184 0.0243113021521 -0.00921186649191 -0.0149855109975 -0.0192142595185 -0.301181082898 0.0277691270421 0.0191658880734 -0.00410552858319 0.0286671496259 0.0205655414218 -0.00242121956497 0.0220810122752 0.0155774900717 0.0290540726938 -0.0146135060283 0.0146528880433 -0.0137978223061 -0.0264468949328 0.0146023549144 0.0143468086584 -0.0226323724106 -0.0101728148149 -0.0221650501612 0.0165844415175 -0.0168937456006 0.025628064549 -0.0184428336731 0.0225942924384 0.0225860627242 -0.011737989876 -0.0245086306599 -0.00690776491249 -0.00308095473547 0.0152182423421 0.0066306409884 -0.00541109476902 0.0232422035525 -0.0059449287509 -0.0126959318607 0.019935705737 -0.00699326944771 0.0145093186219 -0.0191747625759 0.0254547837979 0.0175776499963 -0.0113596105426 -0.0212697391758 0.00136515204878 -0.000667063913391 -0.0183329790769 -0.0232542565489 -0.00325494580904 -0.00539532031727 -0.0273150347189 0.0120814757145 -0.0187609370488 -0.0158612944444 -0.0289574075703 -0.00968233917254 -0.414988179114 -0.0284724504812 -0.0282159552116 -0.0207225498871 0.0088194489542 0.0151647661881 0.0035951803602 -0.0105381773536 0.00671186427819 0.000556162066083 0.0169362268467 0.00782625742821 0.0113219162845 -0.00982107567364 0.0123715659116 -0.435323731267 -0.0214154845115 0.000194332809328 0.00502057360767 -0.762498988867 0.00377175808369 -0.0264269424217 0.0235644292402 -0.00773171309542 0.0139878551067 -0.111017144067 0.0120618982547 -0.0212084327076 -0.0189439581623 0.0235357084113 -0.0157450385658 -0.00447660732626 0.0162819463148 -0.00842986591966 -0.0192204227377 -0.0123101777777 0.00299520959222 -0.0233424561464 0.0796520121465 -0.391034947703 -0.015686611455 0.0146872289853 -0.00864646137088 -0.0276605432961 0.0190277919776 -0.0179481776539 430380896.632 -0.0118800575533 -0.00888350364247 -0.0188117396537 -0.00887014191526 0.0123485243275 -0.0154660585505 0.0161733385455 -0.000504775307139 0.0229664200616 -0.0099587007784 0.0121136893431 -0.000660936417346 0.012019414753 0.014695794903 -0.00739910411348 0.0112062713922 -0.0240159634216 -0.0194726605726 -0.0211443866464 -0.0123869044347 -0.0158986851658 0.00923288862993 -0.01516521977 0.0280168193505 -0.0196187151064 -0.0833680858934 0.00270674185221 0.00271024020138 0.00759561314759 0.0189841652175 0.027962845558 0.0208290190105 0.0273224479578 -0.00995419179385 -0.00799160825922 0.0054871021547 0.00971134465579 0.00176390392547 0.00710095301511 -0.000430169958678 -0.0137623044745 0.028509759353 -0.0230517260821 14911931.8114 -0.0264799781669 0.0224831162525 -0.0146780166199 0.0287928468849 -0.00731171248647 0.00940060016287 0.0289117972758 0.0860797238935 0.0249781537338 -0.0286958229624 -235939112.874 -0.00834609126125 -0.0198934343892 -0.0200453800021 0.00255555330035 -0.361605664092 0.0216933406379 -0.480895921068 -0.0275186966735 -0.0143245753946 0.0135053171689 0.00447182580561 -0.00492458119111 0.0131856679761 0.00513889161933 0.0120019086815 -0.00426692505534 -0.00685290667113 0.0153289441781 0.0239052218383 -0.0236392670559 0.0167202094164 -0.0214175723931 -0.0258748713815 0.00202303528862 -0.0115391129995 0.0179758104248 0.0197356039087 -1.10120624272 -0.000476045033153 -0.0164222185968 -0.0188562551813 0.0219228646556 0.0031038903758 0.023963204792 -0.225196191179 -0.00540288786403 0.0283934825433 -0.00902781267997 0.029173471563 0.0282056379512 0.0204258266606 0.0116185979592 0.0261006479184 -0.00793228053516 0.0279982614002 0.00615671967385 -0.0155402364828 -0.00800717229092 0.0154690633212 0.00991210288364 -0.0236456804995 0.0206892698093 -0.0184494709826 0.0256683024448 -0.00743832679663 -0.0107749565388 0.0100228070199 0.029020980963 0.00168406386094 -0.0146788667569 -0.0217434079412 -0.014129211947 -0.00199704556851 -0.0117438063323 0.0238962114506 -0.00299741828213 -0.0244750345477 0.0172043704325 0.0210152826409 0.0215865702996 0.0192146343214 0.0189630011259 -0.0122967206099 -0.00427842297037 -0.0172596797291 1.80287962254 0.00650857240334 -0.027155449152 -0.0137790499759 0.0214132747857 0.0103446631521 -0.00511238801503 -0.00135545535154 -0.00482296151097 -0.00185230448136 -0.023315853801 -0.020975760317 -0.0254559800753 0.00385987528903 -0.00316157869268 0.00172120156273 -0.0240933124557 -0.0102965067015 0.0206422118216 0.00870949882395 -0.0053448521698 -0.798793201994 -0.0272349868453 -0.0121601648186 -0.0284738836904 -0.282130807963 -0.0285657175206 0.011907687165 0.0124032958405 -0.0149280507506 0.0100266387424 0.0057296202522 -0.020170249853 0.0247128180907 -0.0161554304134 -0.00538158767133 0.0149618830008 0.00386502804876 -0.00283905889501 0.000391356628961 -0.018588702266 -0.00324557493413 -0.0141761769671 -0.0265369451516 0.0232112610706 -0.0227228553481 -0.00696379105177 -0.00380626140267 0.00440400055103 0.00678752721633 -0.0282407260815 0.0152822149877 -0.0633376001139 -0.0217477933365 -0.0211700091081 -0.0113236483141 0.0209937479702 -0.0019358516313 0.0161759789895 0.00353830364807 -0.0209773820742 0.0286021506008 -0.0238771476961 -0.0117674388598 0.00287217449113 -0.0108655487041 -0.0244913587798 -0.00509206012401 0.0135346135907 -0.0118424394062 0.00974847527459 0.0264630977176 0.00709004903178 -0.00772799648669 0.00610186845852 0.014401210872 0.0152119801139 -0.0241780011196 0.0106026758096 0.0160812036217 -0.00194607105079 0.0127221801002 -0.0148191701991 0.01469109971 0.00619516709538 0.00687661251654 -0.00131324755818 -0.0169128321428 -0.00113562930434 0.0118384143218 -0.0136130282655 0.0218116214886 -0.0347166832115 -0.0251727922743 -0.00269160219248 -0.0246270961935 -0.0226318264238 -0.00777847190784 -0.00689950889893 -0.0263494404651 -0.011406480815 0.0124745357461 0.0251877663467 0.0290783947553 0.0069724436731 -0.00187982858915 0.0141880738592 -0.00350678886631 0.00503531410105 -0.0189713924348 -0.0134969916464 0.00907888038915 -0.0186192571863 -0.0265570276453 -0.00445888712861 -0.0101330985751 0.0167456524465 0.00432392942474 -0.0101583806211 0.0180636955457 0.0279824171252 0.00345583284766 0.0268493191126 -0.0472107130544 0.00979281932993 -0.016163775023 0.0104633043793 0.0244395410208 0.0096548549386 0.00153554242204 -0.0279680205739 -0.00254847183499 0.0149169644986 -0.0185190981624 -0.00594066376833 -0.0108260890037 -0.0135232136272 0.0148552483442 0.0117629708113 -0.00722886407613 0.0157458221168 -0.000485529444964 0.0237071799943 -0.011677081938 0.0214516820674 -0.0211337903532 -0.00964603231571 -0.00303829877373 0.00924930741912 -0.0051750941383 0.00225957901984 0.0118964909119 -0.0618322688097 -0.00992525439424 -0.0265309458097 -0.0149067418804 0.0246630838671 -0.0257167129345 0.00703926393524 0.0238781302069 0.000499280931538 0.0279073281977 0.00561928852011 0.00709566262001 597038763.866 0.0295221301401 0.0133976076434 -0.599563786006 0.0132045248474 0.0280812184863 0.0057884545077 -0.0151082792314 0.0130478417369 -0.19763534464 -0.00408648621819 -0.00496476136069 0.0130503068907 -0.0140799380606 0.00807830820416 0.0196947555521 0.0111316353541 0.0229197395875 0.0237280982249 -0.432681397362 -0.0886044322368 -2.19877672384 0.00761269960033 -0.0197837024358 0.020966208451 0.00997681642598 0.0200160797478 -0.0207134324973 0.00565842278792 -0.028013435421 0.0182390557369 -0.00176460076549 -0.0124219943345 -0.0212976770301 -0.0284072271869 -0.0136146207522 -0.0146113916193 -0.001245641292 0.0287809200759 0.0262751923454 0.0290509474359 -0.0113202129438 0.0123534248503 0.0131752245257 0.00478295930939 -0.018266417741 0.00202848545025 -0.014552268945 0.00024932609335 -0.00946349123769 0.0126087181169 0.00579690143756 -0.0175188182782 -0.00495754012427 -0.0240611101672 -6.08135841473 -0.0225483053307 0.00467670709166 -0.0212663879792 -0.0283474875197 -0.0242870477016 0.000203985348098 0.00744920303652 0.00471950710196 0.00839597419249 -0.00332812009758 -0.011176260027 0.00293028381844 -0.010955982492 0.00494533104409 -0.00598428536494 0.0201046305734 0.0172881731609 0.0228728411282 -0.0139916445958 -0.0122029087305 -0.00237959863989 0.0272500760133 -0.210837492408 -0.0175245969769 0.00366488820414 -0.0051679834763 -0.0281657487161 0.0233678396146 0.0246043910625 -0.00828718155294 0.00419542429468 -0.00201585490465 0.00991053594019 0.0243650097656 0.021250022463 -0.0175750157499 0.0143518145174 0.00595569500288 -0.0240057857555 -0.00250176218128 0.00656600005979 0.00559515684674 572.435001507 0.00706887541571 0.00470604122927 -0.0179162518514 -0.0120636044198 0.00579115566256 0.0229858540429 -0.00631001830385 0.00729722521098 0.00727513669869 -0.0268319884361 0.00749346427026 0.0250340366536 0.0167837016265 -0.0211344209599 -0.00336492082331 -0.00455024836142 -0.0210840623784 0.00721408757092 -1.1125964596 0.0239407781421 -0.0156008889779 0.00277936968304 -0.0239262080458 -0.00175367541577 -0.0088412870038 -0.0143322430463 0.0211778797568 -0.0252999873043 -0.0114893721298 -0.0101484776408 0.0148844101648 -0.0058296475857 0.00790321647009 0.0160567908882 0.010800512909 0.000676022555483 -0.00118187416827 -0.0177186946201 -0.00203882931435 -0.0253944892835 0.000976223389243 -0.0170213756728 0.0186003534488 0.022815433356 -0.0192038454103 0.0232665984767 -0.0245023249086 -0.00649391246515 1.43035887573 -0.0631678823932 0.0629615920034 0.0204481488903 0.0108292351365 -0.0212135473885 -0.0271954488071 -0.0290028245246 -0.0167647376721 0.0187110062327 -0.0146393581172 -0.0246000573782 0.00910846056219 -0.0225148963932 -0.0122280011975 0.0234222007674 -0.00759161750951 0.0139131314404 0.0031747593866 0.017290296625 0.0100295087236 0.00163775805017 -0.0100108121702 0.0165255693365 -1.05752431804 4.3955140713e-05 -0.0133822295382 0.0158471084099 0.017203036562 -0.0154506463995 0.0151085800664 -0.00568128838456 0.00141459591138 0.0244510503119 0.0153219660306 0.0221451737117 0.0104749809719 -0.025385868669 0.00834097930746 0.0219051945266 0.0187185163584 -0.00334438321042 -0.0225193624007 -0.0277357430042 -0.0206197375426 -0.234135986855 -0.0252797078779 -0.00741170463379 0.0163877094792 -0.0193879973261 0.00197017890777 0.0147947276311 0.0236592949084 0.0253753826504 -0.000108366164862 0.00557820147891 -0.0229514431616 0.00635898725426 0.0230929046371 -0.0260476236216 0.0264181965323 0.024849820372 0.012213814105 -0.0177107592848 -0.0250377323552 0.0249896884115 -0.00213526721746 -0.00603259442224 0.0224996720928 0.000512286348015 -0.0290116254552 -0.0274180591238 -0.0137943370829 -0.00934884743148 -0.0113147920668 0.00204899265959 0.0274622872923 8.28046290854 -0.00531658813998
