yellow -0.190274021222 0.0794694261954 -0.00381402203505 0.0357478076938 0.118335251966 -0.00750494424592 0.160793436571 -0.0685046599109 -0.050509580277 -0.183724708363 0.132083540171 -0.0567026690839 -0.0808040960883 0.00676156222836 0.233377946794 -0.0792386230581 -0.0723928905176 -0.0618004130749 -0.115623127869 -0.178842243998 0.177103899134 -0.160178617316 -0.0603432219801 -0.101234056139 -0.069879130472 0.0203502922122 0.109354410906 -0.0920605316683 0.0375805312262 -0.00982943412314 0.149316026622 0.0611730460283 -0.0856028641837 -0.120738064464 -0.211549331129 -0.119942072973 -0.117477681618 0.091499824265 -0.0751392538003 -0.18080798077 -0.0507221334669 -0.036559892722 0.107747072033 -0.140843583332 0.0486916836331 0.0957400062218 -0.0649535657227 -0.151647219799 0.0213547196271 -0.0772650227855 -0.078725559342 0.0604167873514 -0.0277355177528 0.177090692376 -0.0876712728144 -0.0384326757625 0.0645948947463 -0.112653549336 -0.113369186185 0.0821673083383 0.0803261766001 -0.183326527134 0.0973647057712 -0.0882917640224 0.184554988514 -0.0991419137357 0.177497291282 -0.0838892456492 -0.133662342699 0.0104273591631 -0.0338408806949 -0.11861826443 0.0631928356392 0.0682311033327 -0.0905497109192 -0.0631248943326 -0.0769777237096 -0.0343984146743 0.0154593427457 0.0788994684551 -0.0941272079329 0.274628797588 0.135171704316 0.0127808976132 -0.00568764573873 -0.0588269220525 -0.0506958262158 0.103241888972 0.112035832747 -0.082498196513 0.00251460785863 -0.0261284164128 0.146906448973 -0.0119098508641 -0.0544009033502 -0.0164700852375 0.119772069554 0.221775607455 -0.0921044786702 0.0229916150197
asian 0.0337269677152 0.10313201454 0.0937011898793 -0.0178625141444 0.076127112973 -0.152538042581 0.0622994850264 0.133600168016 0.114614962101 -0.0478023603673 -0.0131108446618 0.269734368314 0.0260877180396 0.022187701996 -0.187440851896 -0.0141436788401 0.140031276006 0.141703283116 0.130834287385 0.0844831833158 -0.120005888336 0.134594550656 0.0282106766843 -0.038007049983 -0.0491342495812 -0.0725748014736 -0.0762963229032 0.11538305394 -0.201203809379 -0.118687931636 0.00297157074137 -0.0603380378451 0.221061504444 0.00629962470117 0.101378686154 -0.0980138283773 -0.0130858136191 -0.175665796536 -0.113194851082 -0.0545925206905 0.0410315009359 0.121976823527 -0.026531270058 0.0969940652481 -0.0365199030117 0.134552572157 0.140153506448 0.0559636265268 -0.0047094691415 -0.0811384915824 0.118116780451 -0.0755798914574 0.0580118842164 0.111029347781 -0.11666913665 0.00789108386191 -0.141146301525 0.0155708752658 -0.0687882453691 0.0699541209058 -0.0927497801704 0.181476749735 -0.17607673466 0.0165289503209 -0.0416641998248 -0.0287551516602 0.126326710367 0.0962208376658 0.10908450038 0.042595239186 0.047135464789 -0.235551044351 0.047892713721 -0.124226043573 -0.128719634384 0.23091374041 0.116212816291 -0.148524240952 -0.182551812418 -0.0603102222352 -0.0261482674056 0.101274744674 0.106283394362 -0.158116776406 -0.287923793235 -0.0686212083401 0.0512714525997 0.116430145867 -0.014416244548 -0.128705174938 -0.0553507915062 -0.0351319588694 -0.0555993793414 0.195268408379 -0.0187446717553 0.116480338278 0.0122373686846 -0.115926333856 0.0512148161164 0.118952716088
hanging 0.122562210839 -0.0695917691049 0.0939613056139 0.013717940999 0.0545329838212 -0.131689638696 0.211402446906 0.0754752139434 0.113683225174 -0.0529599913236 -0.0723423154322 -0.133696245089 0.0421175874423 0.0967632743287 -0.081913656711 0.0348010168219 -0.0954455835706 0.0938095904085 -0.0356755285576 0.0896834027071 0.139096080471 0.0889710221248 0.0463497112094 -0.105117762879 0.22299278957 -0.144681080943 -0.0802900538128 -0.11060135213 -0.0597995758848 0.184708120508 0.0576540854888 -0.0592017838278 -0.060839665484 0.0970853661064 0.178763331679 -0.0340364580591 -0.153715712367 0.039756341412 -0.25939525096 0.124451027192 0.120684673757 0.0593096384206 -0.0254831963444 0.0374632716182 -0.0383764105619 0.0728584876179 -0.0376245254891 -0.145640404339 0.023931071454 -0.00273626630299 0.0796044230779 0.00303161681872 -0.0512465527661 -0.117678244301 0.0378630614482 -0.0147847813405 0.0688034885992 0.0601427157727 -0.120922869108 0.0468541991774 -0.00430057097138 0.0264803137764 0.0334252824387 0.00896762507786 0.0438982153663 -0.0253796982882 -0.0312822384516 -0.0891228926869 0.0697802203522 -0.0269106542016 0.0576240966402 -0.0163746892477 0.182742694341 0.123732709921 0.113432748829 0.0954955146501 0.0905487342917 -0.122816697236 -0.1226688334 0.0703060733741 0.0437508536559 0.0816227689983 -0.106052443158 0.0184426323275 -0.0417111162616 0.171387152302 0.00195582593992 -0.154283351806 0.0776149532053 -0.0604978864986 -0.150705641465 -0.06306362835 -0.176113660595 0.10342133909 0.161347475117 -0.113305704676 -0.00142670499063 0.0872838671762 -0.0260710872457 -0.0803644172648
oldest 0.130385884708 -0.156064941392 0.241403977363 0.0600978432308 0.0615739741719 -0.00436436111065 0.220525774042 0.0487413827315 -0.0660876819895 -0.139327011864 -0.0718562767225 -0.125684733015 -0.0569975942805 0.145129461425 0.186219077288 0.1060402267 -0.145091153833 -0.0291740758383 0.11807469312 -0.0418734193673 -0.0477485521674 0.0722015582236 0.106658930106 0.149493495807 -0.117586585701 -0.0899419190604 -0.0326690436053 -0.0837100821059 0.0528925914444 -0.063728961232 -0.087424870926 0.117411124612 0.148464285932 0.0644675468268 0.0855238069666 -0.00232716958872 0.018950530311 -0.170120430475 -0.0797949658888 0.068005996198 0.121206552358 0.0259856826721 -0.0448901527497 -0.00856542763544 0.0436111704381 0.123284563345 -0.0293623391273 0.0239927055199 0.257718343515 -0.0232131429439 -0.144874178793 -0.0228326647221 0.0326545385339 0.104753103742 -0.264440805771 0.0631193380047 0.0285219989359 -0.0461559708699 0.0126751357912 -0.0971436241727 -0.0128835053885 0.0744478089991 0.0530522541921 -0.176004446115 0.0366676351632 -0.0122239963817 -0.11744098778 -0.0285849369752 -0.0899451552916 0.0222478700124 -0.11542582536 0.0527578561667 0.224524922797 -0.00304348341902 0.158849462713 -0.012325017875 -0.0172518789557 -0.0707884355436 0.0826027926826 0.103397555215 0.0894807906846 -0.0771923491925 -0.0198712348934 -0.0583841913531 0.0649838846795 -0.0797119943181 0.116300346809 0.172661153536 -0.188842146838 -0.0860388150154 -0.240705847422 0.186727181379 0.0959583978805 -0.146531206515 0.256337034239 -0.0140144759584 0.08414097849 0.156443686797 0.0979185629754 0.128484738941
calculate -0.0970380148051 0.0204911807653 -0.0761261858711 -0.0379401197654 -0.152163198264 0.161980560695 0.056806644546 0.0108672037103 -0.159756596441 -0.0108776851979 0.0751858715926 0.00949063235497 0.136520205656 0.170813085054 0.0602046853256 -0.06445074684 0.0945309024285 -0.107221568455 -0.0881147879303 -0.0743341608938 -0.0570112261264 0.100757552385 0.0400976011776 -0.215183428914 0.0996525442846 -0.023158092993 0.0261676766853 0.0397225215719 0.172699803068 0.0509460248714 -0.0390754998895 -0.0223068453542 -0.0274885833139 -0.0295600458293 -0.0176080481795 0.010713283976 0.0235381646509 -0.0234073969358 -0.0624225636 0.0594471827307 0.115694218922 -0.0389639870169 -0.0635018958551 -0.0107685303873 0.0352069389598 -0.10187411528 0.00850126123578 0.125840290271 -0.162903527838 -0.117481797065 -0.0266892018817 0.104267343744 0.226172363589 0.167600900595 -0.13238346558 0.0247628642375 -0.0438896938694 0.00169302597032 0.0189940296894 0.0147303455112 -0.00147796875012 -0.00148426268465 -0.0186821784426 0.0824125760535 0.0134573346031 0.0517310204526 -0.0516258789059 0.0811029645283 0.0713368390882 0.0911728428364 0.0271851804074 0.00485092582195 -0.0318043812304 -0.0589706917376 0.0346990358869 0.144328106273 0.0357797502909 0.157359997151 0.142647555146 -0.0841056772354 -0.0416342046112 -0.0744423113268 0.119416448895 0.0996389167388 0.0659253219247 0.0240411990538 -0.0320437899537 0.0700416825035 -0.0192234524465 -0.0354744617874 -0.112471451136 -0.0221746133575 0.150034785181 -0.146297848468 0.00770064356716 -0.00362751047405 0.0525416530085 0.116720963572 -0.0558027157567 -0.00636696661427
similarity 0.147548881505 -0.0865940247342 0.00431034936918 0.0482554256543 0.00552969836099 0.160616151961 -0.0660961781314 0.105238458206 0.0543357858738 0.0692346204017 0.0987944296083 0.0935990934493 0.00101719366775 0.0974261230545 -0.127065759391 -0.00176327239605 -0.133420119743 -0.0655657824852 -0.0726683381239 0.0813951539132 0.0875035454379 -0.00861067030242 0.0641739821981 -0.0188534018293 0.244085173536 0.068198637875 0.00439616126178 0.0431272866294 0.155189599785 -0.0192271308422 0.0768897492693 0.0770130483713 -0.092866493011 -0.261009100279 0.0151199409826 -0.00113479678964 0.0541209240884 -0.19864970232 -0.130030810695 -0.0108106958792 0.00183881344463 0.15106970023 -0.025568542766 0.0355353475978 0.0956124113935 -0.102867065936 -0.0483616595188 0.0961105583467 0.185110260189 0.0436720716377 0.0332602543076 -0.127438835203 -0.106033998521 0.130603186561 0.0702373697251 -0.137179423536 0.0614116329906 -0.278099712269 -0.0183212402453 -0.0976721993747 -0.183465553675 -0.0682434417093 0.146092548048 0.166115829343 -0.0368219582203 -0.076929915528 0.162379463713 0.0907341236919 -0.0391817789613 -0.207382226825 -0.0548824411119 0.0351140788339 0.0632129144244 -0.127306933264 -0.043890340765 0.0641418280401 0.0387470954231 0.0635712461045 0.0456414275302 0.0964724601762 0.0465370336701 0.0241752812043 -0.0507806827552 0.0563935214494 -0.165153178885 -0.0531411682685 -0.120770355348 0.179932294194 -0.0270538082428 -0.140057315211 0.0450069306822 -0.127755973798 -0.248792116044 -0.0727426897891 -0.0950029046145 0.00844925764436 -0.178038050985 0.157742287531 -0.103753818435 0.00818469175796
disability -0.0185499769774 0.00900721493944 0.0218174938621 0.0432358347421 0.16498756755 -0.198865296445 0.0119142109458 0.0182326227286 0.0365465971443 0.147581309533 -0.0841955535778 0.141860412483 -0.135739631751 -0.0526299451631 -0.0834372565347 0.120869749155 0.0561267483586 -0.116626010076 0.215479135004 0.00682220432657 -0.155826245497 0.0433188727296 -0.0206183638579 -0.126350754041 0.02907207363 0.10508323843 0.0924494323527 0.0307433987298 -0.0896555717768 -0.0596080981422 -0.227779136785 0.0731387175136 -0.0408982163589 0.0652366815987 -0.15892456444 -0.0264401063688 -0.0091254985285 0.05834210033 0.239481718052 0.140983587358 -0.0173919246516 -0.0482988532423 0.119103653536 -0.0742625530151 -0.0574624339272 0.078094407756 -0.0958999517273 0.0282083059169 0.115215763476 -0.0199317047212 -0.122996503473 0.0975675489327 -0.0228477677113 0.0906301512244 -0.0530775758096 -0.0238633945383 -0.0352535523665 0.266223800108 -0.0580896630165 0.0265992861763 -0.244316004585 0.0104186952268 0.039596775628 0.0163863404689 0.0825190383232 0.143043126217 0.00690681604069 -0.0636030746435 -0.0938717158795 -0.114232448869 -0.00297130577948 -0.00357394638337 -0.120302846555 -0.0306219355037 0.0479073990091 0.0324505772796 -0.0158596019967 0.0512485164875 0.31047155049 -0.110084795508 0.0959518156708 -0.0592272185579 -0.00911763271297 0.0194806441091 -0.107175629775 -0.153019019327 -0.0952998432706 -0.175625158953 -0.027948224926 -0.101427853841 0.134155614899 -0.0689977123738 0.101932637892 0.137907484217 -0.110689517474 -0.0717326889854 0.211730591296 0.145517767928 -0.0426398033664 -0.198640728084
pride -0.127557321403 0.00257732560282 0.0844752821284 0.119184654558 -0.0338543943075 0.0177782179599 0.000807720763992 -0.0448577738961 -0.108360050721 -0.0190590420895 -0.0521832724756 -0.101571469456 0.134446683697 -0.0685516545122 0.0459982380756 0.045160234573 -0.100642720607 -0.0561347241287 -0.197635543018 0.0401076009849 -0.216345027317 0.0195398906289 -0.0519975405881 -0.211272846345 -0.0119386957174 0.046041371932 -0.119504029789 0.195259014956 0.00464654859151 -0.0969526568853 -0.0343391911103 -0.067563410342 -0.0287247183561 0.0188795317006 0.0119090592743 0.152800440256 0.0625714371622 -0.0590939000661 0.0624274253557 0.0692036511963 0.0311603888211 -0.0735095100831 0.0125072854973 -0.0241877786053 0.161851354047 0.0270944820253 0.0356627945475 0.0582713908709 -0.166618389066 0.0589994086627 -0.0345927629917 0.148420555072 -0.0599207893595 -0.0958193448893 0.0050012902227 0.000509459596764 -0.0893709708135 -0.0549618938821 -0.00155099978921 -0.150814392491 -0.0493773796716 0.0794093650175 -0.00967677088299 -0.0219015029164 -0.0785338245424 0.0323856558627 0.0285028895583 0.0279908928143 0.025917704969 0.0739172078675 -0.0121005772349 -0.0654995460007 -0.0122885635329 0.0108941042937 -0.0525537315094 -0.0284717560562 0.0293444565959 -0.177126415701 -0.0576455845579 -0.147764147771 -0.0142768481579 0.0436900880722 -0.0653537861336 -0.208971444901 0.0302381760619 0.00615888791219 0.0660539215509 0.105467660463 0.118634693638 0.0251419070318 -0.0870519889903 0.0214717209496 0.0734578067651 0.0354979831718 -0.016710657311 0.118707912131 0.0303866664666 -0.0827473233963 0.152307326016 0.0589609417791
sway -0.0193958532834 0.100599303489 0.214977683292 0.118090767755 -0.0824986385813 0.0847540195965 -0.134006884439 -0.0965879734457 -0.193264784658 -0.0299519168359 -0.0031578836335 -0.0636984782154 0.109251983601 -0.108395305215 -0.105493236681 -0.0173792824925 0.0360645783012 -0.0640102900124 0.0370847528127 0.221248546721 -0.157004988877 -0.0640036185712 -0.160899070247 -0.0525039838364 0.0910021973096 0.0849046153229 0.0186842174419 0.0368602060788 -0.085483292055 -0.100303837703 0.0449160326419 -0.132642566998 0.17633536889 -0.0241985303111 -0.110250057386 0.0459354370576 -0.0569241268662 -0.0233152100976 -0.106274246895 -0.0929982877341 0.0228854140705 -0.0529091524928 -0.107576644225 -0.0392740668325 -0.0324721507117 0.0640436455051 -0.0863084146421 0.257991602292 -0.343344634797 0.212352971044 -0.07070136663 -0.111832589143 -0.039341200693 0.0519720254883 0.0695836384779 -0.170874815383 0.0382132842919 0.112383987041 -0.0758361886276 0.0475898955011 0.301535956419 -0.017430047966 -0.0823473707194 0.171874624011 0.0753202697667 -0.00523604785172 -0.0742946597373 -0.105868013224 0.0177005454071 -0.00766303746525 -0.111341869634 -0.0725120703982 -0.195717658404 -0.159987102948 0.0245060284064 -0.265794545315 -0.118687265349 -0.11481481549 -0.0520787855097 -0.154794248863 -0.0907719511303 -0.106438390223 0.0781506726905 0.0287753927402 -0.154942401423 0.0694623025685 -0.163852477922 0.0616823774084 -0.0626786678759 0.0185211582441 0.025550711379 0.0901821748328 0.166601830341 0.0817419839257 0.110954898764 -0.0869967043398 0.12331643004 -0.0585909670716 0.120995462637 -0.027435134625
foul -0.0154298586823 0.0683485300775 0.0123237484867 -0.321604989605 -0.00785861785682 0.0124469296344 -0.0977829160916 -0.00251694705936 0.102113393707 -0.0536090167328 0.118830506651 -0.0518807697982 -0.0409223211631 -0.000827966879027 -0.329194547215 -0.0754692025695 -0.014648844261 0.00455296874924 0.0415081122272 -0.0111403633232 0.0317514860353 -0.0270636390735 -0.00481872758942 -0.198752415613 0.119376489637 -0.101577868653 -0.210841576983 0.0808577755324 0.0858926428037 0.00494410057589 -0.0559930624704 -0.0879006671314 -0.248281561587 0.0304717450788 0.199618773131 0.0420137760644 0.125014508895 0.0710616487029 0.0707697247866 0.037699708621 -0.00947730454806 0.0676899842418 0.0350412317927 0.0278887755935 -0.0602947998807 -0.0397825926971 0.219580727268 0.19635591001 -0.0137741150388 0.00291538609357 0.0353519197409 -0.10020683054 -0.135663280799 -0.0500828130737 -0.069379063019 -0.00967210387791 0.0765475397973 0.0688009951286 -0.0623374534244 -0.0486033578302 -0.0620888190062 -0.0924219091561 0.043505271409 -0.0645271185362 -0.0163032997645 0.0134010221803 0.113653383359 0.0449386531628 0.0190459856545 -0.0994912009021 -0.000991158814719 0.0268661282532 -0.0780840065939 -0.112359528596 0.00794808664246 0.0453517287074 0.111644245948 0.0638719551562 -0.0118066754542 -0.0326907037817 0.050512470722 0.0789189951232 -0.076257199168 -0.103605665444 -0.0348285486664 0.0141433268774 0.00568033632954 0.153239093393 -0.0569451050206 -0.239897631382 -0.129486305916 0.0678225152956 -0.139992466539 -0.178827515064 -0.161868532054 -0.013093633531 -0.0363259752405 -0.149888811029 -0.0849321791795 -0.137786384971
chapel 0.0792692761354 -0.102600653331 -0.161177683976 -0.174068737535 -0.00459797399886 -0.171740199538 0.0158663863805 -0.021418731401 -0.159273696476 -0.0317607022403 0.179429284384 -0.117843382994 -0.13536234499 -0.0860192601145 -0.139907062887 0.138605481525 -0.150711688409 -0.15049205394 -0.0337400759176 -0.180143198278 -0.0810955761607 -0.128731338955 0.145279612755 -0.149980503925 0.0112396720567 -0.0503621395447 -0.0504771925271 0.107120869354 0.088050761608 -0.0781456628093 0.232079884112 -0.00922676725837 0.0193765077261 -0.0787298268759 -0.00404222037912 -0.0135569368269 0.0913677520352 0.0462800471754 0.119866144804 -0.0739302666444 0.0102824244599 0.154481449946 0.0274131605787 -0.110094991189 -0.165588083851 0.018156174296 0.0309771365357 0.0787743366048 -0.0769064704178 0.0103978810606 -0.121607094528 -0.170590749666 -0.0689747893867 -0.0553460531435 -0.0764161572278 -0.00522653216465 -0.0690498296408 0.0258382721903 0.065048661407 -0.0951867251281 0.0555045578282 -0.0138675695867 -0.025333584138 0.129147808487 0.201978850009 -0.0616982395634 -0.116443992551 -0.0895344119196 0.0439112230052 -0.161835989832 0.105397432867 -0.0829403388962 0.152172183398 -0.0290327207219 0.0588287358811 -0.0550107160888 -0.0339152506932 0.100382361686 0.0150982712092 0.0478542891568 -0.0562720712668 -0.0456936273773 -0.0171186553321 0.121894873 -0.03376097999 -0.09114774583 -0.00247349301757 -0.107978446633 -0.0912185683429 0.023163428552 -0.164780099802 0.0955742656097 -0.132915204879 -0.0218520903264 0.0572171527691 -0.0523467703012 -0.0798504346344 -0.050939314859 -0.176777646163 -0.124199439417
investigator 0.0875898581321 0.04672875323 0.0562063131869 0.107543901213 -0.0688823302965 -0.0117400417042 0.17717946958 -0.0460527427644 0.025846811189 0.0774089152527 0.161888736805 -0.038238560732 -0.182985609864 0.10889758618 0.15986662938 0.0154409311125 0.0345256554445 0.176599981674 0.127710747444 0.170173701069 0.0852828027118 0.0272282085781 -0.0403342496587 0.0947944878285 0.0780697457688 0.0361946104397 0.0529087064168 0.147198558478 -0.0360249440456 0.00656300406871 0.00773175483851 0.0603505399306 -0.105799371311 -0.137397887719 -0.161293301826 -0.0812475829731 -0.128131622251 0.131719375416 -0.0122865921237 -0.0463167224377 0.0709587566573 0.0593905312038 0.0116855077361 -0.237619036736 0.0169900267409 -0.0849422763352 -0.264126697821 -0.195041373752 -0.0478521707357 0.118957237267 -0.0147776112752 -0.0804568272043 0.137196720338 0.156976105731 -0.177446825222 -0.0151701780932 0.120726951181 0.00734249065222 -0.109420776884 0.00855980794492 0.0193021192628 -0.03400653774 0.0758774265553 0.000190853639694 0.0763178827823 -0.0612766016387 -0.0799844771891 0.094568129706 0.0441778723928 0.0668112478078 -0.0748717204135 0.0118837835567 0.0323928217307 -0.035177705867 -0.0471580532422 -0.18439651072 0.103435532558 -0.124334581977 -0.0197081692844 0.104943203721 -0.00124591977408 0.0936896000702 0.0592355791703 0.032008052771 -0.0585418074544 0.0681420204698 0.116539867778 0.242498671729 -0.151042364124 0.108152904767 -0.0429307606451 0.109410401097 0.149672617532 -0.118277116222 0.0185331709663 -0.0164687080309 -0.0776784655907 -0.093545725218 0.170569542423 0.210363983982
straight -0.022153183297 -0.0342435854002 -0.0317835558274 -0.0252032912616 -0.0163706988466 -0.0855970126315 0.017517641408 0.0797406705917 0.125019100172 -0.0958633735886 0.0609176856874 -0.0635836092931 -0.0316010268572 -0.167874752623 0.0830861455716 0.071643972294 0.118406184207 -0.021488731286 -0.0998834130192 -0.145607576416 -0.0217913618989 0.0818956397349 -0.0256819661387 0.0981500750889 0.0125198750327 0.0112092657962 -0.0273848311751 0.0555235320454 -0.105926314284 -0.106506471561 0.173958679994 -0.0877232377972 0.0333845987429 0.0114305157659 0.0994352950943 -0.12996517636 -0.151813134929 -0.0674763145871 0.0735353849395 -0.0240505642645 -0.00183996876344 -0.0146477414967 0.0370659570098 0.123434287039 0.0613109490585 0.0101670949385 0.0417282754476 0.103821093872 -0.0471161759663 0.164750961021 -0.0908703927543 -0.136380380053 0.18536039294 0.135190688043 0.0623816870972 0.096387088555 0.0421735637211 -0.285313332493 -0.143852655635 -0.0529473243342 -0.0849219947334 -0.0841901503401 -0.119836255026 0.170761543585 -0.0171603401495 0.0191990507523 0.00191744450328 0.0134800055194 -0.196929857037 -0.00974763291223 -0.174694683767 0.0219268458676 -0.00651033010289 0.205656173586 -7.72380217171e-05 0.139845744646 -0.0549958315033 0.0710640070335 0.184785125532 0.0760897134321 -0.0855874538282 -0.054369417612 0.0212160896081 0.137523330971 -0.0222470764604 0.0414714159772 -0.230062725873 0.0650919690018 0.136505980767 -0.0570413145322 0.00323427733806 0.155297649011 0.0301125325923 -0.0054759845375 -0.00453551019044 0.0528729382058 -0.0849964736356 -0.324026680416 -0.110152981573 -0.114567367969
elegant -0.000355584616349 0.0938467290842 -0.0362772375497 0.0283598869149 -0.0345018357552 0.0274695010548 -0.0694898929601 0.154433045081 -0.0279929277704 0.135766555479 -0.0209580645724 -0.14745312422 0.186742877198 0.0240627493753 -0.0253823623523 0.191116162242 -0.109818937322 -0.0528100831563 -0.0284160888402 -0.075107666766 0.0174474827458 -0.0380512487468 -0.0998702277724 0.0220299510608 0.063036919088 0.0675692115425 -0.0151006279254 -0.00311741423441 0.134325106177 -0.00365930987224 -0.0803082448676 -0.0189034300746 0.1093287246 0.00544260929886 -0.0571316304937 0.0336349346389 0.0762448542292 -0.0651479638389 -0.103680449788 0.142643825507 0.101923542092 -0.0313418794516 0.096944003078 0.0856476118287 0.0293304575132 0.0575999428513 0.021380081718 -0.0566725478358 -0.00259567475548 0.168937589487 -0.233003732367 -0.112332101076 0.00305272505031 0.0923473868463 0.175371625941 -0.0575932935886 0.223399663379 -0.176595978843 -0.0840046819993 -0.221296908047 0.0718724875795 0.0712211675898 -0.0350553767389 -0.0678895884008 0.0206629577675 -0.155100025105 0.155665946953 -0.179960812611 0.0143032692406 0.088042386803 -0.112488225784 0.0204174948375 0.111634641522 0.00778738409072 -0.00948817637979 -0.303964142719 0.177895298899 0.212790928733 -0.0660558947581 0.060959271682 0.0587896289318 0.100029485646 -0.129462647188 -0.121758636298 -0.0109174023531 -0.0539160203472 -0.0644908250203 0.0155039728129 0.10402761992 -0.119389729555 -0.0248664562993 0.0585126701257 -0.0240960474313 -0.0329507393919 0.181913722335 0.0676346917743 -0.0535191127019 -0.0128176746121 0.0781522501155 0.104654369611
friendships -0.173745916238 0.169910109594 -0.127942084554 0.161029435257 0.141065556727 0.0948677163025 -0.0726479328812 0.069030885179 -0.203131750131 -0.109911520513 -0.200753301058 -0.18769353999 -0.00768402002067 0.0170128799542 -0.184583140617 0.0164629838406 -0.0642790935857 -0.0764591640477 0.0646450775801 0.0274635222586 0.0633636408873 -0.0224165021491 0.163514125638 0.00917102110916 -0.00413255694079 -0.205959165885 0.0716799825998 0.0469874791618 -0.0732761445058 0.0866434684125 -0.0565463075522 -0.033546773724 0.0315844156905 0.128767249628 -0.0488050944395 -0.0105159870588 0.0391003597925 0.165777025369 -0.131324237463 0.027400112481 0.026593658421 0.13438617658 -0.0435004710221 -0.0790641893653 -0.296898244917 -0.0677624866713 0.0235499346611 -0.0593022942907 -0.111172212351 -0.0981883773949 -0.122998980731 -0.0233872372799 0.138394505268 0.0274566748865 0.0285733151282 -0.0326387469238 -0.0851283665712 0.0455018424699 0.0469783310004 -0.00573125893338 0.226443179385 -0.0419538777605 0.0948739608307 -0.0174895840224 -0.0378507220224 -0.0747922586789 0.0410633399091 0.0149100167191 -0.0460661483317 0.00967711450401 -0.00294816783829 0.0029289497079 -0.125382205907 0.0542056105216 0.141090389714 0.138689591458 0.0268297341487 0.100993050317 -0.219118469213 -0.0367636011188 -0.144351547577 -0.101769227337 -0.164766690158 -0.0491192331393 -0.165238330438 -0.201276231953 -0.132687814645 -0.0333411036952 -0.069086514316 -0.141500738056 -0.00237565736396 -0.0495052099151 -0.0527943706097 -0.0345254574789 0.0122766857384 0.0241876712833 -0.128321489214 -0.0937497688323 0.0253180660063 -0.0924156549638
cooking 0.069505748123 -0.0320176209458 -0.262511316175 -0.0155627767683 -0.118487934155 0.191574930863 0.0135569874739 -0.150829036475 -0.0108332148267 0.0464457187418 -0.120584708537 0.0961874623015 -0.0413531484495 0.0931750488613 0.0135054217043 -0.131437591387 0.120081090198 0.0109636356891 -0.247950975 0.0685287258716 -0.0221946318786 -0.0318540091969 -0.0156169203602 0.0505403990759 -0.0609720551319 0.0681759211291 0.159636060774 0.113054410883 -0.114138401743 0.0798388183706 -0.0348851449913 -0.0152131492929 -0.111553855099 0.174663218162 0.125670141952 0.0131864126778 -0.000126147352956 -0.0463299713658 -0.109198761033 0.0354412335548 0.1338020697 0.066949548348 0.112644789783 -0.105377265643 -0.0608559810695 0.102062679551 -0.150670836241 -0.0377393176013 -0.0653484004581 0.0100828633566 0.0539824596072 -0.0166900278498 -0.0343055265584 -0.107903545239 0.0469046922282 -0.0901962677692 -0.10149923066 0.0536274053837 0.167484014092 0.0262463600462 0.0740898780608 -0.17078914016 0.166399353114 0.0847386438488 0.0845023338332 0.154701138521 0.13097755436 -0.0779993617162 0.195305555403 -0.000516456986839 0.161115907775 0.160597192415 0.069234858718 -0.200366385945 -0.0668353496407 -0.0225172886685 0.01439464635 0.0336997303421 0.0718952588535 -0.0844892772313 -0.112990446406 -0.220652474669 0.0567919365153 0.014577551938 -0.023210479086 -0.0462232216677 0.0642983557603 0.0540249620626 0.00512892392887 0.0610664975652 0.228440749 -0.00546029191309 0.058895408853 0.0466822777892 0.0226426771659 -0.15335721504 -0.00627243164192 -0.200642180746 0.0520151480426 -0.00931739717328
bangkok 0.0210257007093 0.00605056494287 -0.048101405609 0.0213387053443 0.0412724553758 -0.230744932823 -0.00115357756435 -0.0147863819966 0.0858342664421 0.109471550824 0.00807152386536 0.164162663266 0.0455933786932 0.11759201084 -0.116772206324 -0.0318576161871 0.00116228011523 -0.139237138116 0.0651930765951 0.169914817264 -0.0258174257164 -0.0106157158102 -0.00819845861252 0.0324806411493 0.0260648488585 -0.0764401040425 0.0663436004851 0.00452443547504 -0.224943608841 0.0952473559749 0.0622081305621 -0.0470510029991 0.0383404244739 0.200472842674 -0.0722924115358 0.0792683348306 -0.0373378051896 -0.0106566803038 -0.0579263692523 0.110033852287 -0.0712231581246 -0.00907598996338 -0.0606604539837 -0.00695630002759 -0.189506551358 -0.110010461641 -0.0202377164984 0.0436153302044 0.0614776302646 -0.0365858325627 0.143397527589 -0.0540441310049 0.0522657981337 -0.0168203649302 -0.117210461221 -0.0335216087263 -0.0719068757715 -0.018538356322 -0.0388398292859 0.0401450229142 -0.141230722694 -0.088015486635 0.118414845233 -0.113294055815 0.0983702197831 -0.0573383175982 -0.0303367530849 0.0818368507901 0.106220293286 -0.165500861187 -0.00154728282351 0.0951015729445 -0.125368947726 0.0306308445383 0.0364692167232 0.202172474477 0.00727338985476 -0.064566213312 -0.100737584274 -0.13935992121 -0.102539843895 -0.131776604095 0.00966862090423 -0.0357983862038 0.0371608976238 -0.0403150725274 0.00839660194956 0.0606987661244 -0.165634783813 0.210677913314 0.0610060448271 0.0899035214351 0.0956163885524 -0.0618237163683 0.00238254201103 -0.0636068290773 0.0819973202273 0.113416490362 0.0200101275576 0.0387018054804
protection -0.150023136829 -0.215591998166 0.0246841426192 -0.0727801391018 0.0358533866294 -0.0405927868405 0.0678448828628 -0.0288237632573 0.114715975292 -0.032163580348 0.0876565926323 -0.0150184484149 0.0826154585466 -0.106251576147 0.00516200835971 0.0656588346367 0.0961621622895 -0.147429323581 0.0497520244919 -0.104062562795 0.0393708192934 0.0470470079658 -0.14866598357 0.0729050630864 0.0657065162934 -0.126958331065 -0.106457335728 -0.172731801847 0.0139653759465 0.0154135698002 0.11138802171 0.0812597910166 -0.0586129931189 0.161363237821 -0.0100956007912 -0.0385328511251 0.0694758655566 0.0502667012004 0.0627432024426 0.0242576709921 0.0298155220634 0.083001814355 -0.083438680889 -0.00277182490275 0.0215580772233 0.153442834833 0.185935634311 0.0663334205634 -0.0340142948846 0.0407927460456 -0.0509523035082 0.0337713327166 -0.115432389377 0.0504494163775 -0.132951747833 0.117928692556 0.217848000966 -0.0497887668926 0.0655444791194 -0.122808001173 0.0393584193762 -0.00728372984713 0.0436392522757 -0.0566086564307 0.00506471579257 -0.0493328495709 0.0247888364478 0.13429879867 0.0530856570448 0.00229270579614 -0.0952405437151 0.0722312595256 0.000293334235376 0.0911945506002 0.14153222388 0.00905436147701 0.0496739085352 0.132729288343 -0.0797676704919 0.108272441061 -0.039691139964 -0.041678747638 0.0102765906935 -0.0440462941025 0.21882955845 -0.00871329699489 -0.0431985741104 0.0580430046625 -0.0254910972245 -0.0331232473282 -0.152723330982 -0.0295421842326 -0.0111593382911 -0.0825816185885 -0.179183662287 0.0943921330518 0.118526615043 0.0994024372747 0.10017783321 -0.0738172165439
daughter 0.0130846371271 0.0798296427308 0.167411136293 0.188883236937 0.0661719801545 -0.0152409503306 -0.0142155504553 8.65241508463e-05 0.15069446229 0.16664159005 -0.00135671218287 0.13193906854 0.00811989202786 -0.0218786405233 0.18121951784 -0.144913744681 0.0467542874292 -0.0832327552716 -0.106658045353 -0.0336783118214 -0.0518531025263 0.0702488710491 0.102099384147 -0.0512934742004 -0.0527994224442 0.12019515291 -0.0433680204267 -0.0468535339742 0.110457309337 0.0248966521926 -0.0706625366472 -0.0187531039508 0.0214221547185 -0.0240638690217 -0.106813533942 0.0974948604123 -0.124109636771 -0.0639293507504 -0.0934118833035 -0.047429687786 0.0302575476728 -0.135592283485 0.190168727007 -0.07798877909 0.0766186341553 0.0179265819387 -0.00254571288344 -0.029986679627 0.078558294364 -0.127053663243 -0.0795423904467 -0.0339913995253 -0.0464143752685 0.212920574031 0.088856576486 0.0146257534071 -0.0758669607384 -0.0301566920057 0.177688306632 -0.169374587447 -0.0326983939858 0.129880520551 -0.0936866167968 -0.0281994948048 0.0924478108815 -0.0272666596707 -0.0659557020571 0.112135755374 -0.063241620591 0.122593732565 -0.148878779149 -0.237787033242 0.0912159659032 -0.130820329074 -0.00912268504247 0.0668766471736 0.101493970573 -0.0405060590038 -0.0657410749309 -0.0745257150664 -0.0555275327891 -0.145130677941 0.190662135839 -0.10344917544 0.0208386818057 0.0322326662493 0.192601770536 0.0721027539121 0.138123567199 0.195223154789 -0.0846496744717 0.00941671591162 0.0111376224903 0.149740004173 0.0318225360646 0.0641433105794 0.0362180116451 -0.225471448845 0.0582666036933 -0.127455479842
anchor -0.0026670679088 -0.0786497179021 0.0488429107887 -0.180012641361 -0.0331398412801 0.103489417221 -0.0410300509431 -0.0100729114876 0.127344522536 0.164608708289 -0.0493303706813 0.0278556352083 0.0186488970739 -0.0430447615353 0.100659372141 0.0783071177352 0.0208401711539 -0.223701907984 0.0326099838048 0.0414865407456 -0.124827732871 -0.216004995879 0.0923071197839 0.0915703847389 -0.0719263889602 -0.0105825381871 0.0982190158621 0.122369911631 -0.12657908238 -0.0296352447548 -0.0114298747315 0.0263301872452 -0.134401673944 -0.150497895412 -0.0232671341748 -0.0667709548459 0.0431359579972 0.0941393796623 0.0855368745815 -0.0311507269155 -0.104422807623 0.186417028204 0.0859923902993 -0.0972818342129 0.114018571699 -0.0649649080455 0.0437386222776 -0.0239947716707 0.0516646625431 0.0845083818338 -0.0586880646454 0.0907372826539 0.0256740680528 0.188846965946 -0.068497878561 -0.0436837514777 -0.0400766651876 -0.119403747639 -0.0781590350801 -0.0805173364424 0.0154633723782 0.0369673331949 0.113030862966 -0.0683040885861 -0.00666492320532 -0.0562777535276 0.174256950372 -0.0116076448434 -0.00772971695611 0.120065947766 0.0225871545077 0.0542856142073 -0.0325649214146 0.0987119458876 0.0894560791638 0.20235003446 -0.0456182975336 -0.142845516701 0.00161894848073 -0.105539453568 0.16641111754 0.0388449137202 -0.0157272155584 0.0549596537709 -0.00389942303268 -0.0452973717151 -0.0158551378055 0.159475636017 0.0335614044351 -0.107457151196 0.100605584354 -0.14845413677 -0.0836618431459 0.14914680405 -0.000180363415175 0.114537892992 -0.122015635037 0.115976793554 0.159216236833 -0.0371564938494
smoke -0.100328340646 -0.0787369552157 -0.152954078515 0.0679111570299 -0.0990758320493 -0.014508514762 -0.112272551218 -0.0604016377856 0.0808603277973 0.0965799711818 -0.0228673692061 0.0973024964167 0.0215121557781 -0.036993610268 -0.0799202700516 0.25172091452 -0.018422035283 -0.0746886922711 -0.0507707592214 0.070615674935 -0.00529706737393 0.00270326007119 -0.0328627249798 0.051894678669 0.05075304881 0.0613191523749 -0.0601872587262 0.167121814252 0.0637959681054 -0.0976519792096 -0.00341840249776 0.115869641585 -0.0793597891778 -0.149222038681 0.12674273555 -0.159373544815 -0.14601194866 -0.0424752321224 -0.0484275182019 0.0108184388354 -0.006268896227 0.0684679487787 0.00295915015765 0.0819670208434 0.140231349253 0.0627961678457 0.000699084293144 0.0997359497462 0.228653934505 -0.0856024177904 0.028504975944 0.00564246196198 -0.154235561202 0.0832951506419 -0.0694893128254 0.111942967262 0.0496090544495 0.123287880299 0.0191763322566 0.022141138364 -0.150535362156 -0.0241606965305 0.0249636511733 -0.203037929468 -0.00963705389352 -0.00316852526357 0.0913578773223 0.132304675852 0.0854704209776 -0.0329525320386 0.0536182344953 -0.0972652578403 0.0759095920999 0.0369653094161 0.168265856715 0.124034303932 0.00941388834657 0.00845247247426 0.22809294868 -0.0274847138306 -0.0105361132195 -0.041490525489 0.0306621334574 -0.0111057330419 -4.36155668666e-05 0.0881625800565 -6.8269381576e-05 -0.105626197487 -0.125992158565 -0.0858759704415 -0.105710068907 0.17110013909 0.0397058563007 0.0705532541155 -0.0575605081859 -0.0848249142206 -0.0726845770685 -0.102161081059 -0.203564599744 -0.113964038536
permit -0.0454582256895 -0.0307475264945 -0.174039521464 0.0930777320846 0.0242573301693 -0.0747792114733 0.190344626581 -0.0292143122365 0.0153862698369 -0.0369249896767 -0.0422209872582 -0.0378841341099 -0.0360417974502 -0.0221452111004 -0.0110447446419 -0.1815544542 6.49063510372e-06 -0.134547399213 -0.0471490465115 -0.112655041202 0.026088753691 -0.0334167059044 0.0622380291902 -0.0554843702836 -0.0310243831768 -0.06678094096 0.00408494512125 -0.0456044473905 0.0140637683037 0.119314339963 -0.0666687673439 -0.0294036710921 0.0200953148199 0.212772455698 0.158385121575 -0.029895994507 -0.123676579203 -0.0873284941509 0.0691944653997 -0.0179051380353 0.142670274463 0.0711922889627 0.149918260301 0.0922296682074 -0.0951008149837 -0.0857311453013 0.259552348951 0.031187099626 -0.0789330808104 0.112277316238 0.0453420935444 0.00277943482996 0.0953916872382 0.0745109434842 -0.217018480461 -0.113475195929 0.153384934906 0.0470328527006 -0.0210250289057 -0.0503278874848 -0.101788249108 0.0734872983832 0.0202856828143 -0.0692046075009 0.20553671491 -0.0924706009808 -0.121798287555 -0.00207151586873 0.0385132353762 -0.143211007502 -0.0071670413393 -0.0543069065483 0.0512295537008 -0.0408877811415 0.0586095034912 0.130730762928 -0.165689577014 -0.0281726698928 0.122463203235 -0.169297893384 -0.0269468483997 -0.0106579761867 0.00683589081144 -0.0823733418611 -0.130223173488 0.0371417708394 -0.00277482263782 0.0222840325109 -0.039849983118 -0.0846161857148 -0.101075613559 0.15520630854 0.192925800761 -0.00684278141295 -0.0288175650965 -0.160414588638 0.0666742298127 -0.243569426991 0.0892929728479 -0.0544516194458
criticism -0.0280731732775 0.0182884187083 0.126196052545 0.125086604297 -0.182970717466 -0.012779682493 -0.111445709053 0.0408885820226 -0.0362973621864 0.170380989299 -0.0795290135855 0.164050826208 0.0325639189381 -0.0791775052164 0.0296564941284 -0.136405533834 -0.0921402939787 0.00399729827161 -0.0788040867562 -0.0157519697746 -0.0397521464752 0.013413837506 -0.0919184827178 0.114504222621 -0.0500730000392 0.062032750498 -0.0736059403965 0.00103954342179 -0.0635812777288 -0.116248686442 0.0983779909183 -0.0992943000344 0.113328952658 0.0684679414606 -0.0246722214582 -0.0303336363431 -0.0574366411518 -0.00310874372674 0.009458397178 -0.0453830325698 -0.093548643762 0.0964954291661 0.0257786514647 0.2636230786 0.191534947511 0.155951717267 0.138797661209 0.118575142318 -0.047848938619 0.0992422739067 -0.0923818595396 0.180494212586 0.0418559908733 0.00307693988515 0.0401440368894 -0.0847548371771 0.0790471360735 -0.00186461947481 0.166332041301 -0.0279095622049 -0.0792574015728 -0.014483376937 -0.159069883842 0.00175591799642 -0.00560474183261 -0.0185093989644 -0.107148575018 -0.0925359419524 0.0219668005845 0.133632947749 0.0692345993363 0.113878062284 -0.0252952090214 0.0769224214633 0.12662483677 -0.071413039499 0.0328844391008 -0.0104599751382 -0.144348886985 0.0779515277952 -0.0780123389806 -0.0133318150082 -0.135396886744 -0.0221055150194 -0.0109599480764 0.0247368644045 -0.0209633767269 -0.0122848520679 -0.0515399682328 -0.052382046933 -0.113328066476 -0.0313873667179 0.0271921938973 -0.0479582178753 -0.0509459711406 -0.0440437514731 0.0670715657294 0.228148222217 0.210149947426 0.0195364207083
divide -0.0452410006928 -0.0649019168938 0.0173685914078 -0.039292014079 -0.128533709583 0.0390158061642 0.0450872278537 0.0122577283347 -0.0833719025504 -0.123820718556 0.0363675648662 -0.0132699944043 -0.0408487676308 0.0997188366995 -0.00603699748611 -0.12155207132 -0.00497419390842 -0.175686329779 -0.165203536481 -0.0894235814802 0.103297877532 -0.0470255473773 -0.0761948567647 -0.10242435707 0.0196750773224 -0.186113829236 -0.0667999360791 0.0427998116929 -0.148155393309 -0.155748839012 0.0871415242875 -0.0481371722298 0.0564083508985 0.0143117857664 0.0142553644123 -0.118192700363 0.0684872444792 0.113539257411 -0.256524565269 0.122929696188 0.103592647581 0.12566852167 -0.0493983874092 0.0740301920625 0.0355062222388 0.153886383254 -0.03563177523 0.121727413489 0.104302397921 0.106195341945 0.0947225869875 -0.058125390577 -0.106064522189 0.105814545254 -0.0461604323368 -0.0593238834793 0.0318266249828 0.208204100916 -0.190591910199 -0.121619755411 0.0981343416262 -0.0485633829729 0.0154040567476 -0.0306159440035 0.0978870866372 0.150868058771 0.0217730702399 -0.187719170354 0.0628191269266 0.0358103767247 0.0888569084922 -0.177182816595 0.207642224274 0.0360527396984 -0.234443573724 -0.005051878431 -0.0472113424787 0.0662761082996 -0.156626423528 0.132159257974 0.04560269819 -0.0595834085892 0.0243744934435 -0.00301851100165 0.0719597939759 0.0277361598592 0.0617274740977 0.107480364992 -0.03632081855 0.120491499398 -0.146060523168 -0.0906411535206 0.0342684953589 -0.0867217678119 -0.0745647319759 0.0274936730653 0.0228734629248 0.0429115663346 -0.0934372937898 0.0761622030856
straw -0.0181527922418 0.110489734315 -0.161432934028 -0.0306790391021 -0.0630576042014 0.1884657395 -0.0669529342498 0.030031775135 -0.0222797704048 -0.180332074073 -0.0562664037643 0.0192460706231 -0.000473227847831 0.0876485772041 0.197417281353 -0.106751179753 0.0906738773031 -0.043185787368 0.0816189694492 -0.0563128142313 0.0998125780688 -0.197200073385 0.0296981117594 -0.0599252251052 0.0868065432609 -0.00594613377824 0.0226667348628 -0.157411160427 0.0840139753039 -0.0962564940783 0.122096638314 0.179416523152 -0.170593992159 0.121144770731 -0.10703990158 0.0219421415458 0.0803943882758 0.0106942062425 -0.0552126495776 -0.103715774968 0.212313883724 -0.0328963047575 -0.0686730536234 0.0859321127612 0.0657856435091 0.0333997864881 -0.0167208589835 -0.0715741183871 0.0507074943621 0.00636015131508 -0.149336664485 -0.0314860928004 -0.035363892837 0.0825225853712 -0.00947601112533 -0.013090204714 0.274136233371 0.128443131484 0.0107851747157 0.048129355703 0.0787526299475 -0.0839453172758 -0.147255961877 0.0889102056375 0.0282023159152 -0.0463774408804 0.138116097242 -0.0140087184429 0.00299889854606 -0.0474342973027 -0.112679455937 -0.181316610901 0.0822369733305 -0.00699364182555 -0.0432930437035 0.0547289852737 0.167639255775 -0.163341152325 -0.0290215361955 -0.195243690291 -0.177530104658 0.134775200618 0.0171908170952 0.00598332194165 0.0626438352968 0.0682170121727 0.00785471761947 -0.281650305267 0.117881037358 0.0953419571166 -0.116613190638 -0.0686282993903 -0.130519437128 -0.12089104689 -0.0611475680702 -0.0466959392115 -0.0727166503216 -0.0746157765451 -0.0959988370597 -0.109812301215
landscape -0.0143960647635 -0.0100700613334 -0.0539888332413 -0.033336297262 0.244229451825 0.23077906005 -0.0447763617043 0.00198878559219 0.0769396967618 0.128233197741 0.173319133522 0.0087757149568 -0.156021670934 -0.0555241568886 -0.184691553835 0.239239112364 -0.113349120163 -0.120646406489 0.270712799212 -0.240893993922 0.037080529516 -0.0338590612247 -0.153091211288 0.0862578118144 0.0378688447214 0.106761601037 -0.0394102888543 -0.0322962726863 0.0238735976676 0.0885390618139 -0.0183305413414 0.00497036431101 -0.206436438641 -0.0392679037447 -0.168157359654 -0.149468791384 -0.0791617200742 0.180115391185 0.0396500917349 -0.124210795514 -0.034004196963 -0.00626393904537 0.31150272341 -0.118378238286 0.00255654647657 0.179894287327 -0.0574198980592 0.0557642024688 0.0412253066137 0.085429736428 0.0743557770819 0.0239396863655 -0.0570183776341 -0.256831846385 -0.0131621191079 0.160200667004 -0.211397142974 0.0111636652334 -0.106964670088 -0.152304368497 0.113848431449 0.0422756583993 0.00864586213082 0.0248822621036 0.00226079396128 0.0892450598617 0.0477193012542 0.0172918443306 0.0664378041309 -0.204063494381 -0.0409090591958 -0.142439101459 -0.0357106120103 -0.105978637334 -0.0524552091755 0.183569566036 0.0778621033251 0.0896672553158 0.136616874875 -0.0467160297351 -0.200707049827 0.109068000934 0.0910373785243 -0.113142038916 -0.0276889457144 0.0220810628426 0.0562587557726 -0.0209612530811 -0.0199059734285 0.0576075666165 -0.0225550786103 -0.135403349103 -0.0690565849025 -0.0459932675547 0.0690228366747 0.0265134107317 0.00680252869413 -0.108321433685 0.23591032035 0.129118368559
overhead 0.0228837167591 -0.0682841273769 0.113879271555 0.0233368232143 0.269637071345 -0.115745072705 0.0507837081059 0.0797966965664 -0.107203569121 -0.248144546479 0.14301373724 -0.0874878384281 0.0088495514736 0.0319460282272 -0.128146581709 0.134937059553 -0.0847059941777 -0.0949477493866 -0.178292831634 -0.0524659071682 0.0553206773359 0.0787500226351 0.167823301004 -0.0829616654783 0.0371063898593 0.0525672582816 0.0923123200807 -0.0523581702378 -0.0956876922331 -0.0472592838948 -0.0253380043886 0.0153175474468 0.145844813554 0.132920874295 -0.0195546749299 -0.0352747913405 0.103628648938 -0.284115154435 0.0324251275219 0.0337391128455 -0.122650353302 0.0638294273115 0.0182220323268 -0.0581677658077 0.0195308003601 0.038377457775 0.0444616383467 0.152422369559 0.0744286322689 -0.00664907514614 -0.180294533702 0.105692177729 0.0727804415614 0.042386576777 -0.00616253756486 0.16377920491 0.141995203301 -0.0623090303177 0.048580029553 0.167584152545 0.105662955639 0.0672525012881 -0.0950195320235 0.0755942020991 0.188434527539 -0.149454600026 -0.000963614264721 -0.0259673739447 -0.0895787540739 0.0426352690536 0.0496061409523 -0.31013871439 -0.170142260119 0.0155651879894 0.0575903617925 0.000786463521255 -0.0731518265541 -0.0365395871235 -0.0310959066269 -0.212265255291 0.020103035999 0.00634554948174 -0.153066297519 -0.00288580316686 -0.105473225223 -0.18653740698 -0.0471503329893 0.152917205863 0.0486526130273 -0.0429974043552 -0.0885120724078 0.0793812991219 0.0415241128165 -0.0762536763674 -0.0761716282639 -0.138630124408 -0.0171091318826 -0.0750919111236 0.0713775106403 -0.0539826308867
strike -0.0135182081291 -0.0947024640453 -0.0558799880822 -0.0762488486188 0.00196558036976 0.0326929870884 0.0845566567217 -0.120431516275 0.0443698219398 0.0598217795807 -0.0265140538808 -0.103222868069 0.102265248001 -0.142812658964 -0.0434272340849 0.214076013847 0.0293397297013 0.00725065900673 -0.136357436024 -0.0191691371126 -0.0285280542125 0.0490236989592 -0.0326227323155 -0.245723857836 0.0557578328371 -0.103491569355 -0.122799196826 -0.00772363819415 0.0932034672674 0.151001985803 -0.119328143038 0.150124066778 0.0882817770674 -0.0855622473952 -0.0304408255441 0.162898135559 -0.00907087789328 0.120557621541 -0.123136205986 0.166473876906 -0.0823285313919 -0.0705108122752 -0.158881428964 -0.0870988653218 0.0292050193133 -0.0304421682323 0.021962139646 -0.099463023492 -0.16941555792 -0.127153181089 0.0622752031301 0.143345269407 0.0360177346593 0.0714115972558 -0.129364709715 0.0684747564027 0.044654706199 -0.0630768273597 0.220255332242 -0.0906580391271 -0.0998188753681 -0.0314638980657 -0.0270361792432 0.127110305192 0.137052977802 0.214397131735 -0.0750301246149 -0.0348823708353 -0.113451784243 0.0839393445754 0.0109400771796 -0.0229689849848 0.157340137116 -0.0755210956774 -0.112256450294 -0.0667956564887 -0.081519267112 0.046595146346 -0.0862005223103 -0.12618449621 -0.189891180821 0.293514102875 -0.0363896884256 0.0112416209034 -0.0368870265844 0.084978276364 -0.0799144085343 -0.0508723352225 0.0400137023792 0.0541328844494 -0.0440007729822 0.0777203030667 0.152038590624 0.102906676738 0.000736054626691 -0.0332140380245 0.0364622311617 0.0534959511584 0.0730406358054 -0.103209794903
hold -0.0351288504629 0.126545427777 -0.0858162943174 -0.107738666789 -0.0822991142687 0.0767294993628 -0.0706263461038 -0.0252451318224 -0.0434231473478 -0.181429590069 -0.0117929036318 0.0139966235576 0.055451095882 0.0587230603428 0.0310386396266 -0.0243904003947 -0.116854711676 -0.0934716344325 -0.0630219956163 -0.198253529603 0.00142249919607 -0.12625376536 0.0655894679778 0.0367946020258 0.0937563519675 -0.0135117640246 -0.0508209231841 0.0743035234875 -0.158050005423 0.131735780778 0.0318598405833 0.0456819121588 0.0272137084088 -0.0225956312771 -0.0477146496382 0.0011645719607 -0.0700746652591 -0.218005300424 -0.0226198818622 -0.0558386523944 0.0276897248081 -0.0923007367371 -0.05417488279 0.184762163343 0.0874726657546 0.107392283712 -0.0987354413697 0.00771400188337 0.0334953296163 0.0725200787635 0.0900226033839 -0.270674864063 -0.105984846 -0.25028818556 -0.252081194173 0.0314402693775 0.0723259464439 -0.14913054822 0.0223128982535 0.126862036904 0.0250187097187 0.0579745284426 -0.0651251862046 -0.0676496298034 0.0624055385792 -0.00226288827492 -0.113435693244 0.107061608843 0.151068947169 -0.136704016958 -0.121641631014 -0.0428134881836 -0.0567801372932 -0.0133663704847 -0.260605149504 -0.00703948921341 0.0640966821568 0.184105524887 0.00897001407044 0.00411339058679 0.131314698276 0.00484069892229 0.0246908391264 -0.18986524404 -0.00924236193494 0.0291787166788 -0.0634949320261 0.0151302464536 0.135200477564 0.0260041790613 -0.0672218001021 -0.109660937054 -0.182414946239 -0.0307181520913 -0.0466079327733 0.19534601484 -0.0518253636406 0.127667084069 -0.103663804009 0.0518810488379
era 0.178032182378 0.056782210086 -0.0643637171041 -0.0734247898351 -0.0695563300701 -0.0578532774026 -0.222251262794 -0.182638857821 0.119628968602 0.0779092085876 -0.112934001983 0.0598678223085 0.0579003064696 -0.019397353284 0.0273807685316 -0.0471975563117 -0.22576299516 -0.050803610365 0.17010266413 0.0731034703539 -0.0576976000771 0.0187658787706 -0.183675277255 0.247203878149 0.0975860737518 -0.122227164405 0.108290991997 0.0655962962881 -0.015683499076 0.0869225279454 0.0901511273668 0.0438223547271 0.0184983583801 -0.0209022575083 -0.0185380358538 0.0282127397728 -0.0109690174458 0.111885041232 -0.00740152565964 -0.00254809661005 0.00199043539133 -0.0402070875274 -0.00890779393137 0.046271389831 0.16751910923 0.0646799118784 0.0362654802884 0.224697730611 0.00578147519794 -0.0652208255359 0.038193583511 -0.034741556921 -0.0388914215759 -0.0707667596819 0.14909028819 0.0971376674593 0.255347924018 0.00756951649077 0.0181598158547 -0.0749039855032 0.0163251085877 -0.0135471838344 -0.0247672451259 0.18160230935 -0.102105761529 -0.0112855357418 -0.076975892573 0.0213073310054 -0.0497478162068 -0.202260880777 0.168269853959 -0.0579717988969 -0.272240318068 0.104488686422 -0.108749600611 -0.0643899398048 0.183463443863 -0.027013592142 -0.12026962135 -0.137468650592 -0.0509290014175 0.0878150223177 -0.0030946795182 0.0848087354156 0.150242360007 -0.046503581621 -0.0964071497821 0.0457777052334 -0.0177157753848 0.140691530566 0.146504385412 0.0183973187785 -0.0945659676645 0.106916273611 0.0379405617168 -0.0798822913158 -0.150412910528 -0.0519658863963 -0.0717335529472 0.192124702148
install -0.152540393512 -0.182697804149 0.0857696383235 0.131212032626 0.139453940804 -0.0172509185969 0.0391494901044 -0.0539253625956 -0.00727831451784 0.0916399422815 0.0180967985188 -0.117249887718 0.180317166811 0.0854453270885 -0.0623117337156 0.0844885170352 -0.0918317393238 0.0851925139448 -0.0548274719649 0.00178205521415 -0.100801563828 -0.0552548815766 -0.173145173107 0.0381829864109 -0.0735357710557 0.0569861314347 0.0728127601238 0.016867195686 0.0948019159761 -0.149065601687 0.0755466740976 0.112139564305 0.131521214612 0.0640069036288 -0.218860633353 -0.00363239298392 -0.176075050173 -0.0963320937364 -0.0895868561031 0.103367289599 -0.0405898431144 -0.0366620789694 -0.01692339623 -0.213221074348 -0.179059953678 -0.0151964797567 -0.061842052796 0.113946713019 0.130759927371 -0.0875790841149 0.0879514116969 -0.0538960068405 0.0113223548887 -0.194172149006 -0.0991101695661 0.0916756945747 -0.125314370162 0.0379118456448 -0.184107220148 -0.0140641059711 0.0348562902756 0.145711929473 -0.0782103590143 -0.128290523065 -0.0412600247054 0.0515701135002 0.0470140561095 0.13696692075 -0.0449137954467 -0.00695505294147 0.0296844609497 -0.0123333270149 -0.153356221356 -0.102502628217 0.142166204134 -0.00122950244669 -0.0427607000729 0.136846435347 0.134626407474 0.110703775753 -0.013869629126 -0.0186147805957 -0.13496528883 -0.0389478060178 0.168296915533 0.106920558349 0.0491545764616 -0.0751998347528 -0.000860077581205 -0.112879931327 -0.0762402664503 0.0714193898538 0.0241122974937 -0.038892106374 0.0753567821195 0.0171332631993 0.0361884791283 0.216878476147 -0.0726926718807 -0.0638180617759
elbow -0.0307900344453 -0.00122476680409 -0.0472386055883 0.0499485437492 0.0365393815422 0.109293340828 0.00345055855159 0.110538503509 0.0779912990355 -0.0179434060296 0.0480267347082 -0.0433791964638 0.0515794314047 -0.109761458712 -0.0240174303623 -0.0152366463555 -0.165814201555 -0.306036745836 -0.149524910885 0.0471036648701 -0.0178417499027 -0.0929378990397 -0.0239376972865 0.140615160952 -0.107380225593 0.102050311658 0.150134545045 -0.100087080574 -0.213056021352 0.0966573193192 0.0286377189573 -0.0309524520079 -0.0356651790988 -0.137601592493 -0.0276673393255 0.0581370016434 0.156682032138 -0.0114069973415 -0.0706049655876 0.0559954825573 0.0757425385099 -0.00866775444899 0.146070134092 -0.112693559 0.139629157874 -0.122988504655 -0.0900781380853 0.111504761975 0.0170542867439 0.0253872849283 0.369751581568 -0.0236927389395 -0.0482029698324 -0.0471632722064 -0.103137378742 -0.0158857034395 -0.14177027899 0.120245246038 0.0749952055105 0.0684847196484 -0.0174219784017 0.0161967321173 0.0623017085027 -0.0164052025364 -0.140133036614 -0.0329372382404 -0.0564699597996 -0.0669561233603 -0.0559761463637 -0.00655646285758 -0.0104977160032 -0.0610354570056 -0.0602746606398 -0.173792211203 0.0961439457557 -0.195052068596 -0.114196930329 -0.0245896937622 0.0548380783049 -0.15290532369 0.0976913376149 0.080716711732 -0.0203132607049 0.0175438106244 0.0402633353009 0.174804780183 -0.0664829055251 0.128804288422 -0.0809114461384 0.0261971102392 0.244094058598 -0.18972228226 -0.0393674860886 0.00234271177053 -0.0431341735003 -0.0214194862979 0.0897286761591 -0.0180064370811 0.133952086064 0.051118297022
root 0.0278912205122 -0.129087411668 0.15884847823 0.00421409312273 -0.0530831872917 -0.0530171449038 0.0502610886063 0.0232494606558 -0.0303753654071 0.103503614806 0.0625950150216 0.152771400423 0.0981007693087 0.0193501395033 0.0230226330661 0.0223025760677 0.0829130813093 0.00422213678906 0.0281335465912 0.0277989102815 0.0078597889932 -0.00812856682558 -0.0942915194432 0.0499820353675 -0.0140139974274 0.145164420189 0.0231064109248 0.16903072903 -0.0983378618459 0.0305489055227 -0.0305287313841 0.0224478106255 -0.0221297547105 0.0464643713052 0.0355824232725 0.203736412742 -0.0494169886683 -0.00234076210992 0.100948179321 0.00955548834164 -0.00714581573882 -0.0416565161521 -0.0132565374357 0.0253525285028 -0.0452094133295 -0.0534302757777 -0.12852965435 0.0708762060267 0.062922400185 -0.0211250641182 0.0642854741563 -0.065604751349 0.0755085621189 -0.0188508871312 -0.0974675080001 -0.0490932866284 0.100496579209 0.0360382259468 0.029244171161 -0.0569981860861 -0.0417999200655 -0.0291292117638 -0.139197193959 0.100444174206 -0.154790861821 0.0346202441666 -0.123523646817 -0.0713609749711 -0.00565438296549 -0.0179003794762 0.0297923362546 -0.0425502202012 -0.0454872258106 -0.0732092013902 0.0319080168249 0.0936065300461 0.073103836659 -0.174329179477 -0.18858674033 0.0432881851005 0.0948090972789 0.100172936134 0.0646786471137 0.0830879384162 0.00830413951069 0.0690256886163 -0.0211166857188 -0.0265322947451 0.0541757855984 -0.191734239054 0.127028697141 -0.0230104542003 0.0503120656499 -0.0584181924129 0.1253768345 -0.0461715048329 -0.0663196407613 0.0877265828514 -0.0919309685776 0.115470243811
currency 0.176374745111 0.162770300834 -0.0476427084395 0.0388658714094 0.0628620196229 -0.0512693656971 0.0940125930676 -0.0149955194681 0.0895231159351 -0.1031952257 0.0816249702827 0.00531322067884 0.0100571376349 -0.0163937664497 0.143240578414 0.0354262598329 0.112222475388 -0.0515195135149 0.0838151307323 0.00519923891197 -0.140724296149 0.138385072052 -0.347299583537 -0.0293149359098 0.0473947148869 -0.0418754939522 0.108093069092 -0.118960841164 -0.12071318451 0.0112841190166 -0.0916857996161 0.022968870386 0.227103290558 -0.0947681200685 -0.00954674916547 -0.020049181954 -0.00185904042945 -0.0791815689446 -0.0549064271914 -0.0394501208397 -0.175534235039 0.0486781050097 -0.261074876166 -0.0195058965258 0.0582018248313 0.101859437602 -0.049278048787 0.0672551261835 -0.0162510740482 -0.0972463970822 0.0086150100049 -0.0845561462962 -0.152818625351 -0.0658980809776 -0.051806592795 0.0877606013701 0.147713917118 -0.0794854680506 0.11523545657 0.013745240967 -0.0227408515203 0.107498486226 -0.149654480278 0.100019912479 0.0168386170234 0.0473546164161 -0.150526744519 -0.0005740951434 -0.00899318467021 -0.0418902156065 -0.0240404506069 0.124349010562 -0.0787147838776 0.164815747477 -0.159756588655 -0.0947814237837 -0.0431631417333 -0.00592760136049 -0.129524015217 -0.215863528709 0.0904440233403 -0.0925078097142 0.075224234588 0.0465561558183 0.0198686651925 0.198515217188 -0.0593021396932 0.0444746402787 0.0168496606014 -0.0300370255877 -0.167068198441 0.0274360070284 0.0204931931221 -0.00290548955399 -0.168534218398 -0.0792597655011 0.184456515227 0.0455628613842 -0.0215401609625 0.164678578634
beach -0.00414759781037 0.0522254110545 0.099644113709 0.0296430756744 0.190069500354 0.0934811604535 0.0591541633276 0.139691362175 0.22734230253 0.0170574391876 0.118914178018 0.00481667929874 -0.0117257676759 -0.155015155703 0.0975883292283 -0.093946575595 -0.144054980064 0.0674875805396 0.0243678553436 -0.170274728981 0.162423727131 -0.11642031234 -0.0875127748757 0.0833646382484 0.0123019423645 0.0527101988879 0.128972077897 -0.0727805464921 -0.211137364501 0.0260453568509 -0.0995811185731 -0.0199619936165 0.0148613383406 0.0100286734658 -0.0827648473825 -0.0836480858906 0.113421542478 -0.111884096934 -0.12389486719 -0.0947585311739 0.144847453171 0.102725680566 -0.0851992829718 -0.00815521343022 0.00512117837262 0.0874376004487 0.121077785024 0.0549043367872 0.0729321320505 0.0751739196245 0.0101014074676 -0.0830764453335 0.0774900163362 -0.0399500376931 0.149056607438 -0.0204156879781 -0.0442847418924 0.126298123071 0.182440582554 -0.0435166648543 0.0841468986131 -0.0498645937334 0.0584877607409 -0.0880741099152 -0.0655870578325 -0.282585012212 -0.0143708066661 -0.168627846393 -0.139114685142 0.129821861073 0.00307397518334 -0.0284239383056 -0.0704916715963 -0.0673508624736 0.119253023055 0.181107901484 -0.00979139340481 -0.0256159314088 0.0121384208647 0.0556353074857 0.193902673756 0.15152829994 0.0214596805796 -0.0180775550024 0.170885098392 -0.0632135342041 0.0100691958906 0.0680335855035 -0.0373924761849 0.0549697577358 0.0337164327981 -0.000360616519094 -0.0365636161882 -0.17434076723 0.108534948436 -0.124558049972 0.129744972821 -0.0356425318818 -0.0578727841135 -0.0568303722129
poker 0.270066697928 -0.00192011337176 0.0248465475249 0.0373278338181 -0.0144484211481 0.0975217535967 0.0849450615738 0.0231264129103 -0.0374741698628 0.107413102404 0.264587012621 -0.0704139388019 0.0365967534925 -0.109555296713 -0.0205038465509 0.042560594678 0.184795583377 0.00444320576495 -0.0621444967487 -0.154574588158 -0.00993097518778 -0.068901186275 -0.169095393959 0.19934332652 -0.0389419949576 -0.119679122285 0.0790553636468 0.0534339117214 0.161919667909 0.047903887784 -0.146209709515 -0.288049772066 0.0200549183099 0.0801743700376 0.0389926500617 -0.09908655915 0.0631394163542 0.07182159843 0.0492846892928 -0.0655225087985 -0.151567921091 0.148556072343 0.0403893208107 -0.0615253438511 0.106253813088 0.0311229002798 0.0269701525979 -0.155536745072 0.0355622819937 -0.144766907935 0.104335724483 -0.0612425920578 0.172980401118 0.0242764572026 0.0156058883843 0.0881470848356 -0.0764431673712 0.0328418347728 -0.187900292125 0.176949576452 -0.00991933693243 0.157040474335 -0.189946636557 0.0978526254616 0.0430961086785 0.138209692001 0.03025241902 -0.0976704809442 -0.0828677616351 0.00993722951687 -0.0322191008948 0.192591810794 0.166755154352 -0.0873767438156 -0.0252400812276 0.100603490439 -0.0699122306119 -0.030586856083 -0.00372041683947 -0.0588550878519 -0.157550597388 -0.00840664021403 0.117901658352 0.0943407565186 0.00412993428789 -0.0998049811388 -0.061410917422 0.121881095139 -0.0673943662851 0.00520435544803 0.0994587165599 -0.244295227854 -0.200149173941 0.122566814454 -0.131376649399 0.0746971212712 -0.276645713742 0.103004426203 0.16470702811 -0.142723390339
soldier 0.0139975745163 0.158588279477 -0.0272703527925 0.105266232349 -0.158787240706 -0.0850779615243 -0.0861632761939 -0.0574644116945 -0.0550699395434 -0.015400576464 -0.0887665187237 0.0340537739986 -0.144704310525 -0.032391653509 0.00999499997324 0.070737851631 -0.0897180980225 -0.111995880244 0.00333636216239 0.118253985122 0.0541388104272 -0.0862058175166 0.0228068068052 -0.109081704974 -0.138623330477 0.166565854123 -0.0437527210683 -0.123731882313 -0.0543888617379 0.0135831949256 -0.116559787269 0.0184449591171 -0.0142242293367 0.115356422095 0.0644971126799 0.149473156085 0.194909685654 0.0283392178811 -0.00692255514644 -0.00102317313095 -0.0364003403716 -0.0771647949909 -0.156289071826 0.218423571865 -0.0906262695715 0.100669199204 0.0607134641983 0.016236974433 0.0245931787463 0.0217820440625 0.138233141332 -0.213382795618 0.129056159183 0.00981217618071 0.0559951547851 -0.0100725707078 -0.108277037234 -0.00011043552912 0.0285978375965 0.0711022125966 -0.061008956715 -0.121111945822 -0.216366770904 0.166267337856 0.0172722266874 0.0239731366864 0.188849663177 -0.0117302955883 -0.152100137875 -0.0426496751081 0.145231262626 -0.0174926534475 -0.0435268405233 0.0259055667106 0.155274120931 0.00827534637424 -0.0217583594718 0.00193948377838 0.124165075752 -0.238179246848 0.0728190031041 0.0305815211212 -0.189027617992 0.0439151306385 0.0241476745552 -0.114556580089 -0.0748881846875 0.0530398019209 -0.18311599588 0.0406785688342 -0.111668824356 -0.0271460017274 -0.0155304173399 -0.0725331135608 -0.0424273772086 -0.210859192166 0.105848488459 0.0811583568558 0.00548133195184 -0.0242806498652
modest -0.168386212915 -0.0731319108698 -0.147770377231 -0.0397647213302 -0.0914325133671 0.118407418343 -0.149171527101 -0.183370656221 -0.0149990669696 0.0601304150897 0.0156860659154 -0.0837723297952 0.248602843851 -0.019088581829 -0.0122285836914 -0.0407469377084 0.00207727378463 0.0688324073538 0.0412285088717 -0.00256399674064 0.0421534766072 -0.220624880614 -0.0592292459814 0.0176504685158 0.179465575974 -0.00287139538362 -0.00892356382551 0.115764473643 0.0112590302921 0.00257088460703 -0.011616132886 -0.0899713004146 -0.0225478487197 0.00180157478135 0.0241968369347 0.137115248577 0.0897223157558 0.0127195628398 0.0240600529971 -0.00903138244748 -0.144102806511 -0.037838531489 -0.148668703644 -0.0208521820625 0.33340840129 -0.111122374514 0.177840376756 0.0252803296676 -0.095877582206 0.0295995599661 -0.0354991859792 0.105140366795 0.0441366824271 0.159838369006 0.0889913681777 0.144653441376 0.0283397876266 -0.16363066123 0.0643432767852 0.0431211394031 0.0823348160788 0.130670830914 0.202118956557 -0.158181489592 0.0755180287484 0.0521200959446 0.0571306853309 0.197039108591 -0.154504998264 -0.0170212308299 -0.162772400332 0.0911506606833 0.0328945602253 -0.0048367297717 -0.118746069714 -0.0937992909311 -0.0847391541541 -0.20800231944 0.0648968557239 -0.0756591057436 0.10377444533 0.0109307217184 -0.128755202395 0.00632696363459 0.0410168714029 -0.100222507003 0.101310957578 -0.0296044456245 -0.0598198402024 -0.0157737942221 -0.00854795768746 0.205866528086 0.101194894918 0.0694457821126 -0.0917214579819 0.234406341697 0.0445041191814 -0.145235827782 0.113502598088 -0.042125761181
arch -0.0715922288338 0.0237750654409 -0.0520659555859 -0.0918122548363 0.0748534139524 0.0587274315462 0.0206188083192 0.094112852354 0.071541947202 0.0058132752727 -0.0147527626886 0.136244131505 0.140023570303 -0.0776186347827 0.0494136105292 0.03311008524 -0.020988597818 -0.0827822404449 -0.0242472192301 0.0171785116865 -0.00329099825935 0.0669653606183 0.100273443641 0.0307792521045 0.0122692628236 0.0252178308451 -0.00572657984557 0.0233990637111 0.0222562202823 -0.0375944379867 -0.308754234963 0.106841496128 -0.000248127275593 -0.0301100785425 0.0671709984025 -0.135142333477 0.0189251997459 0.0399160188212 0.164015861335 0.0052163170463 -0.126447504089 0.106263062858 -0.0117825495113 0.0864281266362 -0.0797937927703 0.110055574099 -0.00620774807733 0.134447746074 0.189039933328 -0.0284420581809 -0.0197745095377 -0.058574020884 0.00636159319603 0.019891306412 0.165503748466 0.0672943219626 0.12176041943 -0.0856375111336 0.18339961189 -0.183404747309 0.0571694460507 -0.173604029505 -0.14117585239 0.0825277155888 0.0190771210134 0.0847784655993 -0.00775730696157 -0.0941055011568 -0.0737334494359 -0.0560302250659 0.0956239825209 0.0204360151923 0.147213734476 0.0377603234242 -0.0999241682904 -0.0155210416354 0.187135359543 -0.119881710862 -0.140144443101 -0.324957325659 0.135611230722 -0.136424466291 0.0067195415371 0.0873088507321 0.147658335354 0.0432424718792 0.125515055914 0.146878564568 0.00414218817652 -0.0512368500222 0.0213937729602 -0.129048063613 0.0142377055178 -0.0336627453477 -0.123120159559 0.0346030218839 0.265467950561 -0.040649694133 -0.252234818376 0.125020876477
splendid 0.224634831388 -0.0565998917478 -0.123102007537 -0.0855012881983 0.0469358685231 -0.086683531608 0.126986470775 0.00368456811226 -0.0171150672227 -0.0704568135606 -0.0409193778635 -0.0953064478602 -0.0566943989767 0.0408539426505 -0.231040765929 0.0221720055983 -0.074795371725 0.0288082476447 -0.0103222841903 0.109372035226 -0.0721445448107 0.0114467189149 0.129939335685 0.226095932644 0.0666754270796 0.0551163681328 -0.0331649475185 -0.00501140889699 -0.164099072491 -0.0259792125929 0.0840249202769 0.0533733411029 -0.0184904246537 0.039798706239 -0.0848315370972 0.0525709612348 -0.160348238453 -0.0626763844685 0.093586327267 -0.0240620953874 -0.0308723937315 -0.165804123081 -0.0101997125811 -0.193429031788 0.055552642385 0.0913933333052 -0.111653614919 0.157670243381 -0.00645079190905 -0.118621408578 0.112212952638 0.244743360052 0.0995072283387 0.0491039387595 0.0430184010655 0.0233670747604 -0.146245518307 -0.166972401311 0.0366898238258 0.0278299801311 -0.0815268979842 0.0176968703403 -0.193648331248 -0.0262002103159 0.0484427903443 0.00430303021556 -0.0196934689199 0.013088718179 -0.0213929458211 0.0621056628757 0.170617320758 0.0510307190199 0.0874101882676 0.125768948688 0.0465608518191 0.148883637039 -0.0553242198444 -0.0761668940411 0.0328971415986 -0.0376895577577 0.0442401039295 -0.0712184046222 -0.166756778214 -0.0207579672982 0.089673998083 0.125972456433 -0.034179383153 -0.0645243336899 0.0259254133987 -0.17770302451 0.0314662529545 0.0137452018384 -0.123272153319 0.0538484867757 0.0542283152221 0.123523330196 -0.000595979474109 -0.120187336915 -0.0973990143149 0.0579114483803
hypocrisy -0.0345068694408 0.0637387349385 0.0203033580312 -0.101540213958 0.132691625213 0.029926843671 -0.197553567507 0.0572198597904 -0.153357181983 0.16326479561 0.104133556094 0.0206712381489 0.00864557271388 0.00680657439865 0.0393137961199 -0.291756998662 0.115124824293 0.0933234888266 -0.0971182066086 0.122906672516 -0.108146951375 -0.0303652023498 0.0146965232242 0.130022944599 0.0141710928634 0.0900067173518 0.119867840161 -0.0810975402096 0.0159949781421 -0.084948437181 0.127574732921 -0.00707496953108 0.0254695034857 -0.0645177046296 -0.150280321129 -0.0844576061347 -0.0945926067537 -0.128416580109 0.201658427331 0.0340915468316 -0.0354423548764 -0.138450022971 -0.197023863071 0.0434713434042 0.0428171445172 -0.0549126368234 -0.0285779864459 -0.0225591480147 0.0890515647287 -0.0874645944686 -0.164829301729 0.0897864927171 0.095453006064 0.0883465230702 -0.0605310136671 0.131647832972 -0.173680057771 -0.0361349419986 -0.0455538183701 -0.0707399688001 -0.194238995057 -0.0399116823698 -0.0249918225395 0.175793115486 0.0776324367464 0.0357292249842 0.0362917553324 0.136414310098 0.0532444953152 -0.0317715922104 0.236164861488 0.0382949952146 -0.112186547113 -0.155532982409 0.145670654374 -0.0914491070307 -0.176831090141 -0.107449810137 0.0757742137251 -0.11063993564 0.0358994207196 0.0107890029366 -0.0761155542162 -0.0894162000421 0.172956895464 0.126586207006 -0.0819103816626 -0.269641160994 -0.191546420843 0.115617920604 0.202462462499 -0.0704450354901 0.0178495760809 -0.0178223369562 -0.266776603858 -0.0520521446557 -0.1105240054 -0.0310959601221 0.244774522538 0.0191884938621
comprehend 0.0456130106001 0.083973430641 -0.119980179893 -0.0293384919994 0.102425998989 -0.166384356984 -0.0148232459494 -0.106322404749 0.0868494700821 -0.00116669579707 0.147684345663 -0.0388730163172 0.0761610594471 -0.175986306787 0.0227135138095 0.0020845075341 -0.0293077738922 0.020403179938 0.0561424751575 0.077354918338 -0.101471536785 -0.113683595838 -0.00868067633267 0.0108901037023 0.0426577604881 0.055663906352 0.0879700578896 0.115797993081 0.0574013531859 0.0125530849119 0.175524658465 -0.00183585951485 0.0267819279227 -0.147707963587 -0.0924303408101 -0.0188301323408 0.09084445339 0.0373206184617 0.103615590663 0.0512206230513 0.178517993722 -0.13400509623 -0.079440538793 0.198687021718 0.046652063421 -0.0757695366144 0.0355075328545 0.0298876580479 0.020582851269 0.0627704992991 0.0603930488365 0.0322337193436 0.0646302902747 -0.0107949543993 0.112969749673 0.0203392202697 0.0195841798172 0.0951763632489 0.124757679967 0.0337555783538 0.0934348304328 0.198323370138 -0.0448633807235 -0.0340597264188 0.129452299434 0.105721020162 -0.0439893882335 0.0398822932006 -0.137915979351 -0.00675908275857 0.0311269409929 -0.00717902910466 0.0114433431123 0.0611684863235 -0.0425282282836 0.0436641175274 0.0403747646085 -0.0395494191582 0.00898899072658 0.0089069834325 -0.138443294296 -0.0735801515358 0.138781658605 0.0544456960038 -0.172543929446 0.0943496581272 -0.15043321407 -0.111038008131 0.0728537319928 -0.0424587053999 0.0822543580531 -0.0790379221358 0.153870607953 0.272574955789 0.0599649314264 0.13937350722 0.0788780646248 -0.174544830578 0.0465855831724 -0.0492138970601
plantation -0.1505315525 0.053342663204 -0.0215253043846 0.0234146374335 0.0300801559254 -0.00776490707448 -0.0486428527217 0.047734721533 -0.065761919092 0.0755179041646 0.0526095574455 -0.12706147561 0.121071114921 0.0226776802902 -0.0873750075494 -0.030080444266 0.0636422695038 0.215329788455 0.0112232061891 0.0757377428908 0.078689231902 0.0136378724088 -0.0473292551681 0.0354347411376 0.116192808714 -0.0485885693451 -0.02320117231 0.0919829141737 0.101150436451 -0.247120250458 -0.107415894971 0.0690613061132 -0.0921235020681 0.0311448303867 0.0645908927934 -0.1824504903 0.0949941190645 -0.0756097629751 0.0391710036616 0.0697530857142 -0.0627045292836 -0.13747528771 0.0136582965631 -0.131400567195 -0.142617604068 -0.106391404343 -0.0971284629522 0.140613904939 -0.152819684373 -0.156682460677 0.0298535558767 0.04641739858 0.098027560628 -0.190656380312 0.20493442027 -0.159291045218 -0.00673499810376 -0.0263756668081 -0.12569967275 -0.0536044241651 -0.0903265755347 0.0615183215863 -0.215012975074 -0.0507388242684 -0.123246076192 -0.0679764756413 0.193909346193 -0.1624591885 0.215238864668 -0.0108404240072 -0.123454704477 0.0190329841348 0.0589177261684 0.169000046748 -0.163631051604 0.130267519496 0.019117956699 0.207395973591 0.0615938276265 -0.130033236121 0.065873187587 -0.0545218302071 -0.129961285743 -0.0772319541683 -0.0389492181263 -0.138556896038 -0.118311619737 0.00287552469039 0.120890430431 -0.00879569196954 -0.030852190858 -0.0392839688838 -0.0553502535467 0.0607895995126 -0.128919322262 0.0330114760256 0.0857764243817 -0.00468525811237 -0.125770460017 -0.0294788322058
overcome -0.0870742227366 0.0623049328915 -0.102221769482 0.0328171745613 0.19758947081 0.0866694458743 -0.00563449439149 -0.0540863850695 0.151678927333 -0.0756788642633 0.0910219183207 -0.1471144808 0.180542662055 0.0555994226723 0.159483794372 0.095204572522 0.171131076157 0.120416596167 -0.00198987127129 0.108375915746 0.0419289894724 -0.162978709943 0.0262765198169 -0.087556677872 0.25170227143 -0.02420305965 0.0704010374999 0.192144926833 0.0503367211269 -0.0711822313569 0.109177614581 0.0392916958624 -0.00960904864352 -0.116229622375 0.0472111217911 -0.153429424276 0.0704236028782 0.00876298179956 -0.150484711656 0.0921618013138 -0.130968618317 0.0466945128342 -0.0987359409465 -0.104252066109 0.0243438339552 0.119272592624 -0.0838596411596 -0.0903377642388 0.152110377811 -0.00618301076375 -0.0393128042749 0.0908848467867 -0.0189792693982 -0.0529414309206 -0.0677607975316 -0.120051564152 0.119148486758 -0.0771345288993 0.074729668656 -0.0178655414721 0.0908995999363 0.123476187418 -0.115682465719 0.0146576463758 -0.0379815616374 0.168967296713 0.0388581583981 -0.263295795797 0.0653306786973 -0.0681653315195 -0.0289998712763 0.0593885288554 0.134185511078 0.0859503449699 0.0357465763824 0.0865259211561 -0.100573106963 -0.0200073945511 0.193002959461 -0.0959346641408 0.0584257423108 0.077879207556 0.063667802123 -0.0175977616682 0.123650175528 -0.0983737551109 0.0990130779063 -0.0118188470915 0.028012953331 -0.0970220703436 -0.0478526308725 0.0473660565863 0.0874191063196 0.0121760873077 0.061471465665 -0.178211356631 0.0401535265743 -0.0238669918675 -0.0610033023469 -0.0924166477715
einstein -0.0575365721519 0.0952288751115 0.0079410266781 -0.121824210914 -0.0661147844172 0.00371188770501 0.185325794669 -0.0347324258208 0.0730203556697 0.011597141641 -0.0954789761191 0.0184216496798 0.0220341788102 -0.0015058891128 0.0838796236218 -0.0645646687417 0.129179415713 0.0310056909138 0.093902135313 0.08029904487 0.119983219621 -0.134734193833 0.0110803452582 0.0309362489701 -0.0340947863104 0.0437732179948 0.0722752234115 0.0671896120777 -0.063062104188 -0.00312757321783 0.00437879575001 -0.221179076638 0.0386910100632 -0.0966829854855 -0.0216811673364 0.0110556349434 -0.11565064547 0.175825742448 0.0689422206967 -0.0880101204887 -0.141750598732 -0.185323939064 -0.173044030618 0.118175252865 -0.11491282684 0.103869704821 -0.0225855427932 -0.205897629273 0.107030869098 -0.26669618051 -0.0763538799404 0.0106934200966 -0.100833358665 -0.0164935280367 -0.115198268867 -0.093023591988 -0.0534401040519 0.092445019369 -0.0130681541815 -0.0284861510517 0.148427683647 -0.000956611648242 0.0393730349354 -0.0401656955171 0.00844391893519 0.0495309456384 0.0689537215474 -0.080804332277 0.148102690448 -0.100186813329 0.00766561264038 0.0253558972272 -0.10416863255 0.174397457716 0.112241208825 0.0125826138811 -0.0510546157186 -0.0347781951505 0.0508299780454 0.216852870079 -0.0207632853078 0.0704553334682 -0.142836925773 0.00512038939108 -0.0364503421315 -0.065285865364 0.142524411531 -0.0257346125946 -0.0885485486239 0.0837602886073 -0.0107663888874 -0.0175763739503 0.0256860875888 0.0357449849712 -0.128249144822 0.244174755781 -0.00584307307792 -0.0349711740951 -0.0805839929968 -0.0147005496577
dictatorship -0.158558196112 0.0566087290701 -0.0903331615449 -0.166297354192 -0.0697104814853 -0.019842859417 0.0908071951581 0.0364148101759 0.0660013041157 0.0817669234152 -0.136062772498 0.0354439782458 -0.146965571863 -0.0842734023236 0.0852659295593 -0.0528202070473 -0.00351886127345 0.0925815176497 -0.0169246087919 -0.0284438750134 0.0446837700795 0.073525309708 -0.0605872854906 0.133741939432 -0.0165379743316 -0.101798025599 -0.0107905379642 0.0248359186796 -0.0946530848439 0.16439732139 0.0238011109937 -0.0728633319464 0.115477820972 0.0372582550425 -0.151624231539 -0.035366538387 0.071277292185 0.0211609624924 0.0198764686791 -0.104893800593 -0.153327249893 0.0745032166246 -0.123431119982 0.0300351839088 -0.0984952453074 -0.0726541697325 -0.158167025332 -0.11554745022 0.0645601150157 -0.0342334969447 -0.0966841149896 0.000908675661736 0.11009130289 -0.0525631663044 0.0555851463781 -0.131133288535 -0.0721647530853 -0.00956306544134 0.00895700582122 0.0076976126552 -0.000729813439555 -0.0636789357089 0.0670478970883 -0.00400167793476 -0.15733476994 0.00355314990053 0.147448588674 0.0310542781926 -0.0360727849137 0.0416450863468 -0.147706057457 0.0867481037309 -0.0555522154132 0.0940560062465 -0.00131557738563 0.0741213969438 0.0374852027562 -0.148468680798 -0.0152305864639 -0.166209867124 -0.118765862972 -0.0103838450301 -0.01712632021 -0.0722255442379 0.0420746492704 -0.0892129883015 -0.0348536156152 -0.100591710095 0.15697350054 0.077120215037 0.042522304437 0.00945695072258 -0.068049428813 0.0482883697666 -0.194737795444 0.16364567183 0.0688380329308 0.00317656842551 0.0857890510418 0.0165774175364
chuck -0.0256725037677 0.0199998675899 -0.0366688973016 -0.0341692156318 -0.00386216355012 0.00829929891087 -0.0155557107046 0.149982622392 0.11424328962 -0.0618872586936 -0.0687463928084 0.100487361561 0.149583218512 -0.173559770591 -0.0913428889134 0.128616578986 -0.220190638556 0.165295827811 0.030889901287 -0.0186681327581 -0.00343060799138 0.157580565983 0.141966844899 0.101570035817 0.116446203815 0.023686802571 -0.0118987446974 -0.198959264561 -0.0928799722943 -0.0960494119864 0.0909557817123 0.0493964017893 0.106066848336 -0.0753839726774 0.0227811037784 -0.126694380254 -0.030987118419 0.226400917936 -0.0978192602664 -0.121798764174 -0.0382282126128 -0.00706186656429 0.157774938424 0.0434338322204 -0.00185523566079 -0.0221566847116 -0.0316480624631 0.0490157543954 0.0842260089923 -0.000562253771077 -0.00176689567662 -0.0955171657264 -0.0978057563514 -0.0243390082249 0.149107562255 -0.0113399228945 0.0206995713339 -0.00206938836892 0.134865560826 0.160558934081 -0.045039752625 -0.0749412931374 0.049023421494 -0.0349927084899 -0.0150820656616 -0.0581624974571 -0.0896307320418 -0.195108721187 0.0553204985017 0.0555086931916 -0.0233713833053 -0.093188779668 0.0309413120694 0.168214546018 0.124933835246 -0.0620616980564 -0.04631883802 -0.0628689969932 0.0154701944538 -0.22352348801 -0.115610406863 0.181754874465 -0.156967686987 0.0867805602648 -0.109349353975 0.0123111798789 -0.0917368349682 0.0649193355792 0.0218419752957 -0.0982501482276 0.107916477152 0.199861938771 0.0506325943298 0.0481288063051 0.00809742659435 0.0839973440191 -0.0246754427069 0.0972979108457 0.00912067139665 0.0848001561311
choir -0.0822766025773 0.0524926501197 0.0436788786005 0.0139843815728 0.247435049346 0.115043795944 0.0891912968903 0.04845708038 -0.218371453503 0.0583448314299 0.124647859165 0.0577523427786 -0.0983822412314 -0.0349857052671 -0.0194357003518 -0.10447394519 0.101525308899 -0.043914245714 -0.0255760563861 -0.284902148001 0.0444515110232 0.0567604040847 0.142491651709 0.112025854182 -0.0571036193333 0.0404996625432 -0.183190442142 -0.199281114598 0.0285698622428 0.121719435593 0.089355405398 -0.0230829306187 0.0708583855776 0.117518630522 0.0259553580373 0.00601319176817 0.10453565573 -0.0304569698141 0.0463930550793 0.00920252713843 0.0753426863937 -0.0440462880379 -0.0746725988232 -0.0561370437241 -0.11405813831 0.0944336423655 -0.0194131833743 -0.160364417407 0.0453301903887 -0.0179452773015 0.0605318389983 0.00242213357816 -0.134613210898 -0.209104664851 -0.0244413485896 0.0710102088589 -0.0384203018512 -0.0951380241358 0.137109922452 0.176495181868 -0.109237605184 0.0263765256573 -0.0537545082276 -0.0388332873603 0.114428688814 -0.0110051977186 0.0415270043995 0.142677493522 0.0439507044405 0.0959930214065 -0.0185764192556 0.0775330093157 0.0890731550191 -0.0806628451616 -0.1661239163 -0.0178676897652 -0.21681470869 -0.0899692315531 0.122173954185 0.0526483719846 0.0718300967135 0.110284261502 0.148469446888 0.145711922525 -0.165467514814 0.0163061577036 0.0503712273871 -0.143248184453 -0.184821034254 0.0359878838949 -0.0719296790244 0.0536771503686 -0.0601853210672 -0.0232085012359 -0.113040971416 0.138273360999 -0.0511065127043 0.14559784903 0.217335024835 -0.0171672076238
burial 0.134153488172 0.0797188549555 -0.0882728231939 0.019329865932 0.0134600300645 0.0203546161923 0.0406348800089 -0.105712878396 0.144084768183 0.000702628689239 -0.0402555612634 -0.0523718696299 -0.0222397231111 -0.0948809417689 -0.121568855372 -0.0491171781934 0.120277745058 0.102067009948 -0.086610691849 -0.0107515503267 0.0733511138501 0.0421991562117 -0.0279978957911 -0.0087567824308 0.0865264457761 -0.0567388305405 0.0438127861869 0.0794161832193 -0.188390453453 0.0182158779362 0.0334555194204 -0.0265969421531 0.122937536989 0.130911999623 0.197080386421 -0.151181869765 0.0525993489401 0.0458872834414 0.0255406190284 0.00222156235427 0.0682754189504 -0.220924356419 -0.00332752906916 0.00227973183057 -0.0197390392475 -0.0589908302185 -0.0514935353374 0.0840384033832 0.0758408104402 -0.0657864368541 -0.0957787149899 0.0208673659583 -0.0535239087536 0.174527796199 0.078522280384 -0.0323212090848 0.0947405320233 -0.0135164029038 -0.0665951858926 0.0473745702061 0.0499698744608 0.070905139122 -0.0875399270743 -0.0620220860427 0.0255373211345 0.157950319135 0.0851421248018 -0.0643906030522 0.0565027533217 -0.0718306327955 0.10443492762 0.0128838692093 0.0145470251421 0.0715302099208 -0.150086809538 -0.103419965352 0.0107596414632 0.0266904715312 0.055060903832 -0.0284307777522 -0.0324958846374 -0.0625050027412 0.0524029003739 0.278072231872 -0.0869515847144 -0.0441198448628 -0.120439833443 -0.13871352887 0.142460402162 0.1669884997 -0.164083571982 -0.0161540920665 0.0393942652635 0.0390918769753 0.0870166490086 -0.0330608906946 0.188692447849 -0.0544410250363 -0.0222894637973 0.0136239166961
garment -0.118318831432 0.218218640361 0.0309683969805 0.322039611289 0.100556122002 -0.177036571651 -0.0140818746959 0.00136160632567 -0.0846923806803 0.0475997902707 -0.148436995137 -0.154082547442 0.0783436624716 -0.146799149337 -0.0743500813348 -0.271875187749 0.0915593766754 -0.063798162822 0.198138476077 -0.0184396008307 -0.0366783484813 0.046031088865 0.0639173317377 0.0673838673144 0.0327991363947 0.0253710745905 0.0936478057308 -0.0223780508267 -0.105522715487 0.0157833400281 0.0317406070394 -0.0235036716184 0.219661572207 0.0814484015841 0.0391930756254 -0.016051872329 -0.0103937254028 0.081297627532 0.0139185175727 0.041883777411 -0.0589579644198 0.243182528703 0.197204288915 -0.073625006933 -0.197582437259 0.115162429673 0.0943848118316 0.121996359036 -0.252707021729 0.190884066046 0.0609539417232 -0.0192852855735 -0.0770171873312 -0.0581879607187 -0.205513219789 -0.0790186288282 -0.0630454326541 0.0817243289706 0.0709602959756 0.154447877563 -0.0293878640172 -0.0653426033445 -0.1153301727 0.00797934811514 -0.126360691807 -0.00901142592636 0.125487734928 -0.0321644048956 0.0619908210249 -0.23542581049 -0.0963562099081 -0.158795633645 0.133943335574 0.133785650417 0.162886489625 -0.0868134125758 0.0525291179484 -0.0161746166092 0.0354660499542 0.185640930175 0.0286078051026 0.0191791922423 0.0520715106615 0.216772389052 -0.0815689377883 0.0310517801149 0.0505989679265 0.017990072391 0.0337341501737 -0.106121551435 -0.0583971958121 0.0574180201773 -0.0708002164699 -0.0307707443534 0.0906909692329 -0.01874229622 0.0838532454155 -0.00756777771371 0.122544684225 -0.0895180912178
literature 0.113405838352 -0.215680910789 0.00234359807917 0.171126850595 0.0866186331182 0.222693563791 -0.0223063897991 0.0356352764489 -0.123032176028 -0.0426649771879 -0.0970395529065 0.0287919446957 -0.0424267644329 0.0258007822045 -0.136932030145 -0.0050691060554 -0.14044371467 0.199510056807 0.0112237078194 0.168740237294 0.0741506638382 -0.0590855884093 0.103294440225 -0.248025156974 -0.0507087298661 -0.0988484717863 -0.130398734016 -0.00628037041325 0.182342497908 -0.0852438624096 -0.0436227917886 -0.0170358118021 -0.00431727529001 0.19316693441 0.0347818872199 0.0128988975389 -0.125487970189 -0.0197678999638 -0.14030604594 -0.108848041317 0.0462668537106 -0.0220767350438 -0.148543373224 0.0332954735606 -0.100756145882 -0.267548207275 0.0290397889256 0.0580057720986 -0.11035587369 -0.146480303617 0.126726983666 -0.300459007278 0.0640095963875 0.175520968493 -0.208335177443 0.0184420246911 -0.0441889217391 0.138209815659 -0.102499886827 0.202600384446 0.0485376176973 -0.189534354974 -0.0305080501547 0.0689737181664 0.0639389264121 0.069202603793 0.0598909192209 -0.0742905194136 0.113040249773 0.294822762585 -0.0506736309884 0.0738101549724 0.0143417059568 0.0179023348169 0.0933946185862 0.025000142109 -0.0626009363632 -0.023998393721 0.0406681607422 -0.124572807306 -0.140877974975 -0.031468302294 -0.0644280860381 -0.0934228288883 0.0376938445906 0.107743799046 -0.00677903571929 -0.0921693894638 0.0878995404561 -0.00107104959102 0.0943903936374 -0.135342493419 0.0277897618053 -0.155974118808 -0.0126358614031 -0.127244623456 -0.0309635393082 0.0723372709984 -0.145811770137 -0.0526540068348
extract -0.0759610254854 0.214307588988 0.00387788327237 -0.148041941174 -0.163319053493 0.255986582197 -0.0910093046042 0.193964452485 -0.183498631449 -0.0381566829029 0.146780568739 0.105787258502 -0.0100211564452 0.0951200306783 0.0848513920052 0.141462863047 -0.0097079041482 0.0143505826801 -0.0434491958945 0.0745021133007 -0.0459136917612 0.0453245198482 -0.199728971713 0.0384926726988 0.00103912044207 -0.152507477588 0.0250869990314 0.00119101775172 0.124536526588 -0.142558595376 0.04727922708 0.0545029428961 -0.0941061140373 0.0363210538718 0.0584762126668 0.0899666741575 0.00819783779844 -0.339009687504 -0.0153630539397 -0.0685671266511 0.0338285307618 0.0396405450061 -0.151696867441 0.0145779096661 0.0227903539131 -0.109460459839 0.0889485222188 0.113592254985 -0.133516554931 -0.126146217336 -0.0188208376423 0.0552270150145 -0.152828121188 -0.0919869733693 0.0851622702361 -0.00448838090748 -0.0145035343247 0.0358863547646 -0.000849549970412 0.00292346769562 0.0833809561388 -0.0334006000262 0.0907818221732 -0.0785049015997 -0.0136549776175 -0.0804671635878 -0.044553205713 0.0628314886188 0.0704008344774 0.011998049684 0.0733071717185 -0.0473336270024 0.10409007417 0.0381273087806 -0.103352060046 -0.147883474115 0.0696168676149 0.160363433895 0.0402824580055 -0.115607953313 0.118405916564 0.0178555676882 -0.104658014164 -0.056322059754 -0.0492697285526 -0.0708512975736 0.0208053502195 0.155144547456 0.112607264286 -0.075512532863 -0.0985883714226 0.0160915463588 0.0638842298384 0.0733857567012 0.0587549000242 -0.00139630791067 -0.0321924180895 0.122398888069 -0.11777048757 0.0408826600921
strangers 0.0369293657738 0.154820677508 0.031148952577 0.0861674220777 -0.103061514109 0.000684114731979 0.0832335453506 -0.00810598465301 -0.141677158659 0.0873572262806 0.262419699043 0.0670131826776 0.205813243402 -0.0751333473082 -0.0692092720543 0.0910745181623 -0.120146130687 0.0457582831829 -0.052774312883 0.138281269129 0.186927913893 0.100785468276 -0.0717376684778 -0.0450796710217 -0.0682373770336 0.0574296084751 -0.0320878428931 0.0440102648843 0.0180732137076 0.0366603469654 -0.0346152657347 -0.0528603387932 -0.0474239461069 -0.0936240432897 -0.14144840529 -0.196400177585 0.148897479537 -0.025816841618 -0.0980254017068 0.0498411268415 -0.0569597683082 0.141107298159 0.0272092026604 -0.000731408858367 0.160895305071 0.0641760499971 -0.00380651435647 -0.107824046099 -0.067305695072 -0.00458696327629 -0.00174272840575 0.295231266393 -0.0071802940751 0.0585377720549 0.153553156376 -0.0197755274973 0.010360708021 0.0747946730057 -0.00841735738046 -0.0280947456525 0.119827237413 0.0923028206098 -0.0640007004713 0.102021800688 -0.0542121146687 0.0299859494664 0.0017852064494 -0.0979355241736 0.00496512098741 -0.0315868519158 -0.0183496776039 0.0922345076134 -0.164550515459 0.0534367047626 0.0609700260484 -0.191012807375 0.0382711183555 0.11544111237 -0.0421095156433 -0.265208589856 0.051971020227 0.0896041596201 -0.00667704066933 -0.0206490341452 -0.0148548176869 0.0257497313572 -0.0500030075469 -0.0443369150171 -0.112426777639 -0.0865795168618 -0.129418353832 -0.034722155429 0.00539368301779 0.0493875751284 -0.0157417617634 -0.0421770628041 0.017375519996 0.00582082043138 0.0990051770546 -0.0837678757474
encourage 0.00921746966991 0.00943540163649 0.00547129283237 -0.0589170011504 0.124020926305 0.0526524402026 0.0127808753553 -0.0250372507521 -0.250900769699 -0.110347556307 0.119940365689 -0.196787882553 0.0705469776196 -0.0509258032456 0.142249544562 0.0827514107976 -0.0555301927078 0.180906337379 -0.0119338855881 -0.0724219214102 0.0799545136928 0.0951388439924 0.0177563709921 0.112248268264 0.052721264328 -0.184636072211 0.0724191838828 0.131759312428 0.0258981399233 0.0307139272328 -0.0390390342088 0.0764138535332 0.0453192672585 -0.112239554267 -0.0874812855406 0.06629886063 -0.0905258396002 0.104983625934 -0.039618716877 0.197534302629 -0.0355986446633 0.0507889723201 -0.119741828146 0.0364753883093 -0.11614580337 0.0572848680656 -0.0724118192588 -0.061072261258 -0.124733605228 0.169517193844 0.0506890152872 -0.141704443571 0.0464878730809 -0.0893487523743 0.175427349841 -0.0467184132377 0.051173556773 -0.112510936387 -0.0534180512694 0.00308812241345 -0.0908209609922 0.153758225989 -0.140873707462 0.0195913475581 0.0345501137128 0.116656301755 -0.135687997375 -0.141233098498 -0.0645970816454 -0.233248803708 -0.155561038645 -0.0413472844086 0.0720624078663 0.0270965998096 -0.161244455033 -0.00251764599281 -0.0782746378268 -0.0831420066372 0.0509625475851 0.075404555294 0.20111595503 -0.0696814340126 0.196876059725 -0.05009839886 0.0209917276441 -0.0903986680513 0.00417387036298 0.0681123017422 -0.114642220899 -0.0272277188489 -0.124263073176 -0.111966525224 -0.0962196960071 -0.0205176760306 0.0152900744751 -0.116035622229 0.186643029916 0.17993146206 0.0918027235426 0.0574411255629
adapt 0.0550075757771 0.150066934951 -0.0259756699359 -0.133973649115 -0.0884476987569 0.028284070951 0.09498451594 -0.166187810676 0.019362711232 0.0769182901413 -0.0313142256215 -0.0378178779726 -0.0685362083584 0.0789834502705 0.015640075307 0.181090813481 0.0394303518855 -0.127762271857 0.0208630961386 0.00260527621056 -0.244853574636 0.126756105097 0.0726006805858 -0.0407618768317 0.144288278111 0.181941486457 0.0346151301621 -0.173501521662 0.112078214035 -0.232669569949 -0.0597578523698 -0.0126845397049 -0.101440229035 0.0485435609785 0.000298314138591 0.0621514472835 -0.0325979159762 0.0129254078285 0.00804745856715 -0.102378612912 0.212159099907 -0.00484587917626 0.0256283456363 0.0295688619414 -0.131860257445 0.0551393299851 0.0839925774171 -0.00142412394514 -0.049627498106 -0.0899602594347 -0.0481873220169 -0.00252776230808 0.0747546178179 -0.155232190638 0.0426384683182 0.101366073238 0.0474351254682 0.216372399121 -0.0928222571507 -0.0207887069912 -0.0224312421319 0.00180490860858 -0.077983873488 0.0755839150329 0.0354532603042 -0.0174322397958 0.0933877407037 0.195396101187 -0.128792857302 -0.0671211833855 -0.0825020813711 0.182381843319 -0.0466316414024 0.113427111759 0.0255634636099 -0.00871052111229 0.055002639835 0.0303279309644 -0.0402615361995 0.304052984087 0.1062428537 -0.0014264710635 -0.137360896293 -0.00513828317248 0.198879725468 -0.0332664872115 -0.00424030370134 0.114864291987 -0.115081507101 0.118561196839 -0.00400399671202 0.0876971117981 0.0760596771401 -0.11653028302 0.055525339971 0.0946472139372 -0.163992504614 -0.014414877906 0.0974502216388 0.0044722972113
medicine 0.0617080897079 0.0345470325575 -0.0241469520428 -0.0114876482927 -0.0624763962229 -0.071274073987 -0.00210339451958 -0.213342616775 0.00377873854896 -0.0590475644018 0.0170485690976 0.131039200858 0.0363131920353 -0.0360596056514 -0.0612811127552 0.0274925457576 0.0112650818715 0.118239442353 0.12467142084 0.123419324835 0.0349516018909 0.122345762245 0.105073359673 -0.162614870034 -0.119531869148 -0.0426983855666 -0.0688170051284 0.20876856601 -0.00343169210424 0.079226045148 -0.169125621242 -0.0483479312151 0.0651618105023 0.0760274409818 0.0116261260359 -0.082853439868 -0.00313879927457 -0.280968622184 -0.124529071231 -0.0107456646864 -0.00215917215782 0.00500618845924 0.0696219351778 -0.0923374536377 0.185642108935 0.019574975306 0.0496172402403 0.00644552280669 -0.00812220756653 -0.00375078176109 0.00312956228565 -0.0143041829571 0.01832086139 -0.150632599178 -0.0698538801104 -0.0830722316456 0.0374314567642 0.0310259055758 -0.162299596849 0.0722558505013 -0.0419903434957 0.0555354263903 0.0494954276587 0.105972397995 -0.0358808007002 0.0780462866277 -0.0804732540861 -0.0226071021821 0.0502794035516 -0.190281322946 -0.17943332043 -0.103641380837 -0.0882389552303 -0.0722003332326 0.0418674022201 -0.0477373465216 0.058970354005 0.0172195829534 0.123513759644 0.0103143774146 0.0752103972004 -0.0811914452031 0.0319613933625 -0.121165402911 0.0166647010952 -0.0506318858906 0.0453829834825 0.20597390317 -0.0588091815379 -0.00370900063906 0.126949883355 -0.00588407174007 0.0843063347783 -0.17637723708 -0.12649840575 -0.181729644773 0.100126296481 0.0245376999423 -0.0845793892603 0.0258189882844
surprise 0.126238312057 0.0241797899138 -0.00568680016909 0.144056364319 0.107620470352 0.063217609369 0.196310117595 0.0378512756812 -0.0121058400957 0.0378375169201 0.0182684923855 0.0468413056466 0.0748883287618 -0.0815446744454 0.000257123797783 0.133006120944 -0.0721753919741 -0.0415650714571 0.119831408837 0.0252352388071 -0.120696590582 -0.0513921005396 -0.0534652179287 0.166080663385 0.0981519930218 -0.115925522154 0.071636403936 -0.088278239563 -0.0398951269606 0.116771024448 0.0840617068226 0.00362652373395 0.00981713994259 0.0738463811359 0.0884550286017 -0.161435195877 -0.138735377614 -0.158899757354 -0.0695027445132 0.189732821973 0.0891904769155 -0.0620600208105 0.304231386576 -0.113285180421 -0.0922024770327 0.245517178003 0.0232724658395 -0.112483013958 0.0241948619632 0.0271258207364 -0.21087591632 0.151513297214 -0.0550011211028 -0.155129395626 0.0681408095449 -0.0103368180683 0.0216563240074 0.00525077647567 -0.0495959060957 -0.0599403317346 0.219178736167 0.0790113096272 -0.0552417258338 -0.123069641035 -0.113491037264 0.0390673786728 -0.04505971367 -0.0243240743877 -0.0476153713949 0.214768437933 -0.13612125531 -0.0733680059696 -0.0605836492462 0.0131740595105 -0.179108030043 -0.0557856840898 -0.00941273936991 -0.152081257926 0.105724474524 -0.175620811817 -0.0582682872117 -0.0110465736944 -0.0219465031715 -0.0606979531526 -0.0290886004763 -0.049190684067 0.0973587397877 0.0570937432349 0.0505152805441 -0.0230994689128 -0.0535753015684 0.0191459537101 0.0550010330126 0.187854395594 -0.0298076374696 0.0591453236335 0.124292099833 -0.114414579047 0.241322343231 -0.177622320475
formation 0.100786997615 -0.0898407465037 -0.0351431001913 -0.082174302861 0.0412555568203 -0.044169330023 -0.0522270365916 -0.003043632192 -0.016492950105 0.0203754031308 0.055827262545 0.0155431446352 -0.142561349849 0.15041537917 -0.0491887135638 -0.0280134857162 0.00441772579844 0.00204724253047 -0.0363579432324 -0.00373963097812 0.0369508897086 0.0594775476238 0.123864255029 0.217990665175 -0.064524387485 0.0261451000174 -0.189176932867 0.0235649548543 -0.00713780349183 0.00173129081712 0.0633301959341 0.0725444809868 0.188571825972 -0.11526424929 -0.0163467627732 -0.00232011755377 0.0121767568594 -0.0628864520105 0.0626517322586 -0.0389381787859 -0.0483704442189 -0.24828120587 -0.214361090753 -0.0646608334303 -0.136340677465 0.0752031776224 0.0628098828193 0.0499529127688 0.0801911759761 -0.00771884038712 0.0750128277071 0.113356632822 0.19629880036 -0.0148267547972 -0.0628345168545 0.196841213064 0.00480797474308 -0.234394421851 0.00709588509587 -0.00661537799757 -0.0973168759658 -0.101271886567 0.0585785141445 0.0426658550794 0.0984626019118 0.112862720429 -0.0255329675352 -0.0580506985598 0.0378245467316 -0.024573116068 -0.0604615466251 0.150858380684 0.135532526631 -0.0591015151028 0.00890909184938 0.0475382360409 -0.0737214455555 0.0473053387789 0.0487566426691 0.0555558445719 0.00612369819529 0.0473632521735 -0.0716139942207 -0.0798533935452 0.0063275706491 -0.0334381834183 0.0126159036466 0.0201944096765 0.148831802785 -0.119496471877 0.07809325329 -0.124841470169 0.122892279252 0.115457807155 -0.0384924367816 -0.0291955611589 0.0836601863196 -0.00447462783345 -0.0908442420312 -0.114399661738
publication 0.0608772145628 -0.105160314443 0.161269613153 -0.0570994598977 -0.0982706912174 -0.163233561253 0.0389860221306 0.186157718371 0.00789803820107 0.0473599672828 0.00208125580208 -0.135798201914 -0.0289040443671 0.0552581622447 0.0525142814404 0.0171050861491 0.148620281758 -0.129192164737 -0.100180538284 0.0549588819618 -0.0708229978599 0.123320600991 -0.12053653708 -0.0996461999949 -0.0317986650355 0.0800143040546 -0.0545466662222 -0.0484522198641 0.0486198155551 0.0635178122373 0.0985491498461 0.03677113756 0.00842673087636 0.00216345293704 0.0591245318784 0.0360743926123 -0.0420448275375 0.0566542307158 0.0900683752592 -0.0923357938199 -0.0483722944883 0.0899605569263 -0.0991300405183 -0.149035328559 0.0341555282422 0.192639090537 0.0868212325076 0.122466328077 -0.00672925921764 0.0891703190075 -0.0751089186188 0.0489834263995 -0.0472870848999 0.0153400917237 -0.0780577857033 -0.169620303956 -0.0134471686192 -0.149087872184 0.24970983891 -0.0774694445145 0.200563598443 -0.047993488817 0.0317711653522 -0.00738960936924 0.0508076780893 -0.0181596258433 0.0639762078273 -0.00484397833206 -0.0130109804567 -0.0356512370269 0.0242656506901 -0.0046816041889 -0.0921100921991 0.0345981827241 -0.0726438989608 0.00781615001299 -0.0287596994372 0.0101056058232 -0.00163385565687 0.0341596125265 -0.104204347491 -0.00190584502518 0.0595731225913 0.0806931305584 -0.0726178850258 -0.0721369982468 0.231622107385 -0.0179317406944 0.00874225517291 0.176607091495 0.0442376032387 0.0368064851232 0.18965965661 0.238615932867 0.00838017630861 -0.128399668695 0.160702687807 -0.145239389952 0.0307184351758 0.0615711677065
inexpensive 0.0475532693806 -0.043650796172 0.0969586235001 -0.0995803046375 -0.0728685236282 0.0565607152963 0.158975380442 0.0224674808735 0.0763656566745 -0.191370955067 -0.132339457498 -0.209982301378 0.178787306752 -0.00565383016194 -0.174880242642 0.0598138288814 -0.117835291939 0.107239393836 -0.126468862516 -0.0104608232539 -0.00943146185533 0.0585965609154 -0.0234760017454 0.0522859781193 -0.0121548271631 -0.0150989323424 -0.0664493649955 0.0609296220073 -0.0881262461122 -0.0984080897806 0.014961955117 0.0025785021056 0.00131149998274 -0.0811563327341 -0.180381561351 0.0502169642901 -0.0730372960207 0.00689595117066 0.141373022808 -0.147738534562 0.123881714424 0.0447348486525 0.0916074144159 -0.0249747271449 -0.0040024169537 0.0916620357337 0.04503401277 0.017796050843 0.185712302396 0.0709550107438 -0.00939947544815 -0.0484869324888 -0.00168116515155 -0.227288977105 -0.10399388025 -0.0978784164969 0.0388754126133 0.061600162779 0.0983157843276 -0.100521126448 -0.0584371726665 0.0315205874461 0.010924190355 0.0381146452727 0.00563727316676 0.00893442885326 0.111517136703 -0.129923139948 -0.0951262648168 0.171771990056 0.0886707480509 0.136623811252 -0.0142018813535 0.0897464880537 0.120474009699 -0.230705169081 0.133404517582 0.0515049252376 0.0636332322328 -0.00445633242672 0.117133803884 0.0858070095746 -0.0620382591107 0.0267643732954 -0.0184295729152 0.0596761603844 -0.0784610713362 -0.00332911753837 -0.0344895187042 0.0906629574454 0.0492741987388 -0.0627014748825 0.0025879671986 0.0775242009678 0.0872872788448 0.0670832715887 0.000146942554428 0.0995694381426 0.081013625782 -0.0123271851105
wash -0.0925774505641 0.0623868558159 -0.104606872708 -0.109832635263 -0.106930746315 -0.0495298624227 0.130006130275 0.0100384088214 -0.0925681644878 0.0381855285973 0.00733073933228 -0.0561356594351 0.0616021377064 -0.0162736444679 0.10522102334 0.0175016649562 0.0252148638157 -0.0765793876063 -0.109029649381 0.0331560217204 -0.0401452894403 -0.0200231123372 -0.0929454817326 -0.126718132986 -0.0159816868649 -0.0236408470967 -0.0704034727579 0.0206556981149 0.105539508751 0.166480491953 -0.0987994666278 0.0276295358129 0.197005033963 0.116848109789 0.153360599146 -0.00827538370112 0.017445614079 0.0755515380503 0.00470059016167 0.00128002908661 -0.118233535752 0.0192595732586 -0.0044243201592 -0.0712889308328 -0.04020382916 -0.0685726071978 -0.112846761924 -0.0015839851505 -0.0604651983625 0.00660527093111 -0.047651009931 0.295615874346 -0.0336374708874 -0.136959204837 -0.0235311550805 -0.0668776179926 -0.000171178377813 -0.211138578816 -0.0123975476248 0.143330180785 0.0618622710671 -0.0220765514501 0.0348988917423 0.0554248919124 -0.0391396058957 -0.0666072905362 0.0209811244742 -0.128286208051 0.0336600606484 0.0665513684947 0.137646944136 -0.0338741430692 -0.00275919427537 -0.106600941418 0.00233364474584 -0.1149757637 0.102048750738 0.0925070139739 -0.0861921879768 -0.0953358203935 0.0166975128626 0.120300504755 -0.0495121756626 -0.0669249607285 0.119311996404 -0.10628009102 -0.0152833808091 -0.121616854301 0.0724171526706 -0.1040567643 0.0011372851188 0.106941308018 0.0407594363115 -0.185562689296 -0.0100352272032 0.0365399407271 -0.105254029894 0.0207031268213 0.0820321237247 0.11587018299
